0.057 -0.303 -0.089 0.338 -0.337 0.177 0.786 0.501 -0.536 0.835 0.648 -0.617 -0.27202486608573745 -0.6766026631831126 -0.6436100584379185 -0.76402541910158 -0.902 0.463 0.415 0.832 -0.96 0.701 0.098 0.078 0.966 0.408 -0.41 -0.284 -0.111 0.925 0.792 -0.715 -0.5800032815761602 -0.16501024903294403 -0.011041349933435153 -0.4241056438889973 -0.4692183988899925 -0.2833801651639406 0.7061190126178138 -0.1957555957954416 0.8052837652031748 0.7974407766530678 0.6588738215161468 0.6456972705124862 -0.41883924738310363 0.815051983218656 0.7539231857968443 0.8064288910978749 -0.9841749548869407 0.3772194576655343 -0.20018310697981898 0.3689768529279122 0.493 -0.796 -0.362 0.007 0.227 0.767 -0.1209909955312585 0.7359337672592563 0.6706448628135203 -0.842039740642666 0.3570063108531249 -0.2078143387655844 0.7814238398374612 -0.6432018643689628 -0.189675767578068 0.3026077960476736 0.11319781107636007 0.026339168341442384 0.34886202986731185 0.4148374628121454 0.5557286149979961 -0.6729812659197263 -0.47387017948285054 0.5981656212540944 0.1023699998187827 0.9534056582426305 0.640195426954079 0.8104466282822145 0.557278188292021 -0.7814308191369199 0.513 -0.904 0.455 -0.459 -0.0579801657323685 0.30580021702232874 -0.9040294365981563 -0.9799305008004697 -0.9994396885977301 -0.20759178754897212 -0.4364251238706961 0.007352932698018094 -0.6032022550773719 -0.3057152206960385 -0.4080180165245476 -0.4859822713833965 0.196827366903434 -0.7263447592993315 0.9243321995503764 -0.5517472111745735 -0.8009771422605731 0.3663023496976415 -0.44153599706867586 0.7265894633579567 -0.1290606768763979 0.17800981882605293 0.6147542280741285 -0.965660379565084 -0.8089896060666247 0.752 -0.085 0.2479999996616261 0.30900068067566033 -0.3350833090324716 -0.7451268008210639 0.3966980209112045 -0.911784133050476 0.24543664729832343 0.5513223904477268 0.7777035953985019 -0.31848715230567853 0.9422680561393855 -0.35578147649404784 -0.02489602077019188 -0.0820550304708611 -0.1574271671111195 -0.7099692113333539 -0.22650436419726067 0.412549405433454 -0.5586029145712889 -0.2927767436656302 -0.4935768858357024 0.8969613645087476 0.21503725951353483 0.5828307902362654 0.5629416117752901 0.7861386631287836 0.43668641970699024 0.987 -0.75 -0.5790172011064518 0.8965909511117796 -0.6791142938644398 0.08347429517883435 0.8146151484819469 0.13416255649881817 -0.909178919848481 -0.6855352888633848 0.5045501750202023 -0.8101899865377915 -0.5183028474932184 -0.9000188614878389 -0.6932991175729001 0.5747327975180426 -0.5640480409863603 -0.0645747105509097 -0.5245865830354633 0.14469895048127332 0.49346546293433763 -0.8864787842392432 0.6626485023471793 0.20732040992130576 0.7276389141022257 0.04379817387810114 0.05690800706510771 -0.0021446091982430687 0.079 -0.11000001623085325 0.8087442310415603 -0.1904666439580685 -0.9872889644152366 0.44375071498726837 -1.019181125368362 0.5112790605027031 0.8620771344422439 -0.2274511170122297 0.8936337066464708 -0.737889394699898 -0.43988455870959836 -0.778223140029366 -0.6826565199869491 -0.9310945717111578 -0.16836479643515875 0.24199085303500686 -0.39391852067620037 -0.29063255210204453 0.5142570489570681 -0.03537059270312629 0.855317088518527 -0.7092265140971964 -0.19028225888198066 -0.17720817685907542 -0.4101302080720145 -0.8554391565910312 -0.9880000091934172 0.012988229626017256 -0.23700227446374528 -0.3787969322242329 0.601987409229264 0.3615980797733185 -0.3142381466169056 0.8308334992199163 -0.19639348368643406 0.2070136822515746 -0.12407735728502334 -0.513424882909223 0.802949286498233 0.22876736030762687 -0.7691091700644789 -1.0737994232813908 -0.23404519094389206 -0.9157828678310139 -0.63238535829951 -0.8415366018832986 0.14349033318890295 -0.5823660194985204 0.3819223254409704 0.6945812174280175 -0.4646686465087608 -0.7891340121977805 -0.9658276495714008 -0.16549119593456635 0.6669999626395172 -0.8379132052092364 -0.14746123558949178 -0.9323343407099078 0.7036392838301705 0.6038199156198837 0.17279318429432114 0.4562761547624038 0.0714393307583486 -0.0016656320067416246 0.11943293964352356 -0.45366374510086294 -0.6493127422940865 0.23101082186613675 -0.9148626820749358 0.49294858104781447 0.7134486120787812 -0.8248877815918253 -0.7608112308760867 -0.7483916240125628 -0.8857307925567774 -0.37446568025155696 0.4876470563681466 -0.36595510797237446 -0.8158707647841029 0.4519384133749618 -0.15784074102880724 0.39764270239427807 -0.4279999715924871 0.6039458923843686 -0.1372469432916514 0.6566725100242843 -0.734187850803461 0.09591439931208522 -0.31774158639864386 -0.3068877195797091 -0.35904943218192836 0.3692057914358744 0.0725950788998913 0.546673990084267 0.4196246183525429 0.29510008103487356 0.06510726195952025 -0.7475259576428399 0.7104842187676307 0.663634695128019 0.7114705168925815 0.6266399322444107 -0.6116283073621651 0.5368162361637483 -0.742591541919891 -0.0947859790918381 0.14407911413269983 0.09879970375023792 -0.28170699156855056 -0.9808170941805402 0.49500008330883327 -0.5136162109233838 -0.9965606786855493 -0.5844655816892778 -0.6062992368436391 0.16573101216233033 0.20723147137985992 0.37299867932588016 0.7335718226347286 0.3101311566554373 -0.07559060028255797 0.7459389135260608 0.4008053529345965 -0.4818238002319884 -0.7307635598313993 0.6624471237667051 0.15155437960416773 0.7356344498420317 -0.7053540860077055 0.8982359383041231 0.8431090768757361 -0.6116747373837151 -0.6842288074856576 -0.9727905126302109 -0.3334143485843589 -0.8953297048716283 -0.7062642772276975 -0.9109888569552501 0.09400034535950152 -0.2368422542983629 -0.6078013849524084 0.130158424046838 0.7428376365754424 -0.15754369240924845 -0.22198313909469689 0.36544554414946784 0.5379075205499199 0.29535570860710386 -0.04005791694378122 -0.08011100079341665 0.6998758168116902 -0.8751012822633317 -0.4535012953510895 0.2178968567863614 -0.5530327029748325 -0.3648762131481328 0.25446918695862436 -0.9287418898452862 -0.27154445162913243 -0.41344532733271333 -0.676481629728794 -0.150007006047563 0.44523617756321304 -0.603025671889095 -0.165820682879747 -0.2933500630010048 -0.23299969343096516 -0.6141265283136633 -0.6710133113479387 -0.2059091965900718 0.9318303942421539 0.5149310013486998 0.457174677898722 0.9547207832138277 0.5351591571551022 -0.22697123473759326 0.07051365369840133 -0.573079841712177 0.9084623814622675 -0.8058175869357007 0.06660618348059727 -0.4879039017019668 -0.19198265116743465 0.6506823564656766 1.0393124082419458 -0.3422966527118941 -0.385783975684236 0.6360219467711582 -0.2678566269561584 -0.12883098138591786 0.9093226331605908 0.10751428723157526 0.5540989116590971 0.14112406671477026 0.1380000198523985 0.5546317264845178 0.057259095247968794 0.309038851080075 0.7290904108695169 0.032331642501340394 -0.47895187503991526 -0.726151323290384 -0.650924148137392 1.130886177487036 0.9161522363569375 -0.4294614893020005 -0.7831663736896121 -0.4310897903945431 -0.1956532716582438 0.026201127129303108 0.7399439154805735 0.06660010120788551 0.9088953113148452 0.16604051888954122 -0.18611706950204726 0.9066292175008712 0.08518906220401015 0.5188271027944155 -0.5597197652941708 0.4344199666519389 0.2878374266566318 -0.02497267388838935 0.26799998327199254 -0.41812371291323663 -0.32050779403323687 0.48116564126499584 -0.18546233188746372 -0.2937298100774255 0.5481150092213382 0.524844141843652 -0.08207818698300932 -0.13118894022070154 0.5495182541807714 0.9454796638329378 -0.5436250116935649 -0.3258304950210941 -0.29498939959718895 -0.7135322106304817 0.7702000724678482 -0.4298284384957801 -0.13473468633835223 0.7287942874738766 -0.5457719291088842 0.7290361949106285 0.36006367332473743 -0.680956707175314 -0.78444479153178 0.7748337306530432 -0.9549729461703202 -0.9740256815923084 -0.8930000048309484 -0.05795625355840371 -0.8495415027307385 -0.7847277331613802 1.0035232155974945 -0.5967305696287019 1.0733473023439135 0.7959576987125268 0.16677273861791575 0.41170942052859055 0.5602409838544528 -0.7783903847549366 -0.30110058461465583 -0.4205569652231692 0.43803750204208913 -0.2835736371575525 0.22053259669474468 -0.41002429888461683 0.57204596385007 1.188171897915331 0.9382059270157336 0.32991664106965174 -0.35809367129336744 -0.1489166318171575 0.7732553611775687 -0.5483032166021106 -0.22666709481172378 0.07160574801374624 -0.27299999630649296 -0.7040008916024778 0.3217879508300511 0.5009130778587018 -0.28590175492903025 0.21053593475076865 -0.26033087814641875 0.1410960998131256 0.08311192163497452 0.10828282095211686 0.049983489535436326 -0.6583061627734261 -0.9780950341982094 0.3128769369308401 1.028745717524224 0.3143856725878154 0.8430388217193523 0.8573078612308923 0.2014579610551101 -0.281970171772235 -0.5155285447256698 -0.09255769549751226 -0.1430747092108359 0.15550124784014321 -0.9384018990426468 -0.7128824031226129 -0.21473104248990277 -0.6622074565467311 -0.216 0.27999954135980853 -0.016104051023308023 0.3413117615510501 -0.663427368089485 0.1965063091404856 0.9220098827846871 0.22487597506242502 0.19223766186589508 0.5841244770753363 -0.5982712154158346 0.6824153730445015 0.3688979142491829 -0.4390147297954501 0.3145582003661549 0.7354268204290278 0.6010108562548068 0.6669497491655295 -0.43038550811924925 -0.7723736851686683 -0.2279749516341921 0.6578343893956331 -0.017961629885200347 -0.6310796872450926 0.11664188226634711 0.8379065788486167 -0.7517157529591028 0.07971299493293656 -0.7909944274110341 0.2969995052420189 0.4193562379817916 -0.8400083047033952 0.2812230759703711 0.002602155683022767 -0.987207043578876 -1.0132546205280948 -0.01931386073335737 0.28432233033821147 -0.4129083096218978 -1.1469645519618512 0.2992705241098142 -0.3274039792630575 -0.20211991860046358 0.25452227777286957 -0.5068316950303895 0.5910101464859562 -0.7819969145941524 0.7933898045046296 0.17856087775477916 -0.884586958974601 0.46829474971244356 0.3222517323889719 0.5148322950200903 0.18484566652567377 -0.8809943107637053 0.05498980198761884 0.15300015274547815 0.5339354418566855 -0.7500930912126101 0.43888754773221866 0.8678655455809535 -0.4332655736480394 -0.7900021786256671 -0.6374293907830352 -0.3784400902933255 -0.25535615371714765 0.34497244902117874 0.1592909311022646 0.7219324792413413 0.06758268171362057 -0.5107663405606135 -0.39094239218370075 0.5185663979176914 0.04529829303964192 -0.4276849620007662 0.2189860654159997 -0.17208142895682915 0.7659252706959344 -0.8601280790381303 -0.9254493584832629 0.6732169876646587 -0.7899284963102682 -0.2264103357609841 0.4329954541753878 0.793 -0.73607445885667 0.7199468586502851 0.7888994600673449 -0.4204607288106194 -1.0070400856669532 -0.48360337370466994 -0.04661519981669613 0.35396004273050086 -0.6275725779499416 -0.4070454832225383 -0.2130046247344811 -0.6016329690175208 -0.2995713132315158 1.0825224651517589 0.24351289295402043 -0.30064357606091574 -0.3251084906270624 -0.4401016563018677 -0.14896104131718207 -0.9461001914887803 -0.9981191687057878 0.5928100286240853 -0.11844793216138275 -0.3798839479069463 0.682889475533841 -0.8269406484722835 0.9799768804939346 -0.3590000223598827 -0.7650266720247211 -0.9937320645891732 -0.6327727710648727 -0.8357448660672785 -0.035241518697869054 -0.43883055776485835 -0.22923073199012298 -0.9192820357316187 -0.9025367607678741 0.17126702212536335 -0.4082000169542269 0.40290663100689067 -0.46598574113735775 -0.7554444052662616 0.47654859039236075 0.112966529151182 -0.6991028930878388 0.2147121905688788 0.44956121444729724 -0.6958586870313859 0.8077867874571124 -0.5901880368599928 -0.7771236791141736 0.31353709987329237 0.6892935911761737 -0.9525898826114703 -0.8250000587313404 0.3829999783388636 0.915998995597278 -0.8723288178472143 -0.5810728160301406 0.37329984153235507 0.06534314430904169 -0.2951122131722814 -1.0843969477233253 0.042128723848075485 -0.33478917907048655 -0.42550168178596637 -0.21455118924510425 -0.5276480410638693 -0.5719990490841426 0.2716747316535721 0.4092088366118911 -0.37302089357359824 0.32413598593317694 0.023482109555631604 -0.9382139330484188 -0.6180829406220495 0.44746022456312257 -0.5799473372709649 -0.689076022434141 -0.46506597244134 -0.45152855919185636 -1.0001237736917374 -0.6800001084270901 -0.64 -0.294 0.018638817705082765 -0.21847393325497563 0.2597503630156951 0.8656912567420166 0.18022745192623232 -0.35933328934497705 -0.2538979573615698 0.5139079738209306 0.2805278993044003 0.2867221019499233 -0.15769930795575215 -0.7119996565870889 0.013059756213561959 0.10873725730925654 -0.510818486436006 0.6579129283553394 0.11668654920151365 0.5017381176518986 0.7429107487531005 -0.9375579179911785 -0.6427653981075234 -0.45389655207977736 -0.869480574335388 -0.3260848167647108 -0.2510792232912523 0.978 -0.601 0.601 0.6945575626388212 0.7640494784198613 -0.4895790571024313 0.3078601784123213 -0.7087808880668253 -0.7622869979672825 0.9708771891692246 0.6136670170590645 0.8554154651059382 -1.0159594622394392 0.31981441264615584 0.13926327254993326 -0.18508360209226282 -0.9532945796829624 -0.3357280304781801 -0.5002571885702032 0.4058580772574191 -0.3676542081894633 0.22005279444884215 0.42814276644501614 0.7136305025684768 0.2718958902882214 0.9139530433326856 0.7281040603537194 0.19562946627263497 -0.28 -0.893 -0.151 -0.5430568071330959 0.4913793616523093 -0.5266250905362442 0.7464266204549389 0.54888466087142 -0.5263273632777608 1.0430630009291533 0.11162073092093917 -0.6552432315300362 -0.7063636220204295 -0.6546737609336268 0.639577238583495 0.48456133827954617 0.26555986824369765 0.4740478958496391 0.8602951572469519 0.4651832935418762 -0.4852109878677576 0.07127305991387729 0.3384195744873167 0.4053698739593559 0.7074885680012232 -0.45833817153124745 0.37967099589380954 0.5436067939536949 0.04 0.146 -0.952 0.364 -0.46499916662086177 -0.32092085381085594 0.7483320891004944 0.7374756634567943 0.6290560572059898 0.7716019020621367 -0.8632893336345099 -0.4419229305115647 -0.8289615998808931 -0.15129669629454323 -0.8927629302462115 0.41180930108595415 -0.4284949909445264 -0.5204041048201831 0.30904582908162076 0.05360489858734322 -0.7829772468758932 0.31453532940784773 0.40275458746637627 -0.9783415358183465 -0.5688707392389584 -0.5839965805612631 0.8710085490708643 -0.767 -0.008 0.032 -0.97 -0.938 -0.671 0.8200049796311007 -0.13104847279883727 0.9536605985701159 -0.9953931079055879 0.34905431142469273 -0.22011778211867422 -0.9806823141940738 -0.8797508089437447 -0.8760577181315766 -0.5669984037744181 0.9707503706490632 -0.6123217477339126 -0.8526357141875894 0.7515062118389825 0.024279150998800087 -0.33890494014617417 0.5647677424840802 0.033046107976302246 -0.29792492456599123 0.6590280515934709 -0.186 -0.946 0.089 0.399 //-0.205 0.852 0.816 0.765 0.81 -0.855 -0.391 0.205 -0.086 -0.058 0.852 0.783 -0.9000190175343215 0.23705548537566637 -0.8478919159897095 -0.7369954964995713 -0.887 0.072 -0.063 0.768 0.012 0.809 -0.055 -0.932 0.839 0.986 -0.135 -0.686 0.854 0.856 -0.907 -0.034 -0.1969653854394902 0.12810153992912698 -0.5980772558481302 0.43199598022718344 0.8014711618112674 0.4662133964323192 0.6271829605260578 0.844360700528688 -0.6827295200090118 -0.053711318227952026 0.27069051666200467 -0.5301561711264945 0.9158658191298785 -0.43527686010561656 -0.0972893479190584 -0.9678124700243018 -0.7315755272390138 0.10359831424788736 0.3905756172077095 0.7960259170154241 0.272 -0.513 -0.908 0.435 0.911 -0.401 -0.23100610496776627 0.41400011865038505 -0.34890393628537403 -0.0029019813339489623 0.14141904613173265 -0.9614258941223179 -0.550400116357559 0.6399070831043768 0.6187716316616425 -0.31421469482085423 0.30301372005842525 -0.7427946324404833 -0.0038200222784326634 -0.7907259994384197 -0.8044284063728311 0.2888280132417266 -0.2462789783918157 -0.7414104842346932 0.9249056270572427 -0.3744475056875375 -0.7534350575816375 -0.8294371450688219 0.1725464930460975 -0.03465629248080841 -0.082 0.048 -0.804 0.12 -0.968984755164054 0.11499509563783253 -0.3210482211661131 -0.2925084873472649 -0.07750143484155528 0.6051846973318935 -0.5719872779859841 0.38320102031452224 -0.4390177789824226 0.8638859452854346 0.025151054358582853 0.504891018824729 -0.41270892016323985 -0.3939357976645573 -0.10239521539667877 0.7081664889263671 -0.8236116250238396 -0.8971904535130287 -0.8888233505781454 -0.9170375083202478 -0.2355122883818778 0.7825997502404172 0.7692890777043508 -0.7936421002976548 0.34015489298491197 0.36 0.182 -0.7409874853235098 -0.23576390954410992 0.44910581156284135 -0.600957457310626 -0.2452979491235756 -0.6876859715049528 -0.19109281001442643 0.6382279626611543 0.6382802149074889 -0.10053860322304656 -0.7057423750129589 1.0305147912662522 0.6162082778937944 1.0999098903220657 0.4410287709963956 0.090544609436521 -0.2847746933688186 0.06310191743016413 0.5290399844875969 0.3137267869148555 -0.4133562262612902 0.5870808716541747 0.5764833357945623 0.901662323580424 -0.10769918077768627 -0.3314335370492834 0.22799276806821905 0.589 0.1 -0.9219550340711475 -0.09207891803083108 0.3807828663237921 0.36008635254077176 0.4678363910224064 0.5263497996203653 0.3969500973079018 0.9645220333109196 0.4779129425879129 0.6228894687029551 -0.4742893512693301 -0.21600033659172416 -0.2086569692658603 0.6475706821587437 4.7088206177718e-05 0.047925424568602944 0.7929275957766005 0.1410413682765082 -0.35092047316438524 -0.9116893891456296 -0.4064388377797282 0.8099103263457634 0.8563293822527807 -0.5956896630624462 -0.08836527043669475 0.2970083185643565 -0.992 -0.17998058263812775 -0.5272194282879141 0.1757381550450535 -0.39911604542018114 0.4895224379650235 0.41302477894847395 0.8967625922030895 0.7288197378670986 0.2723332863595445 -0.6885634294163427 0.4504260928761895 0.8493190472462558 1.0611142321982852 -0.5302917423811979 -0.2333059942571622 -0.15653129213232544 -0.5404345661007517 -0.3549961539184672 -0.25526925570878495 -0.8576464834528493 -0.6827994171496216 0.06592986177624609 0.09082802432417193 -0.256102174846619 0.02858395545585805 -0.9064597492147657 0.6111462004231013 0.0020182999983750106 0.26969988630581593 -0.6673376614333199 -0.8191108463864553 -0.6257162397329121 0.7292633039912371 -0.8883105050800332 -0.07561057820600212 0.7764425908341422 0.5215906932690757 0.5290512892666303 0.3420730253678809 -0.22834429912804588 -0.11007883904630467 -0.2387958560999941 -0.45173323128734866 0.8737738775534666 0.5062271671357809 0.175474078948219 0.03668940725160547 -0.12555669826469018 -0.16230960774209044 0.5143813013895233 0.13706195404170674 0.5800181448302894 -0.9088001037505671 -0.26244638122027536 0.35266258336222045 -0.8039256319214974 -0.364425252592434 0.1629465733889039 0.20226193791508754 0.7379792624763537 0.769348139261957 -0.8529391203990344 -0.5513782956661306 0.8276349253385583 0.5940853533574657 0.9100334389669357 -0.228633818869315 0.7464456066906617 -0.3268061746177332 -0.020608868476976128 -0.05011552048014007 0.25743778747309287 0.32959293032838377 -0.960173943765506 0.030048907276612774 -0.532149933816842 -0.4512166636270239 -0.12182913371259951 0.3462998523911592 -0.744174005292571 -0.27862948321023445 0.4496644957879049 -0.8472773561206945 -0.7609739615673677 -0.6422260211226062 0.549531461151283 -0.9208480246559133 -0.49573498224066875 -0.08254974350669114 0.6512159671564641 0.6092335706616178 -0.21347486215680844 0.43565780478358623 -0.6306747664343922 0.8004890507468693 0.7858977524472707 0.45504182080559324 -0.2504233894861616 0.34004864959617753 0.8841835935872117 0.021512852840798277 0.8236007471276776 0.012759664615254364 -0.5141964496069182 0.5481492282863052 0.7128121663493544 -0.10222695777937213 0.10805401745957265 0.06716793076655259 -0.05663570459142581 0.2536755608858857 -0.8999666672005969 0.3769394654119862 0.40236533912475786 -0.8079637611309896 -0.04739768594158106 -0.034916648111661314 0.720037500669589 -0.10331547495694944 0.05242632400540867 0.22822793154516458 0.2573797358397428 -0.030546070889869634 0.23048367528521474 0.9587550396718972 -0.3278983394814726 -0.07959019085467613 -0.4941436029183291 -0.2655002558492259 -0.411009594694688 0.7914810544536096 0.7370390598093929 -0.08732458098554323 -0.37941535558340805 -0.046183376895787956 -0.16446882493600745 0.07916083660992357 -0.5117664325450579 0.16583333722722918 0.2899810192173361 0.2522994335901749 0.7227662815043224 -0.4377391505267066 0.6404866948046765 -0.09451507176451508 0.3962983476151561 -1.08550353829721 -0.8087029872483597 0.19931374054789006 -0.04304862201251523 -0.9294809387720516 0.7732418738523125 -0.682218930907914 0.08015369325495304 -0.14522629634380158 0.7692867525501446 -0.15007855937030437 0.5496224561376477 0.6146887949713059 0.6699767275680345 -0.6531251271256837 -0.660053282012049 0.38579799298087475 0.5856910893781279 -0.2562696753998738 -0.6636102791821092 0.7958520127412406 0.06300088859444124 0.19775424743117487 -0.12419270832209464 0.6134705069121399 0.5099277746851963 -0.8546554528028012 -0.11945050905288582 0.12636682274958044 0.1989251152222787 -0.3884867964153662 0.6628061583477475 -0.19298710713717132 0.9016194151160298 0.8548831953315348 -0.7339071081701944 0.3502660012697508 -0.7097687529665581 -0.3391837577592084 -1.0140080755860976 -1.120982567137839 0.1412373247453068 0.7789470598153333 0.7016544694912151 0.5659025670409072 -0.27243034583151027 0.07236436870299799 -0.5560118732205034 -0.8560780153614828 0.9819994498687016 -0.2177050700317797 -0.1725981497376168 -0.6954701498541204 -0.8490540858052876 -0.8411852106977205 -0.49260254674297904 -0.3229388916314529 -1.1647378582565797 -0.5369884693355305 -0.6950613356780191 0.8623949941109621 -0.3093982131846663 -0.4608439537456718 -0.46940034319390805 0.31998469042322103 -0.46897707390068943 -0.28582922610716294 0.26707189428578165 -0.911718001672228 -0.02248631270446868 -0.4584302328373906 0.8088530937467301 -0.6233747517817425 0.0826700383983394 0.25975288646527495 -0.9191156038369362 0.2812363088030724 0.30005657248641915 -0.7579699890320392 0.9471500373947619 -0.1261371016703938 -0.7733152808123188 -0.537108539945314 -0.7944692968798749 -0.15436320748649202 -1.0812650857441375 0.5689631323299978 -0.38642584522842005 -0.525679549642166 0.4385480385152604 -0.7334673805994318 -0.6498660794790745 -0.13933174954860936 -0.09264316442874708 -0.23792932301460537 -0.96028712537248 0.2925338253114245 0.5762061244020859 0.7572943904242634 -0.0804230325282997 -0.5135888454602952 0.1349996329976521 0.31906200749741026 0.6853962578648747 -0.3169773170029103 -0.5409686596365443 0.48700161421609317 0.5522908169364399 -0.3568749968114066 0.5068710741552093 0.21425016077768805 0.6911134435784322 -0.25882742674772097 -0.9328905188830332 -0.4421430383709219 0.010590153368361268 -0.05777504011988937 -0.1794625543332046 -0.9717889234147772 -0.6190340394121429 -0.635188669388882 -0.8962380731758516 -0.014676450884619325 0.19975597789594393 0.22133620222457423 -0.5929496146918181 0.9120098665904383 -0.9271310075300587 0.5756956957179211 -0.2656832267475503 -0.22602297594438459 0.38036970948424914 0.6623688472828672 0.6060732378797969 -0.7880183467599085 -0.6642261917543345 0.5919892373371576 0.34044556846660823 -0.851659171622891 0.5657699654253197 0.32151902102559354 0.7096226950971546 -0.6712926647485568 0.7484018658560905 -0.7051032970692491 -0.21050194779409415 -0.8046217920581802 0.3968633919332566 0.5059824974066482 0.2818742125397154 -0.7739228911161385 0.3168789254674579 -0.06758981527674525 -0.8252094705976396 0.7266292760808774 -0.6937623902116254 0.49536793225271963 0.22337108622029292 0.6445504687194294 0.9224988803798496 0.450028066910016 0.379 0.8278071062488052 0.1096945422911183 0.6305781530562455 -0.26699248868124553 -0.046157244798951357 -0.6900578069769854 -0.35860190170282663 -1.0063051566835448 -0.6441426988313238 0.0032253375633693165 0.30071973305388794 0.5298044227817996 -1.0351412368274948 -0.6535282570038574 0.38736870899213444 -0.20377710188625467 -0.8424060719357571 0.09056897558957208 -0.09638345863486066 0.06082945795314035 0.7434207873994605 0.4087828242116519 -0.44294176213960396 0.877077978584331 -0.9616324974908098 -0.8311572252546934 -0.5068187122484213 0.41190851962765884 0.30002458016712863 0.15002901028250187 0.025022721306874877 -0.5302116982533194 -0.13887757148161992 0.9316122147962292 -0.1646392697356092 0.6571133013400103 0.289074006903688 0.1374376133740661 0.17400293792247248 -0.5587668200384686 0.7652462924711935 -0.9630006424877458 -0.606815596278265 0.8834453694367723 0.7049197405771166 0.26728390082237447 -0.593321865964489 0.599711084392433 0.9676031440037873 0.9826791170197566 -0.605312966922271 0.9013514315009428 -0.8033987754107039 -0.20342852791337793 0.5367009433071962 0.5959981819020483 -0.615784766735665 -0.31129744194538894 0.9324768653158716 0.30137750668673535 -0.42198226582153586 0.3974598142120067 0.7913415548142809 0.7225715984186016 0.26952027600078304 0.9363323308203952 0.6102556265275493 0.9048559360188894 0.4617342842821999 0.0731643812837493 0.6328488749363539 0.4410958402504791 0.8824940326506683 -0.26743701166154754 -0.00905250360170227 0.8065228649302908 0.8893320754521951 0.5019840086803407 -0.5866945908495339 -0.7841497052962301 0.5561407903564223 -0.4929955981984586 0.8298410978641898 -0.768 -0.7706630925915999 -0.2761783556182533 0.7065111340930723 -0.8813668182142362 -0.3181506242099812 0.5067463768656095 0.21007846619651377 0.5572891330352564 0.1493915197320923 0.6517511256321739 0.9275722704649194 0.01640733761926387 0.8853585491333926 -0.08888362462758527 0.4502914539868807 0.7539225101908598 -0.45796586603143785 0.1483584662356795 -0.18724757226681393 -0.985063941254319 -0.9350727766232608 0.15099266984793017 -0.3464113836427844 -0.366259414045888 -0.8696487570384513 -0.715805695551727 -0.9390027578320806 0.5549892553789031 0.04424677689002085 0.9969694944808196 0.9149406624875295 -0.19564353753727967 0.6956395387334972 -0.08382644044173287 -0.3156066164217711 1.0024124537122432 -0.28175940818969647 -0.1192411287976442 -0.41115613569128434 -0.19852358020536237 1.0231549073827255 0.9537386513184638 0.009400460336331339 -0.057732730372017774 0.35970339149911695 0.5476292290232017 0.8791023510837778 -0.24695215998196504 0.1043889265302762 0.3853140752077327 0.6507372119730155 0.4886405227698971 0.991576550661145 -0.11070125970618094 -0.7749999968306905 0.02098959114831227 -0.13099635657703348 -0.46120329306895247 -0.443001588191527 0.4753103905869636 0.7695058871214789 -0.10490517953290568 -0.07471337942984771 0.6641617984985801 0.4078106840501806 0.16679006106333955 -0.1953626427394521 -0.5216505364913947 0.7312424552966834 -0.6623351514109975 0.4134659376189644 0.08912108055795274 0.3720282042454149 -0.33944478781034915 -0.7496646509056342 0.11271768241193661 0.012558325786092861 -0.45391497710024137 -0.9134934095822225 0.009969721305102573 0.9559951803765344 0.9496890323412827 0.7350000058510328 0.28 0.898 0.4512965899244199 0.447449446276615 -0.8444132784853564 0.22726616718847142 0.9905210959549863 -0.12384701322108285 0.46209800245046 0.40437045518501197 0.8026594911488509 -0.09504678523754256 1.0704278418752433 0.8505646400038269 -0.4365837841787749 0.16650663247973244 0.6929310110572073 -0.064263759842875 0.5673489413672983 -0.6175076769546708 0.5403711179199442 0.5178246125085546 -0.5055624981955985 0.34873496298908746 0.728740368633272 -0.6041129506054648 -0.48044241948935984 0.516 -0.068 0.916 0.618275725678846 -0.009877471200070376 -0.2673355799933677 -0.8868911637498865 0.8128324579274013 0.3014939650553702 0.11352551050123724 0.6474143100366518 -0.31701285006037505 -0.3672679235494186 -0.18737385529469322 0.9990917968549166 -0.11735009982959231 0.08397846405754102 -0.7670987763558262 0.006344677963911326 0.14657110644427707 -0.631409568518364 0.5986927520280735 0.7614959555807009 -0.06024569099981387 0.8880570502549004 0.7440770097180894 0.07614385781006221 -0.5199023470964543 0.589 0.517 0.729 0.3846627405279219 0.8840839476568707 -0.364637892394028 -0.4640546951919988 0.2890627178502332 -0.7548432961463492 0.08127854730967644 0.955011040080901 0.36357648902080536 -0.02736254550419779 -0.6919559854567026 -0.13561881302294 0.023236437976297937 -0.21642224657121134 -0.5758749022053573 0.5776724328111353 -0.9308750250374003 0.5817891469556328 0.1471941157200821 0.5462305442053871 0.6501912403423687 0.4609574501456448 -0.06928406106529865 0.2597525935159893 -0.10081035078342439 0.489 0.757 0.217 -0.99 -0.32814570749452626 0.12816193395756423 0.9098383478849148 0.8156589434749578 0.4359237297688999 0.0044404055295423515 0.665261348127996 -0.044145385055375755 -0.49750927130586403 -0.8214305061921996 0.025799810153283132 -0.34489402258438934 -0.7830940785898545 -0.6230236070856656 0.24117793133801552 -0.11848469956341717 0.01965616204231727 0.1462025450303315 0.6844354472183248 -0.7981133268313104 0.006105533266366942 0.4919937629079966 -0.6350002232870645 -0.295 0.437 0.218 -0.007 0.485 -0.294 -0.7349516711493874 0.03056403087395923 -0.8509081727702289 0.9953712705885971 0.07597452208849474 0.09050548318977995 -0.893861389709187 -0.7923464826389786 0.7233931916624211 0.8750667978416823 0.47933385876066 -0.7680897060246923 0.697139032982628 -0.03665619316177826 0.8964556962588727 0.46017665180598905 0.5626812462891382 -0.7853834482899824 -0.0026169589401015127 -0.01201902133373591 -0.025 -0.979 -0.623 -0.895 //-0.409 -0.839 0.171 0.841 0.819 -0.183 0.167 -0.281 -0.071 0.454 -0.215 0.541 -0.24899890795534738 0.13102225682251573 -0.09097789336440155 -0.5129990788901834 0.645 -0.765 -0.925 -0.064 -0.479 -0.232 0.882 -0.77 -0.419 -0.535 -0.797 0.362 -0.244 -0.808 -0.101 -0.891 -0.38700269328467657 0.392992130044443 -0.7429488021619067 0.39717669795670607 -0.7760798147304345 0.046357849923680444 0.6243700051977266 0.8750503324899407 -0.5752113768810755 0.7262119498736394 0.1980162770470355 0.5267781898925121 0.6824604354411247 -0.6468379611782943 -0.2245154084245649 -0.1894859264301057 0.766771941287851 -0.4954537465535345 -0.996453331294464 0.6759318030528815 -0.82 0.212 -0.12 0.572 -0.908 0.737 -0.5639999969321315 0.4878806362735567 -0.3824368789099711 0.335880593663154 -0.07877376366159435 -0.47110116656189455 -0.8489804631553705 0.6948027119716678 -0.8658532117910107 -0.44007050495372446 -0.6104104091501883 -0.500072213049163 0.78253899513469 -0.35115992205855506 -0.4091654585780793 0.17174841949108438 -0.7936180504021283 0.12066571264360934 -0.7659087845716234 -0.27187041094127634 -0.24879420684275189 0.2322029031090444 0.18686707772577899 0.5806882174754558 -0.074 -0.158 0.012 -0.685 0.04199987314408208 -0.6203482829476862 -0.44298584969017835 0.3915335134666086 -0.7245569590453192 -0.31957299818331814 0.7211462284897172 -0.4238811034931842 0.10105228025201572 0.801510677239318 -0.966288590636819 -0.7714224471169527 -0.6753573217366492 0.06037820520146409 -0.5769661963556034 0.2824095419272698 0.8297907089812224 -0.6666933724636331 0.804571319000232 -0.5720973228479892 -0.35700390987227953 -0.5764045034132017 0.16576853542285322 -0.2517154092443342 0.46000156094901073 0.129 0.554 -0.9360780810484579 -0.5141431528563621 0.07399576011881069 -0.13036420492935866 0.3678313906914627 -0.7264583488144561 -0.23230636059771057 -0.41393097390127137 0.6215685214758607 -0.10113955462333615 -0.7905027731421184 0.32217544957044736 0.3941951563099084 -0.44267014859522563 0.4466216259839491 -0.7184980434281178 -0.1972997024288171 -0.17232739772574243 0.3292371359407525 0.2719637610448967 0.6977566881106975 -0.6259762202145319 0.8256289322536884 0.28027232633204435 0.8594459219013746 0.6052926019596276 0.364940638247105 0.323 0.937 -0.2669039631365801 0.32386365423935465 -0.5958709466223872 -0.6176426514817762 0.16322421708235094 -0.17811420974260564 -0.3064126016104183 0.9265977923437019 -0.28972284689377514 -0.09568360232156393 -0.6873350664321729 -0.8940889684631911 -0.14531303651115482 0.13124092156111433 1.065992953229723 0.0858987951612231 0.3998950627248151 -0.11994643741659944 -0.09640921107165062 0.10238196128111506 -0.34979149425768313 0.526266690731925 -0.9568233367234611 0.521924963814704 0.7519658121680143 0.825096810663286 0.534 0.47999985947069324 -0.9440697794095501 0.8127463982767608 0.3198568763563472 0.6884083876250275 -0.9366154464787781 0.7857780104561057 0.021531960262216484 0.9268417122856287 -0.5607322486086905 0.7947475032932851 0.5092856821575308 0.16557361137667095 -0.38565379926139065 -0.7571106439798563 -0.6068439591400449 -0.7892377601977288 -0.053227757633192874 0.9238196851092423 0.9434229385988913 0.9993931173957855 -0.7758954470615768 -0.13474867276472427 -0.19775794311312497 0.0270784150520851 0.3117892228768394 -0.8071441522858521 -0.43402144530243886 0.7796871005501629 -0.9206628921666191 0.007061418071573312 0.6540706924766372 -0.02409677187153819 -0.15783701838340058 0.3206182786503384 0.38007453119995827 0.19360579291500096 -0.6500004815439362 -0.6169811129533502 0.7350357356586839 -0.9049972740842104 -0.86870220858268 -1.2760492680198352 -0.925998709674393 -0.07583768383763834 0.38997223266687914 0.22185570007793398 -0.6652139199244624 -0.07827207939979532 0.3464299102985753 0.5184034789444005 -0.6304680884971483 -0.9816899045288432 -0.7301157458894781 -0.842523660598116 0.5989128499411528 0.18013583013640583 -0.09032029701074562 -0.05781583094930396 -0.839190869109584 -0.31030203749544116 0.2006860658191282 -0.5117683831737606 0.3249687404791515 0.4966589918859336 0.6408269915765475 -0.7956502828975912 0.13485056794870418 0.7412156599698515 -0.840509722093171 0.15431591752257476 -0.5758335005935256 -0.7557801783781681 0.3665817647977786 -0.21218636133008806 -0.044282086473570466 0.5302198010527074 1.0088980200166728 0.9935440250122138 0.32109659803508844 -0.6618003628343715 -0.6542757763899468 0.6730647327984284 -0.23495622650491516 -0.21141406276431904 0.18967051185530878 0.2196797105358744 -0.9307032468760145 -0.5813236088553545 -0.3713613546951211 0.06456467408775506 0.7634045220897122 -0.15717888596320775 -0.15324697684506672 0.4512987917461805 0.07777552263765401 0.03372594515465765 -0.1887862813224267 0.8748600899241679 0.5354273054277955 -0.7009230320907818 0.7558329238323159 0.42831071651108815 -0.4380109567876437 -0.22410205053807977 0.2873523115083601 0.1686445445635436 -0.002718178508199687 0.21525213220584002 -0.683337132079812 0.9672322464920416 0.9051392008451407 -0.353989743824622 0.27102050192335025 -0.8043395393408109 0.9878547165769267 0.6079364804481634 -0.7534331599974585 -0.5506072420599327 0.4809138714135664 -0.2337367000195647 -0.4003653135061676 -0.35753413923041855 -0.15483154370576596 -0.9090441557217014 0.02804613985205701 -0.1372060366365946 1.0764562433976657 0.666289825060428 -0.8038330844232027 -0.12604197872120906 0.06053164193557747 -0.006114299813876578 0.5851543531946471 0.04963030862826114 -0.34857902544785774 0.20069156837958388 0.28088313328899017 -0.6134496736389939 0.00904980429382191 0.8997418346391205 0.27533409165916733 -0.9140634219383329 0.2435065900684549 0.8883189531969168 -0.42372593491792526 -0.5385123834644244 -0.4476298368104049 0.23351004830853006 -0.37785805152027674 0.9592218249823405 -0.8290321246717692 -0.19236360084914553 -0.526402907119947 0.0021392273325084358 -0.36762451568980986 -0.06569190162404089 0.42826784078529406 0.5084596361989865 0.6869125992948808 -0.2802306933785704 -1.0160019310871762 -0.1427078315556015 0.6771166420761139 0.5354412011546188 -0.9968345258707052 0.027082869190507175 0.2540028424184394 0.6634928806998084 0.727034477022897 0.5853808224572036 0.06917685933834472 -0.9006947032737169 -0.8930780454619763 0.41393981394253987 0.08272916804506933 -0.16268814657304698 -0.6352199361586924 -0.4982923810409204 0.8360337484194125 -0.9560352405744688 -0.4100446629798566 0.006137126400275709 -0.6729556596290003 -0.22287248312438743 0.18211771938116006 -0.06861947887442137 0.5097775135813505 -0.6267377473526506 -0.8391488983705878 0.855123925975371 -0.3701810757746081 0.4883714108991341 -0.41878253970827234 0.8153911898076074 -0.56299899675967 -0.029854407469441336 0.20232013391052298 -0.538798252211354 -0.30073746311081173 -0.9692399606329984 0.5288608742197055 0.3064616664761184 -1.0117066162372619 0.26745834272894686 -0.21265439300973796 -0.7239366925989855 0.03164060778030059 0.798479189110286 0.4379454343006824 -0.5673721119550829 0.9795535690540002 -1.006911268859947 -0.8012348536835064 0.4337256353462305 0.2128231339183407 -1.0292700427850767 -0.08139901831789144 0.39539732751270756 0.599507772683704 0.41056081896525276 -0.01284629542887779 -0.12389106835207592 -0.16298985970368618 -0.5179987780591537 0.6480022086291336 -0.466591179960298 -0.14383900199275756 -0.6832020940256615 -0.11485804713483065 0.43306700137396675 0.3823912714062071 -0.7581638534628397 0.24806332287774352 -0.6198523442037117 -0.3050611816708445 0.1981704023357222 0.40349603428364966 -0.1522678121038215 0.6266493853213445 0.14966280408431057 -0.3535312939315873 -0.2608811742367624 0.7728327964487861 -0.5504010809552576 -0.86211086321338 -0.43196985883635725 0.6007743246391511 0.9562990507019201 -0.9833232319961999 0.8951840238239104 -0.7339967629189337 0.3629968434982317 0.7773682513759577 0.2742480423678147 -0.6181336147205381 0.6935999272968114 -0.11983973326238698 0.7495532745101062 0.16900338319387745 0.2168274821746449 -0.21248491137300268 0.4679643535665898 0.06694232099149716 -0.14203990860635457 0.05350705248110572 0.8501502656909635 0.3788251305769816 0.8249462607403648 -0.5692333273821834 0.8177396872416881 -0.47660600468685815 -0.32538041785270777 0.09566083306354965 -0.0654036142565811 0.49924458237785035 0.9733921686952584 0.14907947805497437 0.42387944659399845 -0.9510004753882741 0.6150000094192359 -0.2909696493074654 0.3665976968157278 0.8670423652358792 -0.43509087463193663 -0.8437786299703918 0.191662861518469 -0.8715605368746335 -0.8063664896130585 -0.39802336174734637 1.0898320008812332 0.4277100835848792 0.12580524593934497 1.3390455255811682 1.1128932978836383 -0.4188447029155441 -0.7584944738525659 -0.8483898159770561 0.8331711462215232 -0.18500432905421396 0.4664062421536551 0.20685302869822528 -0.3702084202080556 0.20890363991421199 -0.4883103598771574 -0.6284067517447635 -0.00399562468260998 -0.501 -0.8220366606539571 0.6441386482404265 0.4579614078091689 0.1753699883953276 -0.2880536293795765 0.9118085093230769 -0.8797214572000046 0.02360962942933259 0.11085172160233539 -0.3098777699293753 -0.46449111895466605 0.12042355658477531 1.017607522429843 0.9138906704396023 0.5080486027027027 -0.7370747344640562 0.952162671588201 0.40154713314386414 -1.037536949633854 -0.7386531858171016 -0.4058135386389091 0.24317379409102713 -0.4362420919728395 -0.7945425552920524 0.3433181870488123 0.3932583686190711 0.2668797805651844 0.9689990836390615 -0.4752335465080509 -0.20496385763793915 -0.9666648318676989 0.7670037490323683 -0.4634112874749186 0.6873785343026678 0.5013784925874292 0.571653260042745 0.42373489082059057 1.0555032565629934 -0.23663822634688716 -0.5551425254754717 0.4622775979770179 0.9472796732044994 -0.3865907069220098 -0.6661116857990864 -0.7081496867500519 -0.9526102511695775 0.25847048313056264 -0.15949674835054792 -0.629362712216236 0.4404461824361996 -0.2071601661908997 0.96908662745768 -0.831174836681372 0.9420658982785957 0.49567567383808836 -0.30199845768810313 0.7296735025946466 0.495628958412813 0.03877230865914165 0.7453848026385441 0.5645399149225813 -0.031491751180600845 0.4171566478335059 -0.7496528964728637 0.6308177873245191 0.28382498467472833 1.0903759365615502 0.5490519900304783 0.12737480640147328 0.040175057309463524 0.9906045678958815 0.8110917079761373 -0.4651922579815104 -0.049243816762762606 0.553704971026597 -0.5059026259011953 -0.7560061461857025 0.7763355701869625 1.0096705788142653 0.06553377473434392 -0.2254419293044027 -0.5826936917824397 0.5592671113404473 -0.179 -0.727177536440507 -0.05974035437703368 0.37469892959323126 0.32292325332002936 0.6315948251159299 0.39732174644543344 -0.461553219734068 0.13187949897325119 0.24859165359413912 0.2048493510288464 0.005298047265604136 0.43276739324867103 -0.6151114943629723 0.24491765483812764 -0.989211274248794 0.2395846391296449 -0.6720651269907852 -0.2935707368860642 0.21255234245362964 -0.9245304474629823 0.7535174012687458 0.710061160964696 -0.22430543304040404 0.8470871619999129 -0.7281197592130523 -0.5931892441940146 -0.8660346827568204 -0.11598313797258471 -0.1912229786226266 -0.8375085381282615 0.06950288929453995 0.09035479658209881 0.36169040306524 -0.1412837231507764 -0.5053384208140301 0.1570182742780267 -0.32600274831106135 -0.10647144999307089 -0.930338494766619 0.718299733460849 0.6670805729237176 0.7861859009916055 -1.0389432802460166 0.8102047035927737 -0.4963728227831992 0.23209970139923664 -0.09854179627779464 -0.9509371037308072 -0.177628778399563 -0.48210457220613206 -0.897470197630659 0.9163178705759863 -0.17735053110322077 0.45886519521742314 0.5369999987002589 0.4450163350890586 0.592002892325916 -0.1638082403345509 0.19574106985609094 -0.6251349300188762 -0.7969432283010754 0.8046395045079581 -0.9104553816067537 0.7664485271289541 -0.9108569022630754 0.37799647482138277 -0.5185247130573237 -0.8078150727696211 0.3975951351274024 -0.3140630297482184 0.6357860557523297 0.37745863948823327 -0.6456035230944525 0.491866414777844 0.9112093251726192 0.937569635831984 -0.631178072197672 0.5360728406626895 0.04794064002529396 -0.5343865945752099 0.876098429301733 0.8696183752943181 0.1849999976004781 -0.184 -0.395 -0.10202703936879616 -0.2335161421320692 -0.4004808474056597 -0.3757058708676141 0.17197267859988274 -0.5894593015284894 0.4071206568318249 0.3292628906331054 -0.5445534746471836 -0.4125353398162797 -0.3260507508836691 0.3091922602430732 0.07046608040989939 0.6004417633136497 -0.6495468590748579 0.6869195355140983 -0.1563637149989555 0.23538199128814855 0.29373082968307174 -0.12746003416337995 0.6395927403778819 0.18189339172264052 -0.7967866551370213 -0.9342567607182717 0.5862000771781541 0.934 0.757 -0.675 0.5568587707686279 -0.06197725844727422 0.23602984154412446 -0.8341199534799241 0.8566135749964174 -0.24910602390644723 -0.450296112883802 -0.49538016533028395 -0.05373158291562243 -0.20150564596021242 -0.5730958358364034 0.8584488317264213 -0.9082200468240168 0.7746807516159709 -0.7431235434430014 0.7747100992805714 0.8112933013600612 0.937222695879692 -0.32897123733028666 0.5605287971574094 0.3603001590453754 0.823373839402056 -0.36144249406024326 -0.3376733888073419 0.8060023054229932 0.292 0.265 0.527 0.653879622652143 0.8792884343852584 -0.7654651097662779 -0.7878954957569141 -0.7187195674562774 0.42156846940090714 -1.0318827023187789 -0.6377243822017846 0.2185044666460774 0.7205527329131647 -0.6173989661417492 -0.7228193416509725 0.43156468710958545 0.8073541651263678 -1.0200147133651358 -0.9927920040315702 0.10017143895116092 -0.3652831971058211 -0.9504469289510372 -0.15885002580571161 0.5819760324447885 -0.2600403295480074 0.7234419491606712 0.6839321507531628 -0.25700000776111864 -0.26 -0.137 0.488 -0.408 -0.4161847948676278 -0.7065640507168457 0.6626520356104207 0.5904406221730069 0.8202751922053145 0.8855956609160163 -0.21915848921785006 0.09428603459412636 -0.30275156128369807 -0.3249427354653929 -0.7384773699654464 0.27594664029899313 0.6299283742683243 0.36009121816211204 0.5980023513625712 -0.958287415397135 -0.9716230454552705 0.27321037993383845 0.7551847092677765 0.4449160008606876 -0.7769020960737327 -0.10399496480377748 0.541999969952623 0.414 0.769 0.2 -0.541 0.599 0.169 -0.11900634710078767 -0.6229916824996606 0.17430111739190365 0.8076182754046485 -0.34719454085389445 -0.6242709066171417 0.28976986990054066 0.6809185466730611 0.47084212462763736 0.659047623208917 0.07503530254703808 0.9523477880069215 -0.47521010863033075 0.7750831313687622 0.6717768995971758 -0.05141155179184777 0.5771698282616426 0.07641545230364648 0.06726259067656716 0.914048519384512 -0.396 0.176 -0.048 0.868 //0.347 -0.659 0.39 -0.101 0.308 0.31 -0.34 -0.748 -0.444 -0.015 0.399 0.691 -0.8842668369760753 -0.1745574941935368 0.5220298085513474 -0.7669987579770272 -0.593 0.171 0.328 -0.219 -0.27 0.162 -0.858 0.402 -0.117 0.471 -0.925 -0.206 0.002 0.011 -0.127 0.828 0.7219998915643158 0.1889977754861751 0.7427618569868847 0.8530984731052973 0.9338969835067497 -0.7397620852814369 0.9816024677433329 0.24822015182339066 0.7408240783528429 0.2088381588163997 -0.9098804708538794 0.6142239820072215 -0.3174488256607686 0.6984906595967812 0.0955817535315518 -0.7432030109492055 -0.529237563302084 0.5059029941624792 0.9099119473285321 0.8568865826308666 0.878 0.738 -0.51 -0.085 0.956 0.617 0.06099999954010194 0.8070157594601074 0.8577664578950401 -0.8480821507001823 0.9419674955126867 -0.8732628570095029 0.7417347607377598 0.3435639634960632 0.4147263500680218 0.8761148604199971 0.23108030920651898 0.644119334786434 0.1315347866762037 -0.38081598997417304 -1.0048328290359332 0.13654399854436877 0.0626557939514256 0.2694144521292725 -0.31251803988231236 0.22003641056273884 0.6397857041089714 -0.9650694028815723 0.5719011886672141 -0.5400020849043808 -0.35 0.628 0.545 0.075 0.828015819666679 0.10199802322987864 -0.5200385241579305 0.08841354582094897 0.9340248530125684 0.3103594966579516 0.4282311535166242 -0.7827704212890271 0.7288986303983416 -0.8921018045911951 -0.16591787943211947 0.8149365655490507 0.6754558465886031 0.2832051521152299 0.03350072095955794 0.7866190212169304 -0.059722997101330555 0.6757603374461933 0.02443676316147966 -0.8311925327741854 0.03264635005395886 -0.9651146885899697 -0.6742532506432893 -0.36530926811877495 -0.16000127801043204 0.533 0.33 -0.21099998571656112 -0.7388755450502359 0.20637706735751424 0.33399957084670256 -0.9885411314283234 -0.398444786191075 0.2444872556283175 0.7575801947649564 -0.23948178987539667 0.3600158875672582 -0.04473157104009642 -0.6183815408224131 -0.17588512095955797 0.09884168980437351 -0.16630383525854128 -0.623888575684948 -0.27686620495823255 0.4358072356426165 0.14086968540771427 -0.7908717489287566 0.8268758171397086 0.2304658747977032 0.15813154535985086 0.4053252167968457 -0.6903049977119454 -0.8988783967498042 -0.6320012539111527 -0.928 -0.334 0.40593689546426126 0.9234460720930417 0.8935222462214525 -0.5126669326005256 0.17486789033735678 1.0424538070663256 -0.3192015559490147 0.6232331132610932 -0.10322677773984769 1.092759067685475 -0.5422034027957611 0.06394378319721636 0.7164940866370928 0.5224911630590725 0.6310219608146075 0.33026036764042505 -0.06654889997332068 -0.8440362751242242 0.34991305981889875 -0.4617326320438566 -0.7325484582247684 -0.5606674080944288 -1.0171090540970722 0.953017828322692 -0.3581177597305134 0.1670006179074138 -0.058 0.6480085124339178 0.6530465987338292 -0.6222416141967047 0.7751017110268834 0.8602218167029948 0.8561168746149622 0.0832771438276988 0.09927665468700725 0.28190173370040467 0.5503787905060477 -0.2388482256349688 0.08146532995436882 0.5770055482936199 0.4897048896122775 0.5201280296604998 -0.6048147151694572 0.5487799634845267 0.307982280183129 0.054099045565707125 -0.05168387496128116 0.31478286588164645 -0.6255657001417547 0.7845204788843472 0.20450942902990749 0.5305090174818441 -0.2929832731010305 -0.9626101538098307 0.5700453993744634 -0.7111169201236844 -0.013843732759679981 -0.5516254405089716 -0.18564252023755776 0.7382325310302305 0.8153173824610334 0.1645171727007958 0.5435396629533321 -0.7205014434001169 0.6128457632113571 0.6834889656709513 -0.7864792474544106 0.7386518075179411 -0.5856730886608684 -0.21540935469593278 -0.48618831857871686 0.7960976866324898 0.045347249794875664 0.9151017079674002 -0.33352081338318396 -0.5421179507191096 -0.9109471844268143 -0.6894046327850089 -0.32045592266423395 -0.6325234413814914 -0.9552998827926018 -0.11208937331424201 0.5761844953302669 -0.6058612339935079 0.17919444089878347 0.47805929310127815 -0.2826546503053986 0.5593906996191701 -0.49440782109782566 -0.421686045304541 0.5647619125807116 0.3147235779398207 0.24518994595558571 0.06964898257375646 -0.3176037241519575 0.024441456582979852 0.27080333849926397 0.11426501777625876 0.5069309833672462 1.1036528168241715 0.6519781438247363 0.25695569118134587 0.4439332695701535 -0.4376813656180407 -0.9753331640814931 0.4932992113522556 0.7097191109792381 -0.9773914450510813 -0.06671694687946005 0.04187878414182012 -0.5019700553125697 0.8334369177082243 -0.4433765447399682 -0.8116567351144681 0.35816212771154937 0.5497784524073352 0.4849527039728208 0.14308623584442362 -0.47511874643761615 -1.1902233758321248 -0.16879382978946686 -0.8530056035532767 -0.29742927148716447 -0.06420232182521557 -0.06441377563290775 -0.0027768178123283014 1.607453527357418 1.2262851968266544 -0.172563441132548 -0.24623388297184623 0.2906764234205925 0.042064972557212296 0.8848296818149963 0.2543332872972246 0.6621900871434255 0.6210036640173215 0.2734486511136663 -0.10697324440811971 0.794000001632916 0.6827750110089135 0.1945953398298074 0.892082416538687 0.1260909476648275 -0.3241627528990158 0.8190282136365057 0.40645470140313233 0.5951509377391044 -0.7821829736674322 -0.14843275580595822 0.12669465855030168 0.05986240847217591 -0.6749321625652573 0.9326382742395342 0.3825942729618654 0.3509814970402866 0.6871084814991189 0.8388520260685208 -0.32650790058783363 0.16552604298591098 1.0851334967526158 0.45133130115150305 0.6301714014144122 0.8742526056728867 -0.12237622364770775 0.051263386764601425 0.01782557292635566 0.9560000920561937 0.2064472740600721 0.7387036467844058 0.38813272129940524 0.9457487317409877 -0.7001762973194384 0.18783138580667696 -1.2223016143183685 0.22757792915790623 -0.7284201895448138 -1.138468926081225 0.08682753597401176 -0.1630903255013943 -0.3402681928441424 0.5578276571684571 0.3512833812299632 -0.34428974793923933 1.2114493092721228 0.7287524318327359 0.6590605842619917 -0.13858888472442046 0.5174720461053697 -0.5271898045862147 0.19051657576214773 -0.32283053493081587 -0.8198832296534058 -0.907930456745587 0.8254074555135593 -0.9109997781168289 -0.8137544386134076 -0.6160908660706418 0.9585281638983748 -0.5190329893006438 0.7801749034108791 -0.04512923683993693 -0.8523958887988077 -0.21440451405659042 0.34863915520467254 -1.091813595393134 -0.4394264903499327 -0.588415437914934 -0.7846436066716453 -0.6744204569232305 0.23873658707254689 -0.26985161663979085 0.5032441661853571 -0.26715875215699464 0.3913239233553137 0.37317153743836107 -0.3630376210161583 -0.21896918832083942 -0.4520858078378932 -0.791624548509609 -0.3433392854013465 -0.2130510549402497 -0.9406720106249972 -0.3690004840433091 -0.2850042442048122 -0.08462114594887152 -0.6842333452682078 -0.21601980845342397 -0.04214357366755415 0.44298914129648465 -1.1017536720018775 -0.2254903307379133 -0.3778341605432926 -0.09819318147248073 -0.9240979642533048 -0.4983508189611644 -0.9947896150930646 -1.1119028337631236 -0.08639033030036086 -1.1923986890732157 0.2257661366124204 -0.23478308539543274 -0.7137812746742921 -0.7229866816265328 -0.04967096611284418 -0.15132156460982962 0.6940212554351988 0.8412738771319349 0.1891557064597708 0.40359127484879487 -0.255888489030162 -0.23299080732531138 0.6152608539150295 -0.8925516307431608 -0.5567256180274422 0.3663371856119296 0.8878114706625464 -1.0621872544757451 0.12846585600307728 0.17169017439880765 0.52070498737947 -0.45994907951750363 0.27820186471204356 -0.9460447918355605 -1.2217662981865973 -0.5248384866837269 0.32997747998505245 0.4087651232865924 0.5415524474636262 -0.05787205714660389 0.041184153384648814 0.555442099088448 -0.4555945513794166 0.610708953060456 0.5069705401057766 -0.5092858431912626 -0.054318487711448815 0.8812669875329233 0.8541445003653646 0.8770350529073092 -0.7449700790788439 0.022395442473641305 -0.4761642069792316 0.2840796319885934 0.9581715205204554 0.5955389697690483 0.160435207179388 -0.5240079360798601 -0.3868343767592873 -0.8577154360167112 0.57103808078131 -0.7725190407379509 0.22806421416036424 -0.6153499770892006 -0.18311223743353255 0.5161710819496025 0.5359035125760531 -0.03915793268217228 1.0426940629160704 0.7959359564253979 1.0463385714563271 0.43723757113483797 -0.24424684420309895 0.7413078188096344 -0.2851052556835612 0.6688469430249819 -0.7469941567152291 -0.02081689762010316 -0.2799878364081863 0.7986315692987672 -0.7604497191458283 -0.46645195650628457 -0.39842548079794005 -0.6631608254004925 -0.45565429775074096 -0.7348924161486854 -0.6376822761853133 0.6002761305007522 -0.11378353181946138 -0.9194261076996039 -0.9779624910619612 -0.6409834896227515 -0.3258333371134704 -0.7745242883486286 0.25663243278542947 -0.3734922938581424 -0.279664249413524 0.20397213073275278 -0.8379552802774164 0.44584695539806923 -0.894274749749797 0.10196746452663664 -0.14927382606147968 -0.7727900533917544 0.06101513048885998 0.858 0.83196635425818 -0.28650371747113035 -0.2261198465606653 -0.848452135790631 0.7158629773932204 0.83362917771764 0.7524765859746958 0.4036012152935201 -0.548997228065642 -0.049383080026696224 -1.3562452198804098 -1.3339702871785786 0.4429169875002965 -0.14176710120604513 -0.8155523841609772 -0.8621316877202716 0.4039539713527676 0.7471895110123409 0.7561519516183184 -0.5571281769085156 -0.2912364524785625 0.50709198864688 -0.7942899551865973 0.11520382412649735 0.3882205450479773 0.09900510635895167 0.14340306766529107 -0.6310028451101797 0.4010321316778594 0.14076360886507916 -0.7186466300095028 0.46233428901059487 0.15139329857671513 -0.4716779633209315 -0.25089855712033826 -0.13641071212630804 -0.5636462740569368 -0.8781191905642542 -0.5721034222876407 -0.2997895030080348 -0.20133493334430638 -0.1735774279705277 0.8618046521501426 0.8155596823419452 0.7158911151998624 0.26025634519531154 -0.6861995164469836 0.7872107999829366 -0.2583049917985134 0.10778279516257208 0.34876794190649835 -0.5502375404996704 0.607223148296718 0.9487855214394426 -0.13823175099405616 -0.7570000795621423 0.2112293908738092 -0.5990305356781298 -0.7222435871080849 0.45851773246580674 -0.5753066711199333 -0.7214915540426267 -0.1450202409778938 -0.8912095812788484 -1.0043252053315725 0.5092256548453371 -0.1497676690881146 -0.24423952258673523 -0.4066661753454851 0.07470920145814937 0.40986967039349304 -0.48599035714715566 0.334410929684237 -0.3552588736351835 0.7569221337906638 0.8945617648298321 0.30439828920233875 -0.2173166051722811 0.5576875266971256 0.8649303170338849 0.7291941798802518 -0.4270820353357559 -0.8086398111949679 0.762 0.46522724011064204 0.74212612611955 0.9829296266814351 0.08907359319743802 0.10669939170746827 0.5741630531070876 -0.0024666022839501447 0.2873809719411874 0.4224886220575967 -0.582773376762565 0.632454655962954 -0.37227964038316164 0.8951080679929477 -0.13717438795557704 -0.462199319695909 -0.21517073169283593 -0.06737349598562209 -0.1668701250577023 0.411788490192151 -0.44706734963560196 -0.5145821639381877 -0.8099643230132137 -0.6477409785965621 0.9332476460033442 0.08126520162249384 0.735467185774414 -0.6649999901662312 0.7989988716346506 -0.3828739983634436 -0.3122217725014321 0.7117025881349099 -0.4987903979843988 0.8033706215954668 0.5373403961626965 0.32294800961265024 0.001927331659609788 0.16782885622204718 0.7180484293306286 -0.8838085950190866 0.07927965403380839 -0.6566557327613058 0.800184407873155 0.47722488790470774 -0.40006323759616 0.6018205690344983 0.6362086119445021 -0.04398399754914039 0.3727291193195914 0.5994960891881396 0.9846882227852707 -0.7710441404474956 0.6773376875807446 -0.4845887955994177 -0.4879369432318112 0.18705186780136654 0.7419989068960677 -0.06799888880867368 0.8171384899915812 0.4271421619552083 -0.8555478052033176 -0.003837042565756868 0.4403498887007479 0.9378531693071527 0.8652475449242503 0.4455055106478539 -0.5946838064503607 -0.4701790994060661 0.17684275918612866 -0.09101447320112907 0.7467125150907808 -0.5350464985505294 0.02531812344441472 -1.0055252458115895 0.4404867950081444 0.35501215866402075 -0.033660796916265695 0.7302841070464313 -0.8986311925213135 -0.6560626421954323 -0.9173714049615638 -0.989613853505581 -0.8399075893555368 0.6190957559409843 -0.392 -0.57 0.48638042265735487 -0.324312734563263 0.036557634889434865 -0.3361800034106262 0.16258349974585987 -0.3543757669979745 0.8475967765735827 -0.3472644242565893 0.5698537262944352 0.055885720316102144 -0.7695858219865794 -0.14723004886296343 -0.4775256458667463 -0.5248192163213179 0.7465915769115501 0.1694213984243065 0.0580164530771422 -0.7079734635006698 -0.529128982300501 0.3513992195042718 -0.9706605662759695 -0.4583337985457171 0.8013132278064459 -0.7902689881473827 0.7271587228268214 0.803 0.09 0.189 0.5530717826400029 0.4224688115918842 0.8307102133923117 -0.18185346357451523 0.7854169476409928 -0.6979431006199204 -0.8340859842978005 0.4925301840397686 0.8593185370175538 -0.7842834734132876 -0.6579181631906309 0.8906354467045441 0.5071038061159928 0.2522999156141186 -0.8946080603475091 -0.10471313101898579 0.10209413926082356 -0.14724608457552832 0.4711023132927105 0.15108337591498333 -0.590505680751448 0.5383325295538365 0.3768720598737597 -0.13599079348093074 -0.28599977483751454 0.159 0.184 -0.704 -0.29801355604443525 -0.2055229975174787 0.8916139326182382 -0.21338351329654906 0.28967448404622986 -0.3316498194421727 -0.7419983203541531 0.29782956134866967 0.42274307217838136 0.8909863660316917 -0.6703710743704298 -0.3958451602314845 0.17484002612609448 -0.4803432120548905 0.44936094059542053 -0.40310330677284595 0.1638580333421077 0.5879145696685418 -0.7817939361742816 -0.21467522644736584 0.663770845478096 -0.33767492136995636 -0.6814896189671388 0.684482008217619 0.3780002383252378 -0.637 0.039 -0.621 0.837 -0.23935793666408453 0.45888141332500454 -0.3232396723354572 -0.3692112124022093 -0.10720085340302672 -0.3258267492347148 0.2859372364038862 -0.17744932892514376 -0.6509047123884931 -0.8311887786887165 -0.02641565768969481 -0.6992610472491875 -0.08088470204289869 -0.45006183417868734 -0.3137576632740088 0.05567694473166243 0.8637254041634163 -0.9744321727940437 -0.5179078618573464 -0.36715667237065647 -0.18978140544663713 0.24399995890376602 0.5530019446025254 -0.224 -0.578 -0.056 0.462 -0.141 0.744 -0.1499983587923428 0.3884322130612571 -0.3407609653415521 -0.6732187722103401 -0.4138553399511569 0.10721591627645644 0.08985563671650972 -0.5919955743180199 -0.016613317663858155 -0.9010855235955773 0.9979793416638321 0.9993154840688281 0.7136883438358727 -0.6380455624417438 0.16285288321155136 0.6066999025621438 0.9676244516188618 -0.4933815578408466 -0.9335925545665303 0.8239896179462706 0.828 0.3 0.775 0.131 //0.197 0.978 -0.466 -0.079 0.915 0.24 -0.164 0.287 0.832 0.091 -0.702 -0.483 0.03693187385388861 0.2708394504319822 -0.11801266020145675 0.02499947249160597 -0.924 0.91 0.038 0.344 0.4 -0.869 -0.997 -0.908 -0.513 0.042 0.785 0.647 0.323 -0.515 -0.528 0.143 -0.5140000824441812 -0.48700025279751735 0.9559972047641518 -0.5154466396352063 -0.8278756698043944 0.040243588855157914 0.9038197475335498 -0.4661405991698401 0.7837476377523811 0.6349789882664825 0.6906875914262551 0.9794275780419075 -0.8237721912194709 0.18468776944404844 0.659166428480702 -0.8477167640767971 0.2672174537249191 0.71703628939255 -0.662500905563707 0.8137830431417428 -0.805 -0.59 -0.839 0.849 -0.325 -0.545 -0.23600000079462974 -0.40700526780294083 0.3397910251115714 0.9880367427344185 0.609612317686352 0.6421350406210329 -0.6983351115889027 -0.18412524600093777 0.3437000427437002 0.21631827817882007 0.023262429095272295 -0.7403440580518595 0.48377446404264723 -0.4874939428666268 -0.8923613132635113 0.8725853168343659 0.6204591928296351 -0.9255583306530525 0.8357770050602095 -0.7070651060869587 -0.31636164302520325 0.05647153677508473 -0.9024517355842471 -0.9443684403013792 -0.34 -0.43 0.26 0.847 0.7380202259252849 0.7029138689674084 -0.22308695050018407 0.8114229217939465 -0.24115830616497028 0.7848260573711119 -0.6297114856698556 0.011148169991426593 0.4152855976653148 0.7653865785209235 0.6630012784771345 -0.025527919269943408 -0.85944259322147 0.469082441255685 0.00872976919387945 -0.5370823016212757 -0.7040671642539248 -0.22878878625870872 -1.085027892322988 0.5502883488979808 -0.6985652978308552 -0.1457259589516843 0.08983404545930784 0.3875614090314387 0.5714782104360677 0.21 0.075 -0.6000462689351963 0.4940672885661264 0.6969076473887167 -0.6134113598150477 -0.6675894817604986 -0.9516451663443277 -0.9044828141653019 -0.2424038109361228 0.10871923349700581 -0.7170508286462499 0.5950874380053598 0.29863417064738423 0.27621229120792906 -0.6990239344487985 -0.10302233901963197 -0.01059501145588116 -0.07398151152551008 0.32701332507510394 0.5371497713691553 -0.6938711302474527 0.6619386348764627 0.36271946030849295 -0.2862955125187128 0.061001345389702026 -0.34417677061417845 -0.24962358339881968 0.7019779069772815 -0.514 0.925 -0.5880340743741829 -0.8755599667416455 0.0034467880297090305 -0.8334967696654045 -0.5277660916977011 -0.9666715653748643 0.81261406871461 0.23739487118434743 0.27443014148998984 -1.2146257770357547 0.13437886201649013 -1.0420271847691427 0.24027353374628643 0.7791350270075352 0.4275158709270464 0.01621879048454662 0.41238407135925276 -1.0757795807956363 0.398766639684987 0.15650116359049682 -0.14495411262390362 -0.9001864542815292 0.6164509260345606 -0.45746125284177885 -0.21596998665301692 0.8353065409798527 0.939 -0.024011634850764775 0.8178559660820495 -0.7171656516671453 0.2408408836484801 0.5596449515922909 -0.681624302887994 -0.25111942247406654 -0.35061965258051714 0.7133180604275823 0.6916120926830267 0.6731398294132402 0.7651243681455162 -0.9666885958377583 -0.8542742211787557 -0.1993152698170516 -0.5473123044796684 0.06404177602612803 0.18389595803746334 -0.3767571136344008 -0.2530256461625329 0.19157807181590655 -0.776438799505324 0.8188029342087739 0.8171313491421834 0.18049309160876875 -0.1852313407682383 0.9877719288057482 -0.00699999955837254 0.7127192316308131 -0.9654931628744072 0.05238983327155597 0.04825424480205834 -0.29995035328744285 -0.11309698224459565 -0.07272028612452534 0.8030022874229883 0.19374705415487598 -0.41647559678756224 -0.9234324996504415 0.6175100490015184 -0.3960414638793335 0.6191808896548886 0.9130995401728121 0.6260252799202879 -0.5560150150648802 0.9781763097780646 0.8141518257757823 -0.32977794764692603 -0.8110158250425036 0.4128509113641192 0.5535204009040539 0.8973033426260653 0.13534063263426574 -0.2957772940222959 -0.5577267139095567 -0.5259999982053012 -0.317489904896174 0.4315525916314629 -0.7194040300927712 0.5938310381108827 -0.8962711865705703 0.019666088311278595 0.20661687961411102 0.15705151833258396 1.136074607796996 0.189132175377041 1.1173061509697002 0.5673249481269589 -0.6708703474171195 -0.6478738339794704 0.6998483535422513 0.34161927127105846 0.8859635405788301 -0.3833574791769495 -0.6044795407177589 0.6910672716935895 0.2938594141663952 -0.6144820118336114 0.2331995700335869 -0.17271039921635875 0.7498952550563626 0.4346141479575375 0.819202291149546 0.92999986768772 0.32471947810100965 0.42774867812673556 0.8005177460839915 0.6330899606587266 1.1049008175034365 -0.17422365201759596 1.0244979217997794 -0.48674665962166314 -0.040154050185902984 1.101482694309456 0.2653504733496139 0.5210907614286193 -0.42481902137686367 -0.33436845202823207 0.2843604814264502 0.26717264755428954 0.9230902959110733 -0.7903039578719064 -0.01273572460365592 -0.6809495342622063 -0.2824896604880459 0.12322355845296401 -0.8454542474980642 -0.7137139225311879 -0.6157610598151376 0.3877271788387469 -0.12786044930674625 0.3479999638711928 -0.45572012551535557 0.33948011457455135 0.43657325474490805 0.4432616251697015 0.8695402122263197 -0.41876643835799693 0.6451281505870197 0.10793594018389807 -0.048991269409094255 0.2750172778987852 0.9494726624945186 -0.08990688230918113 1.0541154394735213 0.5287273181820663 -0.13236949267712042 0.7703897533908272 -0.4432374307590418 0.8168263976044786 0.3887475401131198 0.2626482374843331 -0.2848212112980832 0.5974678128938274 0.1465359307454271 -0.9522590065822322 -0.5888238620761164 -0.4097848244618532 0.13290688719404042 -0.7439639402473118 -0.6280609892188048 -0.813436317949852 -0.80951090998422 0.6835559722331791 0.7072788484213319 -0.48562437846931067 -0.6195521692124666 0.7043198035524222 0.822885518063735 0.27208204208520526 -0.889539797216271 -0.7253791611337073 0.027707189729732948 -0.01156710001927275 -0.2338768752322494 0.6655012920273881 0.3348063305192425 0.18508347844871995 -0.8025859647918492 0.4134831294142532 0.7861674881080181 0.803409546572285 -0.06501187073710415 0.4009993718775597 -0.41679522947171216 0.1479595878863435 0.6919358819387545 -0.8900000063640375 -0.30891876831741333 0.9760825161682573 0.8842174288217779 0.46935689954720017 0.4183224328274398 -0.6053241064781449 -0.7432560961013323 -0.6204088208408481 -0.05301466888112707 -0.08443781507452383 0.3225187799439293 0.0819241519845235 0.8133334783861788 -0.5715345323717058 -0.2253451137344561 0.1457440429155951 0.6626800510185135 0.9258067142290431 0.897237435099173 -0.0012041814607500535 -0.4387285343166478 0.764471047244539 0.05199241894808736 0.192520576490623 0.5779245878138822 -0.07878213780990223 0.6402288393544302 -0.37099995582123807 -0.1415460786235504 -0.021590649795779845 0.07444941411825103 -0.344937620403615 0.5690677670307048 0.6763638987264867 0.1412878725245339 0.42885336267286345 0.06099444041428264 0.3199708013064069 -0.046404027353983496 -0.264428179430852 0.25228624084105544 0.1489764539991829 0.9828540510557074 -0.32797183057775986 -0.14345993552081698 0.6600883566724435 -0.6530347314946782 -0.7827769246518613 0.11363504947056388 -1.0552047849986794 0.6375683462745516 -1.0215398136395248 -0.8531879517227486 0.6273183666475719 -0.724526407442778 0.8309813612560621 -0.4449841283105655 -0.6945275120010626 0.7804691864931421 0.41252038349740433 0.2561507947635227 -0.8830470031019472 -0.07089820668218329 -1.2446498643998873 -1.3483731651415696 -0.5216179682400176 -1.0744110550130763 -1.0596616516777195 0.4382898407796085 0.945181271154053 -0.1923730058763712 0.1693398173826532 0.07705483591765373 0.07507106473105456 0.9931600050406135 -0.5035981457270442 -0.25388643610204803 -0.6781177487284624 -1.2703449586046738 -0.7060970816116945 -0.6775687328559975 -0.7628419256377006 -0.6119200385962091 0.20099555753666193 -0.730032347849427 0.47367260198604083 0.8964071407929617 -0.31314494344840965 -0.053672742797253946 -0.1948282688912792 -0.4939815334672857 0.6672081044535321 -0.2249394552372987 0.3411702867898673 -0.23407085506887515 -0.07134127749178161 0.33003425727532076 0.302394898811821 0.27661796726910354 -1.0462167834974814 0.11652783278048215 -0.7970383678061229 -0.32537263901782576 -0.9687667860100194 -0.2409808713354427 -0.4605533407882581 0.6181860926954447 0.0213269156148822 -0.6716082407629921 0.4517228930167742 0.37427228054386685 -0.3159905114959039 0.008961642536518042 0.1527246414522249 -0.35883879895833604 -0.08388957497473698 -0.15425217830704835 -0.9065528549217235 -0.8094275685686332 -0.7935606849796332 -0.6728453728505237 -0.6735353515487812 -0.38623304222533705 0.26215751203096693 0.023076706399018133 0.6063052163108734 -0.13313678262580902 0.20692185527124948 0.04238790567162449 -0.41008354178709294 -0.1971037696002569 0.12864794110160302 -0.7989807926490137 -0.9843007334663292 0.23309487069070467 0.5547093571166785 0.5482824263321543 0.8185469881946916 -0.5133596136818098 -0.045 -0.3191610549320332 -0.41962734925596606 -0.43479515540847397 -0.7611869070497989 0.5204828314552481 0.281620578510306 -0.04441446373495408 0.7615667867295984 -0.3136069073800529 0.21596944040649907 0.3786868701904652 0.4069531060340728 0.5305136870177125 0.31931839347500457 0.6103174306087291 -0.014915608898530825 0.49506989863417894 -0.12059353847966581 0.6066591352607968 -0.8818600533683301 -0.5755716616296281 -0.7448224505031465 0.10941660907287674 0.781015947962707 -0.9591256327891643 0.1069777252808547 -0.6211041686534526 0.8240074446517991 -0.44710306101539 -0.010855556985335345 -0.9991459546807161 -0.019246701667242037 0.6942148377446894 0.0598963714229774 -0.0725730357383811 -0.33961596561202456 -0.7980232339154644 0.3504719385296207 0.6726357732264214 -0.2163190426014298 -0.8161408363479905 0.8113589987010568 0.6834862103119093 0.47507045744832693 -1.0276085765637557 -0.3119076096132102 -0.33238862766966754 -0.8499007773492673 -0.378224327678449 0.5481276074883634 0.6706922291371922 0.5581540597103397 -0.2620442622577636 0.0676168335788018 -0.446823278672661 0.934000003173658 -0.4822218595783052 0.40782775299266716 -0.17143262594582634 -0.29265132980951475 0.5100546088222617 -0.4598763151108702 -0.5765152395854897 0.036856917660193084 0.6507538186804946 0.25063058118071935 -0.2632336787557702 0.28052769235492586 0.4757003696495 -1.0810889851617063 0.6668731463731333 -1.2695763051818105 -0.5407080656710133 -0.9686894481079692 0.45338062362790227 -0.8732674781273835 -0.019232580664440987 -0.2899276284176037 -0.910089672391012 -0.6102821602984947 0.630725343142121 0.1721725261830244 -0.1297694925011007 -0.912 -0.07758405755986657 0.03655270781421296 0.8070300182053732 -0.24665424143455128 0.29749223903049027 0.04531095277633624 0.3444916534124016 -0.402571889417217 -0.17535649135137327 -0.047218294795200906 -1.0372710403892795 -0.12779709454523097 0.11694898568040064 0.3666282916544026 -0.4767310819996 0.3795644411477205 0.6878166428408857 -0.149250742321129 -0.10157068768277551 -0.6861919764569637 0.37602161065628675 -0.06426711636229253 -0.26776446777614243 0.010770387950036585 -0.518494167016759 0.3465643624806474 -0.3490007523072524 0.7240002592719221 -0.8372362222956332 -0.6613470631779793 0.4701583749573304 0.5638594126847809 -0.8938439810940175 0.8923330527533706 -0.4543077227924017 0.4737712792526376 0.7692888716366539 -0.49525930132440915 -0.010214692334734316 0.24413707038391647 0.5260549257794871 -1.3750151727732598 0.5199313516318196 -0.7084499882622457 -1.0162024032182568 -0.43362487909873376 -0.678601994368896 -0.05978311173323472 -0.29015286523932626 0.3965014842570544 0.5068912805400774 0.9461315974468643 0.30208940647837296 -0.47747692295844396 0.4909999891233243 -0.038999748830325406 -0.040995617172853285 -0.1422113045425248 -0.9965878708369077 0.3609509381492165 0.9609746879168042 0.40220634400310895 -0.6528827413775642 0.4798330331369174 -0.6113884535237588 0.160761427422574 -0.7475480222629576 -0.7504309869403514 0.2625097758012073 -0.3039843992991476 0.4207743905124419 0.25167935881581754 0.5574470348847544 0.7573008988851864 -0.4896961236258537 0.27560505646116923 0.699000899292228 -0.6126432514932786 0.13811449255776462 -0.7151528745797302 -0.3344526166140294 -0.44525732995149625 0.007999979919983335 0.494 0.552 0.22060459460279638 0.8986988976215632 0.006393856333308508 0.06900913968888725 -0.9324083948404409 0.13881095009531697 0.4468364105549052 0.1714394556810058 -0.6424041528327248 -0.12396462356882412 -0.7568741030705044 -0.4209797921372326 0.44441505192579617 0.3715268489608692 0.02999951102203635 0.22783403679630118 0.22198521883286643 0.4495559679828016 -0.4640020898647864 0.10696686869034942 0.03066810747584773 0.6639386729334545 0.29324508615886863 -0.9998890909866684 0.4615988903725887 -0.038 -0.224 0.851 0.3023693349870388 0.5769767072290916 -0.28388456378817284 -1.0011248971641058 0.16388807237897898 -0.030140855724697463 0.009037772906892562 -0.11552807019738336 0.7155466938252621 0.22537600507484937 0.00947987860803311 0.2496771629194721 0.1062132777566535 0.2965711007614164 0.8277705464077483 0.1079450664098187 -0.24065983673109054 0.061181551493938204 0.47713077305939694 0.73709662211427 0.5649562291002245 0.22977676777523304 0.13456532020463693 0.48543501508929804 -0.49893284902493806 0.946 0.555 -0.342 -0.5770246083122963 -0.4268737009669409 0.3937124077871312 -0.3530115659150474 -0.21583931859863845 0.9674574121436348 -0.7873584612370444 0.2750727245577609 0.8323553848134355 0.005408359288226261 0.17570377590926797 0.8294098109401821 -0.8237251959721413 0.6246613298374544 0.6429686497451296 0.6913785334758786 -0.7304135025270999 -0.39545843654097024 -0.22992917432315718 0.3731696923937363 -0.027543874788196015 -0.18097268708284872 -0.22465396458591322 0.9519956643999752 -0.8490092011513573 0.76 0.929 -0.808 0.152 0.6910025842243587 0.9953249874946831 0.009205860903852852 -0.6284738800134446 0.8677728303845413 0.9869106335525644 -0.6672694564224085 0.7948417439416916 0.6784723352765646 -0.07894928469943707 0.7318671057610084 0.6753794328628944 -0.27949656628536546 -0.3074523178191371 0.1499686998582174 1.010961971999049 0.7624469574563146 0.02834034710918098 -0.3745218619471659 0.12012168147327411 0.051224616475649846 0.15099868028029537 -0.47499993195509116 -0.348 -0.068 0.256 0.734 0.327 -0.751 0.11500576218529211 -0.09493279780023556 0.2491373806113367 0.49547080075783656 -0.40122860082016704 0.12302114129577399 -0.3848756734858277 -0.491114723074567 0.18349224648432944 -0.6586716948452118 -0.8154879864576713 0.048890888001642006 -0.8626065163481894 0.809440150312212 -0.0033504662095750213 0.6655274216647226 0.2383805459982785 0.5496605713821893 -0.312522702662921 -0.6219782428664267 -0.415 0.086 -0.851 -0.103 //-0.198 0.333 0.868 0.935 0.354 -0.536 0.972 -0.282 -0.17 0.251 -0.247 0.901 -0.4580107466585776 0.6618371670791151 0.285844984145075 0.6969935410060447 0.095 0.314 -0.547 0.316 -0.766 -0.61 0.024 0.497 -0.801 0.079 0.801 -0.849 -0.702 -0.682 0.228 -0.13 -0.0980001140714345 0.6069935152321405 -0.42439583468651165 0.3222419762445291 0.939346059539827 -0.2929337833039817 0.24374578577497194 -0.3284300776502395 -0.28983128390122753 -0.23692344534337215 0.21399919704195605 0.6670439678903842 0.4150974205558203 0.7961958281440509 0.08044502634785725 -0.21135846865410543 0.5165836109908443 0.898389692007283 0.6805157214424205 -0.16803614020853136 -0.331 0.267 -0.332 -0.033 0.073 -0.213 -0.7140000000020056 0.33799401771652876 0.7578943687256785 -0.4850616730139204 0.22591436095907436 -0.13610960970219999 -0.4080624865413949 -0.4570377313741869 0.022273093824414752 0.3532758562181819 -0.18110152854957925 0.35641473905826 0.8896440588987793 -0.7403612166861786 0.20503327088911055 -0.05021345020873412 -0.6040674199975395 -0.01831656967186676 -0.9823589783877993 0.8775348742904263 -0.7222351057029276 -0.1683287500869383 0.3554076144959534 0.9359509115578508 0.284 0.455 -0.028 -0.088 -0.1769970911297942 0.5519643123834416 0.4739341016889951 0.6789515713231126 -0.10197338708048456 -0.6878620468694763 0.8129838833936653 0.868771640147209 0.47603170508481296 0.03976815789041677 -0.7776649696642458 -0.8524784166762182 -0.25540466974518666 -0.6937303415254237 0.18243258189270606 -0.22121289074496578 0.72920916578736 0.16943846181715147 -0.46614548810564504 0.17967821660236577 0.051442908181504175 0.5378743848220305 -0.04779395937221973 0.4939019504201671 -0.18997948413266713 -0.881 -0.398 -0.05700992319400765 0.3980110626893988 -0.18301622088567948 0.34419039580635075 -0.6177467998988244 -0.36622874454149573 -0.9611808735035466 0.3001200518343879 -0.16231573637900962 -0.4391773810712214 0.6806522681493549 -0.0701995294345739 0.5448875883688674 -0.06345031949756888 0.9935030807119022 -0.6908434883006344 -0.4771859669889478 0.932828134945052 0.29437923990596465 -0.9151253326463213 0.5391823683315563 0.03264107941356311 0.4750651664434639 0.4662591992554055 0.6872205235209062 -3.560559178435935e-05 0.08099731501912265 0.924 -0.379 -0.14494168810045113 -0.752110145825166 0.6393285726663878 -0.19087160801041617 -0.2669505711488103 0.20896938047310581 -0.6717730561814899 0.09612308913419272 0.5939986181141179 0.6283147847609543 0.18995390742122162 0.4682283108897424 -0.15815979130376215 -0.5262518372676857 -0.025075560968482853 0.47691391762403285 0.03976798419316828 -0.07603177900824157 -0.0502001463460929 0.8031816315531668 -0.06345115366498882 0.08639321232273921 0.3425186420155436 0.5524965114054606 -0.08892567170455681 0.8469948509859598 -0.969 -0.9410021002323062 -0.7448554588572335 -0.47005061651336655 -0.7378511934222305 -0.9455783965738466 0.5627031842910981 -0.5613088568876008 -0.17322122653631308 0.7559916831835198 -0.6867111284397514 0.16733761323880467 -0.9512554781072248 -1.0569699050675714 -0.0775457076799257 -0.8302081940143659 0.6728027018844843 -0.2564330297395139 0.12449192121511735 -0.7513528173785619 -0.14196143447094828 -0.1913147201645712 0.8022268717082037 0.3581639957868806 -0.09928092536769184 -0.2589415576108073 -0.5952928171056588 -0.8679644786817666 -0.7730000429781432 -0.7526134466367688 0.8571068330287865 0.7055747489423521 0.7106443093245048 0.5961825581482224 1.0037701208304166 -0.42536849275165484 -0.6497786499950426 -0.8078686633747979 0.4923859276999503 0.48520625120602673 0.06351623134759941 -0.4743681464114376 -0.8965058126628901 -1.0673429053515258 -0.4452440103924997 -1.041181411228113 0.16276258735856225 0.0751236989263225 0.9081556188534402 -0.6658894923764958 -0.8236363891622185 0.9844291746696912 -0.12811836679586577 -0.5406182141710317 -0.11751860376846682 -0.1509918873040468 -0.33100017465585835 -0.8464747371357408 0.3302115165003655 -0.3327527312023025 0.80166373609586 0.5888130089282867 0.4574879670500061 0.7697092025414172 0.47474226635702144 0.9517520208914617 -0.4637685490747276 0.6599543101129502 0.04652511391415088 -0.21563263943220112 -0.020471303110369314 -1.0801743439953262 0.28306124870153065 0.3877246201202894 -0.40604758258051554 -0.303540975172656 -0.9012725539053752 0.7183836140000985 -0.7820705735493981 0.046031133055811545 -0.6236161149231397 0.15117480213632184 0.27193955698871447 -0.4070848083991453 0.975016097994832 -0.4559512085707273 -0.30127565987070304 0.8871051047298363 0.17270064143904681 0.9869594213516059 -0.7955115595661031 0.03524481521405591 0.8354390075911821 -0.5174378970502167 -0.6044788761851456 0.11466263654613514 0.4031709016654018 0.33175098953282894 0.5583990785892797 0.711491690886099 -0.7761460849266784 0.6205301735024179 0.6525269924421945 0.8725331137897356 0.9092890575284095 0.7535167182099145 -0.6500052776471894 0.4408951051734575 -0.4642404317979429 0.880296366786392 -0.07499894496822562 -0.1706343717916909 0.6340397259166523 0.8046195923932498 -0.09540467183553857 -0.9272029171788657 -0.7344080285277758 0.004811051670972331 0.6330904900593258 0.9536682897375596 -0.6057841812741572 -0.19413480890542933 0.45933066424865493 -0.9503518892694016 -0.677198786270131 0.02907866775450823 0.47018608388684285 0.053058913047916365 0.3245269106068609 -0.19661560612012952 0.012190813487079814 0.32644571369941183 0.12883534909259284 0.6648075044951717 0.13187730033170583 0.7809934860442208 0.45111638168059337 -0.20956240358099426 -0.836178764929447 0.5058271343206611 -0.028861758641548097 -0.8641371450799507 -0.15385704289495353 -0.4706679359299471 0.18484210253405628 0.1760899234194962 -0.9428232785654083 -0.18974258947019307 -0.3747172894179205 -0.16047195135670927 0.9013195482551937 0.6524902310725523 -0.8400548674190232 -0.6058126364620788 -0.44168123807182885 -0.6984137142024999 1.146218374341275 -0.3594697381662827 0.16406649161435855 0.3966073000653343 0.6898021595644331 0.594283716644696 -1.011108855015326 -0.39287246209405763 -0.9899343407819172 0.7308357053622127 0.504593039304806 0.40381045210041494 0.6840125805745865 -0.43104176018696144 -0.6158541997102572 -0.8816653181239937 0.5173353891442446 0.6609176657817534 -0.7697995063483786 -0.9742871481966636 0.7659824746222935 -0.5153469543124464 -0.3399238662843087 0.7908644753525568 0.07210036945950743 -0.2849747128693179 0.4689322210093809 -0.5898727980188554 1.277064213622869 0.11489806356501396 -0.41885539087363793 0.19802492755350803 0.3256338789313993 -0.502795035488269 -0.08238298455179474 0.1502322038427032 -0.5808983127957116 -0.8506210147597115 0.6984268350864651 -0.7509874574586675 -0.8590001445504325 0.41331727112217165 0.7801041248865535 0.3646077975466514 -0.45687270305695804 0.05272367838143867 0.8400307043555261 -0.27956568959838674 -0.2992378580419473 -0.9214122242150685 0.7967240590101704 0.4285549400313427 -0.5988432270513309 0.11098382653722957 -1.143257996472872 -0.9278915207624521 -0.6775376403266563 0.9561647613687573 0.8510570556582541 0.4162466471891485 0.171035763472112 0.37755075763468093 -0.659877505435388 -0.9561995900701781 -0.08268059926067806 0.4183956877531803 0.9222831203879341 0.8152293403111638 0.6739999445543868 -0.9649649178944992 -0.7376498797712167 -0.678648090649656 -0.08134510032786814 -0.5676256797907796 0.3856423055837706 -0.7206636734253281 0.7756288126376457 -0.8054024104243546 -0.31324017844429636 0.7431832230458602 -0.8022180328244134 0.40122756575948576 0.001335766575662652 0.5760926836140307 0.8324870039386857 -0.5875907623470801 0.7768909641804513 0.16887471192725576 -0.0867214964444742 0.6151431972042999 0.7424122844998888 0.5133962621512623 -0.17252368932617732 -0.7090710477072837 -0.43978303318747725 -0.8549966811359062 -0.8249801669740382 -0.5180402881262605 0.9564999525674521 -0.3238616384117213 -0.5207166690200403 0.04400226909255718 0.1363874365623623 0.3330611653829677 -0.45224387101473235 -0.4024630000540259 -0.18900824069921923 -0.42135000914667414 -0.2801684002172017 -0.14833152861526355 -0.05478679349200361 0.9874257461763363 -0.16647801697198059 0.28095431443685803 0.11027039808915629 -0.5139100388578303 -0.42635641513915584 -0.3479718850956737 0.6800739868421288 -0.15318507258207317 -0.5435128825724349 -0.8468163519430743 0.6499710185387032 0.33101479368990006 -0.5898865646816002 -0.8140205065103762 0.42716415435498833 0.6378939688272507 -0.5549595197827427 -0.8193714477067374 -0.698145851103102 1.0262837392163973 0.22979013696247919 0.6048198632733304 -0.5368271128627459 -0.45606875721130646 0.22787266063757405 -0.4425005046392456 0.8538490523107369 0.9352734702655926 0.45499077388942416 0.02568542022686897 0.2634020633174805 -0.4523367239340478 -0.26347471272736944 0.010453571052008876 0.06168180492888699 -0.05396843107152344 -0.9285994150965822 0.9853485626913273 0.13588191011878237 -0.13496291112286454 -0.403 -0.6290098967242215 -0.6698953606449413 0.9567124625564202 -0.972947919583905 -0.049716158516345865 0.21062157000304882 -0.7945863916878901 -0.9846578886992313 -0.262697910230577 -0.6738693357808142 0.41218186940881196 0.7214537685812994 -0.7162476279193118 -0.4266997284639588 0.7370106427052037 -0.5912097819726412 0.8837658707726728 0.6815377418957045 -0.6348382669082482 0.004970222620209209 -0.13049352595597621 0.4993189376696927 0.007718162798611443 0.05399464437908752 0.14859141116447105 -0.38714843204545074 0.13764321878625324 0.35799145234329505 0.5519963030630503 0.709364261526365 0.32408084437062495 -0.9010861518403553 0.40531897060391076 0.3371423649881904 0.3996888387096912 0.7340609105043823 -0.34644506814750015 -0.9174764387604494 -0.07531399133513769 -0.1319242640154669 -0.6520488040849058 -0.564114079650769 0.6837872149042514 0.6226093279343565 -0.3304737853961644 -0.25210275143145555 0.24580035510209178 0.03667906395611628 0.785307347669998 -1.0160609470741326 0.10618694652935189 0.4562902446870866 0.9717109134149873 -0.8369385755745364 0.8682572072675209 -0.5899999846689937 -0.01597828873124947 -0.6104346382262682 0.09399296254076847 -0.1738871919757497 0.08593799489140348 0.15192198678863633 -0.08346757371650072 -0.8827016990098278 0.3021821729023646 -0.7483074153355036 -0.8407174842084162 -0.9099292892442228 0.7930309118658783 -0.7960853597629403 -0.20202254263817124 0.3991220551884544 0.46569513105783455 -0.7067207649437426 -0.8328092528229322 -1.0063876594136718 0.9222258593651909 0.7635169247019016 0.5088895507977151 -0.3361893621696197 0.19893307447578037 -0.9859505283571491 -0.06599600023433458 0.058 0.22498810531163307 0.3268344136192326 0.028053590278367905 -0.34957705549019014 0.5697233417275954 -0.5241814660769529 -0.3337050198865713 -0.20994632081519748 -0.8859114421716456 -0.6827295422079678 -1.1233350020295119 0.08434741688564175 -0.08464294969608249 0.3112583224793713 -1.0267000870504313 -0.5017848910784043 0.7706331817870505 -0.8891912378682197 -0.24750205260867847 0.7627687873908285 0.5297233197259751 0.28498386151617 -0.8385938491159228 0.8319117034215875 1.0008514468929448 0.5047410895735712 -0.8400168539243414 0.2029901206417831 0.23210802963411425 -0.07014912139856613 -0.8809697081438626 0.3680588348954651 -0.9032729866846703 0.4584993703897946 0.43593455378318013 -0.8705589283155813 0.09931563038012467 -0.3911137451905047 0.13760013513439295 0.4669964983060687 0.7674481075050903 -0.5990189702766685 0.6688492835735594 -0.2595879447914775 -0.8130859490923862 -0.4640821877100637 0.23596949367186978 -0.5391204337091243 0.085020214381768 -0.7151659505155784 0.3532762986773684 -0.30974341296640023 -0.2330047429396833 -0.8265287637463525 -0.05200000212049833 0.05899042937172736 0.7689963723921293 -0.4003188016025362 0.4764390229414314 0.7392589832310318 0.511225938495752 -0.9313491846319477 0.5270146945033671 0.6939842062976692 -0.11155272242076097 -0.45361392827553254 -0.24850049438338243 -0.10928226229878152 -0.41741906017164954 -0.8366663773893461 -0.7335234765124733 -0.3741473657719727 -0.8097005128163952 -0.7423851856696382 -0.6959559629134502 0.5870940237658621 -0.6014069655258841 0.5405383817132857 -0.16188434926780912 0.3546837336099141 -0.9980133029630078 -0.5696658975071756 0.9739999960852338 0.042 0.324 0.7028378361737835 0.816947934957431 -0.16893445157414994 -0.4992010065038489 -0.6620477509435806 -0.4429661084056171 -0.3683145205214883 0.6362282109969755 0.4708391907293934 -0.04008723001393352 -0.6817480610478263 -0.18117355629043885 0.25484205373432955 -0.5130245241814804 0.6190539794194897 0.7973537041143075 0.4458914914398506 -0.22485679348565654 -0.538527196547623 -0.3094090800222094 0.40278112782675746 0.7353481755633903 0.665509023008687 -0.5428054007110678 -0.7447057394413186 -0.986 0.866 0.172 0.9249510005649425 0.8668686110463977 -0.6913035494222338 0.8523084145905925 0.18522513705139268 0.9571470081827707 0.8682082753421624 -0.41648403149623187 -0.8956295893674674 0.657807019896623 -0.22715236294887065 -0.18291186948528274 0.7220880126493667 0.4203183353006549 0.38368117476337826 0.8366059664021562 -0.23386605802051383 0.6148612998858228 -0.7583121382397137 0.29190809301940046 0.5928775829361819 0.701565405632962 0.8122031800170438 -0.5219769859312626 0.24198648968930525 -0.454 0.132 -0.493 -0.11315761780409757 0.14051013009003832 0.11623273460965923 0.30845636293372136 0.7526342241383069 0.48256286303409274 -0.273431350156756 0.1218377581891847 -0.01333505322328566 0.6979814562059933 0.04231227634714305 0.7681670341860825 -0.5201828358682342 0.63730686147915 0.850498788183658 -0.3794092138637047 -0.6430347275747307 -0.7956276444933359 -0.8595353806257137 -0.2085685808653971 -0.04391718536520891 -0.582737950846139 0.6366336177355665 -0.7965253620174442 -0.7650141470863285 0.318 0.433 -0.316 -0.659 -0.7660659750660302 0.3108966097583378 -0.954632412486741 -0.628824746160479 -0.27475078288666915 0.4828552405546811 -0.8436213357290904 0.5045177182498427 -0.27992586165772815 -0.05692516102729616 -0.7530996219035495 -0.43769491399021865 0.878913938584605 -0.8526621923794069 -0.3580851665657339 1.0027923005953172 -0.9564227653684841 0.41361382537211794 -0.43547338815266473 0.8982878180764137 0.6728199827302017 -0.4169988454670494 -0.3879999503464248 -0.972 -0.322 -0.235 0.63 0.93 -0.032 -0.7949961953397096 0.02793213058780855 -0.43620380195688124 -0.5192393775300647 -0.9023009648913892 -0.34937066414282747 -0.3961804236267856 0.39290781905092387 0.4496005611618652 -0.5444766920721371 0.806458357720785 0.9942161779842784 0.44937062748875023 0.928729199129373 0.7556548689920372 -0.018613372120062716 -0.7324299328371875 -0.43677759279751693 0.37867692290051513 0.9390607601769327 -0.141 -0.754 0.987 0.233 //-0.645 -0.577 -0.735 -0.61 -0.458 -0.283 0.561 -0.96 0.593 -0.956 -0.829 0.57 0.5118569396876198 0.8895679804907528 0.3478678353239799 0.8369944931384992 0.584 0.647 -0.444 0.855 -0.021 0.688 -0.378 0.63 -0.047 0.177 0.253 0.445 0.176 0.548 0.624 0.072 -0.2450000808181418 -0.9540314768097866 0.03641705998379804 -0.6510640761117266 -0.10584525758864219 0.2470386794278567 0.29190749936217475 0.5620094104405082 -0.9067002222035889 -0.6253852856615517 0.5590886856364089 -0.804376661896478 0.2257706964405858 0.34752947523444655 -0.1356320426631316 -0.3256106652050964 -0.6243670269759934 -0.46101862188193093 0.2278686316516721 0.5238179215259708 0.927 0.839 0.794 -0.311 0.488 -0.636 -0.17000000368561835 0.22102374610283804 -0.07401011153437712 0.1378737245866 0.061673594949984915 -0.39927589389661267 -0.40426212818618523 0.08799068894761831 -0.2934884535034156 0.27844930954998875 0.2568877482924178 0.33799818764799017 0.003563553452187594 -1.0024332701692216 -0.906371012129217 0.786256286291329 -0.5216069813687919 -0.01878576862508301 -0.5074272187621479 0.0818058157733294 0.045919796581845605 0.2317890997262677 0.1770208785054723 -0.7100000057359293 0.014 -0.258 0.478 -0.332 0.695999992057687 0.8740686088991498 0.5837422448547924 -0.217915155880138 -0.2025252179963506 -0.5215974990589275 -0.6341699299165607 -0.3945706725136879 -0.8022728093667949 0.4035438650381907 0.27152706971638263 -0.4021274509159984 0.27472881561203477 -0.19822248231747505 -0.6581054022782774 -0.4930782306003505 -0.24226051415366195 -0.31825706727349706 0.8452615990607704 0.8197125088387005 -0.1771455488955575 0.3666059049049675 -0.5762363687108237 -0.9950074214712389 -0.11700043685222522 0.786 -0.832 0.5010000048122358 0.3820020690325409 0.23594611802375698 0.5318362124622702 0.4337497292634233 -0.8711590138286467 0.7569554991612985 0.7749924649072949 -0.9799380941384326 0.3633274641715529 -0.6347924133945209 -0.2267864799212666 0.8221449075242101 -0.7835174807988874 -0.0842449530773809 -0.3593877461552193 0.2031513781902936 0.5222344155113636 -0.21695276530210847 0.9161605881468718 0.32136843360043144 -0.6678553182679977 -0.12230061613523979 0.9893076222640078 0.9858184841661064 -0.9222513441230289 -0.7121041943082531 0.901 0.315 -0.3689974619428994 -0.7969387038398333 0.5070826659155317 0.8930872473769771 0.5843985129014062 0.6242645434196482 0.7370874998425984 -0.3253202438193372 -0.7726151842793939 -0.17461755752549282 -0.4726675412014659 -0.006592004500983561 -1.0656473293703077 0.07797805461638858 0.7942738013815539 -0.23339340130415195 -0.43590739405007717 -0.879663510082772 -0.423496852557281 0.6617629973658068 -0.562330214793842 -0.3026439911399351 0.6570566567337063 0.34437613479350493 0.5683248141806182 0.8219520097629796 0.504 -0.01499995019168412 -0.9155785655765373 0.534521605854279 0.32481257416714415 0.9506588601796373 -0.7171586585725419 0.34649885892409854 0.14462244886249 0.0038513621129857662 0.5925409496174121 0.4793633378786867 -0.17638785319741487 0.3260780820373115 -0.6559556265700046 0.10279369996699239 -0.1338567618400852 0.5776176601046935 -0.5203983202199457 -0.6941287094538606 0.39882708640947573 0.12071917611604026 -0.08011560543111906 0.24355238583164332 0.7490787293795855 0.4604706354803258 -0.9002336265056257 -0.6103258315461652 -0.7569999279242834 -0.5178552580491682 0.5070563038342876 0.8307076429726491 0.6218892554480263 -0.5821113706274913 -0.8568228966938704 0.19099211097204122 0.6467062038332724 -0.9678634362526908 0.3547023806276392 0.19989624901779865 -0.15439184604378853 0.42648070125884613 -0.57524227379102 0.028295306074016806 -0.8546269613260535 -0.6175529420363377 0.46650099690101726 0.6852299559375526 -0.4507806405542027 -0.4444801982218493 0.44526900357256494 -0.6541071602013591 -0.08302518558392655 0.6761648823296565 -0.04359916723126407 -0.182256001057802 -0.44799970709655584 0.14614577992810315 -0.24819637059817143 0.8713270698956317 -0.7688582827936138 -0.20447689665458593 0.009331359891045122 -0.2049866064671487 -0.23317984682838008 -0.1642982175993357 0.26054427974321204 -0.9478698854719331 0.07006946208249656 0.8967866079266137 0.21098558217039 0.28237107863954397 0.43640337308431115 0.6628063828165782 -0.7687548283684399 0.9451879411033905 -0.22554170191959644 0.5541746954787848 0.8639371054096008 -0.43390184737816284 -0.22904293887027521 -0.0968142384477842 0.4632840289062805 0.4854007683978372 0.7949979853871731 -0.7506562140387306 -0.478960692312274 0.9877405680304299 0.7643439680276574 -0.9632802694405203 -0.9679793021055365 0.07837160497549603 0.8706187463966014 -0.29332449736194144 -0.6656269201727271 -0.47002386595996426 0.9241558798053917 -0.5568082805051847 0.09654057796589262 -0.566133444524023 -0.33951725004892447 -0.4975810577532358 -0.5597050866208106 -0.5489902788838936 -0.6422408255231473 -0.7851397630356376 -0.7974671635156871 0.24139478618107968 -0.7090208728904817 0.6143265569093377 0.05432957160913295 -0.9467833686078526 -0.6570052232693313 0.806669211780542 0.11039029346195306 0.5567291444550883 0.6682348390306637 0.7228159912438153 0.6637418872131887 0.7821160549929945 0.5286664108575878 -0.4991000148190982 -0.5860548508409752 0.7057508743315872 0.23307333335317532 -0.2626573506979448 -0.04799394173628152 -0.5046936765390375 0.5728408258525811 0.593552484733935 0.6965519035289589 0.278512288847015 0.40377615575640224 0.28120336711940364 0.7840465784758698 0.38995178623791266 -0.5360953227598648 -0.2896805332087328 0.9870330369963799 0.780282629272809 0.657974739575169 0.6599464297002975 0.2554354773713721 0.412940802022706 0.6678086488455338 -0.8100215564434597 0.044457512663362425 -0.6325025732836621 -0.7164370131816168 0.5208696699230967 0.26507805652386573 -0.3848197632399927 -0.5282732343323663 -0.8906287607052464 -0.2419197676783817 0.4368082091819128 -0.5938465750358719 0.6747480869100968 -0.8258021908632932 -0.19020462133642335 -0.9237163291969609 0.21995945864431546 0.4280915549672318 -0.3642421056040654 -0.6444380165847027 0.04868865097045206 0.2386225569275074 -0.056141532900854565 -0.49401087972724894 0.44388045248955194 -0.5787298020375513 0.6293767033445948 0.9950062977946785 -0.9120915248489957 -0.07013643647112136 -0.28362121170818033 -0.0029821604493602033 0.3618857780727963 0.013153113510693808 -0.9368989488985304 -0.12905410489392488 -0.1477185789302379 0.9242551325534436 -0.8252777696773589 0.7355600039696585 0.36973827077058463 0.8498642148964458 0.16241235664525913 0.7907309774349218 0.06434488313640745 0.7822092758239282 -0.8170769413472352 0.9273833702808909 -0.8492862251287379 0.9902310103206147 -0.8821304008532453 -0.8660003818981844 -0.4556766728261553 0.37039510851599494 0.6575884839344871 0.5466761867535583 -0.2846564943055629 -0.7903503505669782 0.7288370216756951 0.18466927277410713 0.5456201453320981 -0.8964080715242242 0.49033834273218635 -0.23209893718619712 -0.5221725999173086 0.06209411981951685 -0.23269230080073938 -0.4776009842548407 0.6609455692204337 -0.3850268876213321 0.8629298664138046 -0.7519864219388881 -0.4186230484107555 0.8233551904328352 0.9023450202307385 -0.09764646857208309 -0.5379820401920957 0.7477070753543376 0.994983581097002 0.6039965680195337 0.16009814120684537 -0.6062695547016034 0.06577795113813711 -0.56671040934743 -0.38153320732569035 -0.41884025749661286 0.37731157229417167 -0.18705037345802836 0.11386316275607108 -0.10935196453874842 -0.5904615029621504 0.2729793201606074 -1.0880273337417004 -0.09799779709632239 0.08543211397493236 -0.902158474603903 0.8581173947839364 0.14478382565204204 -0.08747233088164359 0.16916450403477218 -0.8859517435686128 -0.5604756186895702 -0.7596853337968396 0.5909011569933582 0.2121667123400141 -0.22229159527640216 -0.9190015184941251 -0.08500050723457936 -0.19500016922730498 -0.7708348155315689 -0.173322362201005 0.7954151078987345 -0.06284714101321344 0.24706777283529618 0.7352421729412747 -0.05622372902400475 0.6720848452337109 -0.4096374519713783 -0.6334298663207852 -0.0851263852049261 -0.02404853292029803 0.7830269070411784 -0.7769575686086762 -0.9047672317839812 0.5990838409913197 0.36168319001048094 -0.22309571010296564 -0.4823987312809213 -0.5565689404877906 0.06383998854372289 -0.05917599631794787 -0.8677554501058 0.537280488344272 -0.9176614395945514 -0.8320067378042225 -0.3819964770786455 -0.47600245633353994 0.9972572998254574 0.22960523376387143 -0.5489920854471794 0.8430124253472016 0.2556389969198535 0.6418062504720827 0.11408927960902006 0.09577060933401144 -0.6935878068052612 0.00744499935502339 -1.0324219271267305 -0.8597979349982657 0.6233386140696183 0.7380457624976513 -0.804045847260246 -0.554973811505052 0.8222679598520337 0.10552002242058914 -0.687575297338732 0.6478701136111951 -0.31729288221863844 0.5822866122602884 0.6365946038950097 0.13976549100444088 -0.4756863565537628 0.32704365491279913 -0.012 0.2599969617199921 0.6658307792423105 0.6605842771278553 -0.2707176836366334 0.26239904811129644 -1.0176827829057642 -0.04749150735194046 -0.8697179375154644 0.34816606621997787 -0.3637642223905383 0.057863957026015225 -0.05225009094429519 -0.61781258304372 0.6340798755515351 -0.2994453503007446 0.539603478598752 -0.433269630289884 -0.4260198297693859 -0.47881206020800743 0.1077900996929335 -0.4888644296992551 0.05310881798174854 0.583045866994637 0.0786518990743847 0.18282451720183893 0.9537423512055976 -0.5661607914810673 0.8420008817554437 0.6919985101632542 0.4250552420095146 0.38005730348196815 0.5452924676180576 0.1366875393192312 -0.5162785817839852 -0.4625667353463704 0.1484216666643078 0.6009121822518207 0.16998382320143254 -0.1999334771471811 0.5080126642037978 0.4569174715309071 0.6618116574001363 0.15901148663584164 0.2622034917082775 0.369512612975118 0.30244822004763644 -0.20195507211070243 -0.017103348554004038 -0.7205729579219835 -0.6696138240385059 0.4561254717194115 0.9180612970055028 0.8557708200301751 -0.9182087290383764 0.675008120491593 0.023000025775248473 0.6440150101791396 -0.7515647760887552 -0.9905686922783101 -0.5215052564035028 -0.7329718320092135 0.020306564733450272 -0.7599443556419531 0.20127980807805523 0.4498581879379374 -0.792779097397729 -0.8888235499728812 -0.9191469479263604 0.8785865634153505 -0.09629645646360512 -0.9072972791069525 -1.0242726957555923 -1.0468624101771642 0.5366491640151941 -0.5541099351466914 0.19516584481664082 0.685212371512742 -0.6946907792454552 0.07693738999097355 -0.5052608277261526 0.9417238581296606 0.7698569877232947 -0.03792010605858279 0.054 -0.5869960555093561 -0.33084078452619275 -0.9522447713665771 -0.9047223059380253 0.5948557550792625 -0.335619525716019 -0.585754923985902 -0.7054557247203683 0.4797297076671874 0.7239767808777995 -0.5357257225501948 -0.7924493942183043 -0.4451168320292951 -0.350664119008117 0.8424966219388471 -0.40866562657609723 0.8301745459532455 0.45921708524263066 -0.14243763675866647 -0.5865569383468222 -0.42024167787805095 0.22605599668516077 -0.4251128675027891 -0.3016313433541721 -0.681685436415556 0.09976293940507021 0.7359796116149615 0.25100005395271513 -0.4349976029421409 -0.905792059482593 0.4748077798171185 0.6562626047264466 0.14703981448820114 -0.633201049969304 0.6261673896601332 0.5100139706882238 -0.9188940277222468 -0.16176877180775107 -0.7894642949359861 -0.7411540480583128 -0.029550108582136067 0.7569289190505286 -0.353515396227441 -0.5241054399001202 -0.5530210521270745 0.20476197886142583 -0.6275581057918475 -0.7090984479635222 0.5715494788852622 -0.9490651734465108 -0.1583995577935581 -0.7610748896348096 -0.674956054712249 0.8768628863629796 -0.6679999221775285 0.3400000522666928 -0.3389992559552636 0.022300226413286172 -0.4756038310793284 0.3213733425517347 0.37983059993353874 -0.962140935311916 -0.647381502196023 0.011120516589727805 0.26574012270329894 0.6058698678034994 0.5284997780503606 1.0206106407420708 0.8034150956113201 -0.8215288104374024 -1.0329484894593253 -0.8819983593857563 0.1686027242106087 0.20652252492627554 -0.6245840288642832 -0.3762639174395021 0.7222005737114761 0.5855578182374195 0.005516735933213123 -0.7200350053904714 0.725906081152319 0.27374356855127596 0.9170001436722552 -0.488 0.059 0.9000477517980576 -0.05249058447733653 0.5045257124011608 -0.24738600944014388 0.4707426977065096 -0.7350869626879801 0.4117499141701816 -0.882679435096601 -0.6034965872193314 0.9529486589338357 0.5092730542340194 0.8445170227045523 0.8674140804361103 -0.4557093663792173 