-0.41 0.24 0.75 0.51 0.07 0.5 -1.0 -0.71 0.69 -0.26 -0.12 -0.47 -0.29 0.88 0.67 -0.52 0.6 -0.8 0.25 0.55 0.52 0.29 -0.98 -0.98 -0.36 -0.7 -0.79 -0.69 -0.47 -0.37 0.9 -0.58 0.61 0.01 -0.58 0.83 -0.01 -0.04 -0.71 0.6 -0.84 -0.43 0.09 -0.82 -0.02 0.23 -0.09 0.1 -0.14 0.99 -0.59 -0.71 0.01 -0.7 -0.11 0.49 0.62 0.26 -0.22 0.6 0.97 -0.72 -0.67 0.68 0.37 0.39 -0.9 0.13 -0.59 -0.33 0.1 0.59 -0.45 0.26 -0.78 -0.13 0.52 0.19 -0.71 -0.63 0.38 0.3 0.75 0.76 -0.75 -0.81 0.06 -0.63 0.68 0.72 -0.13 0.03 0.0 -0.86 0.43 -0.49 -0.12 -0.03 0.5 -0.78 0.09 -0.85 -0.04 0.12 0.45 -0.33 -0.15 -0.45 0.02 -0.47 0.35 -0.8 0.51 -0.61 0.24 0.08 0.32 -0.53 0.16 -0.24 0.78 0.9 0.67 0.07040692686068682 -0.39878978734363385 -0.9477604415808333 0.26170574205584046 -0.6579650897987495 0.14387846904445656 -0.2855896337537367 -0.6572648016593778 0.8608601252643466 0.87 0.2 -0.03804449404805237 0.08196585254428597 -0.45 -0.28 0.58 -0.32 0.67 -0.55 -0.33 0.25 0.97 -0.6 0.49 -0.35 -0.53 0.45 0.6509979396821606 0.9823594468462762 -0.42720254423040616 0.46389996546384055 -0.7154387723755571 0.9979923540019295 -0.3933989008348421 -0.5144134673961729 0.44798382030087475 0.8060932655049897 0.34468379397701704 -0.2225118519812624 0.052797500890307554 0.941456063617577 -1.0 -0.81 0.46 0.71 0.43 -0.85 -0.97 -0.69 -0.29834665770997093 0.6921600117014896 -0.26 0.42 -0.18766778701028114 0.2127986551729584 -0.4725180034134278 -0.6557751106561877 0.09573312521178072 1.0128771319974876 -0.06407149300257807 -0.8934332496487747 -0.37343654512757346 -0.5038181311250375 0.10226969153198841 -0.2722438383933449 -0.4347517076376461 -0.84372986206081 0.09870326527808315 -0.8041348053475019 -0.23 0.83 -0.64 0.94 0.82 -0.18 -0.56 0.13 0.2833600182023172 -0.1556533097858913 -0.47 -0.6361907187834592 -0.07149777694823042 0.37966832782994636 0.019668327116269344 -0.31913628008214906 0.2531771543008782 0.28591367886204483 -0.013880437984238556 0.48660482328111443 -0.0633978242433252 0.23555005010514332 0.6201495710693725 0.5208757918137444 -0.9731876646735738 -0.3953423555947687 -0.19396663846992732 -0.03 0.52 0.88 0.79 -0.3 -0.56 0.75 -0.77 0.92 -0.5441333015515097 -0.1956533097858913 0.09 -0.49860067220616866 0.34702515482494767 0.6596742307448171 0.6697281365770086 -0.14740913159215635 0.8768588850538419 -0.9316669365523736 0.9919016654555249 0.2310581127641824 -0.8239507395424862 0.8755883012534452 0.37212188434112425 0.9550345699269399 -0.41637691322673137 0.43943780542026833 0.6504862892708896 -0.25 -0.5 -0.81 0.5 0.95 -0.64 0.78 -0.37 -0.05 -0.10407996792925073 -0.4456533097858913 0.25 -0.43 -0.4737807653607497 0.7021660682823435 -0.9606940825015804 -0.04607873742335828 0.5372955323380073 0.01484504659110193 -0.30289099619448884 0.8744200725327769 0.18016571448036064 0.1883978051406193 0.4213467829762638 0.9785785231522897 -0.7861551985456969 -0.24293855540001857 0.48999999993249 0.46 0.73 0.04 -0.9 0.6 0.9 0.16 0.92 0.991226673311957 -0.2534666312732722 -0.1356533097858913 -0.79 -0.69 -0.4 0.3820041798669483 -0.025679363696588516 0.8064557576249947 0.906290533742066 0.542790168366389 -0.2872477672453681 -0.1462694446881668 0.3446026572343959 -0.5871057009882651 0.9422963316805878 0.57792729307894 0.39377102677855264 0.8565943955373124 0.5708601252643466 -0.16 0.83 -0.99 -0.97 -0.35 0.33 -0.93 0.78 -0.36679998266445984 -0.21322662997310668 0.9443466902141087 -0.74 -0.48 0.630679645679072 0.3628983823544861 -0.5255478584787731 -0.5637789676534419 0.9667169476540777 -0.5204391693872155 0.3826288823669555 0.1023945381157088 -0.7974546045084632 0.3226564580927483 -0.5664269638462749 0.9888820609679864 0.36318748912244203 -0.9648398983182659 -0.6271615866276562 0.44 -0.05 -0.03 0.85 -0.18 0.55 0.05 0.01 0.7642400229695907 -0.15322662997310668 -0.26679998266445987 -0.21 0.5701451884479876 0.35311178435756346 0.504383590181607 -0.9151491975246361 -0.013447909345903043 0.2500753218708073 -0.8868383228174829 0.6577040222222925 -0.6875896678867781 0.802551291794043 -0.4358483703200844 0.8074079645202202 0.949210855255173 -0.2898641279282077 0.7847617002235803 0.9233544885309517 0.07 -0.29 0.65 -0.17 0.0 -0.9 0.83 -0.06 -0.8657599770304093 0.26677337002689333 -0.2882133236543234 -0.15999685448749473 -0.7389738472673184 -0.3956154268457351 -0.8151647716835266 0.02413444786667806 -0.024999543101853778 -0.13333858536861384 0.33114252163395924 0.45983747461006896 -0.20469611289647002 0.7844918440763107 -0.08002607977539286 0.9807365837416862 0.3679154038131275 -0.6032199061697785 0.25433503133230684 0.6433544885309517 0.66 0.11 0.39 0.42 -0.14 0.44 0.53 -0.27 -0.8757599770304093 0.28677337002689335 0.1522666789460076 -0.9699956749203053 0.533497024238124 0.7353950480900403 -0.6728546003158783 0.8239533122739024 -0.10317895428826948 0.23839948350091544 -0.685941228324519 -0.7624351285559988 0.18893002573284287 -0.30935298153091234 -0.010813255941630968 0.961751460027587 -0.08326619168006387 -0.5445466887066523 -0.6156477661624062 -0.2566283089637614 -0.8 -0.27 -0.27 0.57 0.3 0.65 -0.51 0.17 -0.6759999783305749 -0.2532532967842362 -0.4336799657623082 -0.4531694341818811 0.7107491460363147 -0.04748608869018593 0.8413517094408722 -0.9104700820217363 -0.040940367398836795 -0.9401479220471912 0.36877503602493095 -0.22984744110568597 -0.41990134926295347 0.8555420667741844 -0.3252481795837188 0.17962209778983806 0.9188117313048828 -0.4856454052626402 -0.1256649686676932 -0.6274540292175341 0.91 -0.9 -0.4 0.75 -0.35 -0.77 0.57 -0.09 0.4 -0.5868266494755893 -0.37527997443007827 0.587082392052747 -0.6283347748218434 0.4713091015053674 -0.512310953060057 0.6034276936099625 0.7320616783891135 -0.278020692318362 -0.9574161799866514 -0.15754955462304365 -0.37617550254030924 1.0012831126865507 0.6774676925192634 -0.8688682181524127 -0.24651186378206233 0.6843864668842011 0.6132024203664297 -0.9897935699365568 -0.21 -0.45 -0.68 -0.22 0.41 0.24 -0.9 -0.89 0.17 0.15 0.37 -0.6565699670898532 -0.4433252515161829 0.32494928251831684 0.840099157790173 0.8700693601568398 0.819999542174644 -0.9995731134524427 -0.677944063035588 -0.27746242183457626 0.602651297627769 0.09526530029605809 0.7591229033329137 0.27251283514703045 -0.2922838060779978 0.058945109191132876 -0.7687062211984699 -0.17997403010257373 0.04001928068142253 1.9280681422526226e-05 -0.89 0.53 -0.7 -1.0 0.84 0.28 0.1 -0.01 0.210001180449883 -0.7073358015730243 -0.4852657596997081 0.022589192740540397 -0.5799582907708002 0.24999953838981695 0.8199923296693467 -0.8193453269910759 0.06253160587928276 -0.293862584970845 -0.6077170820675423 0.21804725353114032 -0.6800245926347195 0.6820509827686049 -0.7893833586384038 -0.5597803813570418 0.08009482947393529 0.200099157790173 -0.13990084220982701 0.060087746774637206 0.19 0.64 -0.96 0.55 -0.81 0.17 0.67 -0.52 0.25004131574590543 0.3717626591574146 0.03616236212725363 -0.9152228237372941 -0.789992917300702 0.5600209928316607 0.5602144207144593 -0.6953484878541251 -0.4957299681427316 -0.9797459099649154 -0.8061788522668297 -0.24383964538113023 0.04105467095231986 0.5593246986831345 0.4556687663249989 0.58 -0.649964979986804 -0.3199291730070193 -0.4999291730070193 0.4800145588818905 -0.41 0.52 0.31 -0.69 0.64 -0.6 -0.72 0.99 -0.3699091059473094 0.16315032147829236 -0.6331076290572629 -0.40355283441057366 0.07320208955978247 -0.0068683496792603434 -0.11929535397146021 -0.8381642582753802 -0.12395546165190545 -0.28420019448087647 0.4663528975087491 0.3660765643345991 0.1644697937014661 -0.9560792031556398 0.6525066796192946 -0.57 0.34 -0.71 -0.9 0.99 0.83 -0.19 0.95 0.97 0.04 0.75 -0.41 0.05 0.5500814490359167 -0.8478863738084368 0.5763428674434369 0.298681689461091 0.032019027569535424 0.6130320367062051 -0.9025644679743189 0.5289452264716055 0.567821176447305 -0.5935814059082999 0.3410877042072359 -0.14928497986730888 0.2548855483817543 -0.37321047237124705 0.5425600138684321 -0.53 0.14 0.48 -0.14 0.61 0.54 -0.56 0.31 0.71 0.75 -0.89 -0.93 -0.19 -0.8699948867231847 -0.9580824105421208 -0.6518703988568164 0.8624231565757053 -0.20353432313263004 0.9087316861682402 0.799064915352538 -0.641880248143611 -0.6683626488777336 0.5310821341065913 0.41284142584758377 0.2600201123706782 0.9746234931691835 -0.4032104715707714 -0.7959199778971864 0.05 -0.49 -0.34 0.42 0.07 0.98 -0.97 -0.6 -0.54 -0.53 -0.78 0.38 0.5842757238144846 0.33337135400181817 0.03756933634172939 0.45009838974844263 0.03193611315492325 0.18512927008697894 0.8564086957393716 -0.7424970459396426 -0.873925612054177 0.003952574095823932 -0.30790870837766776 -0.3496708990407608 0.6400783960658393 -0.9553765067536621 0.24681619524035808 -0.3859199778971863 -0.77 0.7 0.27 0.1 -0.7 0.78 0.34 0.17 0.52 -0.37 0.46 -0.76 0.8805726988867255 -0.640331670453371 0.559668329479119 -0.2903316714467323 0.876480236109536 0.8104890581197254 0.8302540040471201 0.6112371229355097 0.9699999997685371 -0.77 0.4598132674311107 -0.23020624138982462 0.8399992172297926 -0.9374317291612415 0.4267733700268933 0.004080022102813693 0.24 -0.76 0.59 -0.14 -0.22 0.47 0.2 0.32 -0.11 0.8 -0.47 -0.67 0.79 0.96 0.75 -0.78 0.52 -0.91 0.26 -0.06 0.25 0.74 -0.6599972476765579 -0.9999638266061893 -0.3599504581780419 -0.9399665789296314 0.25000216253984736 0.06 -0.93 0.41 -0.44 -0.93 0.94 -0.53 -0.94 0.13 0.82 -0.91 -0.57 -1.0 0.53 0.99 0.61 -0.61 -0.2 0.07 0.1 -0.43 -0.28 0.21 0.59 -0.5899972476765578 -0.9299711006038578 0.1700495418219581 0.12000825697032634 -0.95 0.77 0.64 -0.08 -0.95 0.33 -0.96 -0.01 -0.05 -0.96 0.31 -0.54 -0.32 0.84 -0.65 0.18 0.36 -0.97 -0.47 -0.72 -0.24 -0.24 -0.73 -0.9 0.03 -0.07 -0.56 0.85 0.75 -0.66 -0.55 0.99 -0.87 0.78 -0.11 -0.84 -0.26 //0.65 -0.89 0.57 0.25 -0.35 -0.85 -0.26 -0.67 -0.03 0.62 0.77 0.76 -0.81 -0.66 0.13 -0.79 0.77 -0.48 0.98 -0.37 -0.83 -0.94 -0.59 0.57 0.17 -0.9 0.43 0.3 -0.82 0.69 -0.8 0.87 -0.43 -0.53 -0.9 -0.2 -0.04 -0.64 -0.6 0.81 0.67 0.81 -0.04 0.79 -0.62 -0.21 -0.41 0.78 -0.89 -0.88 0.41 -0.15 -0.27 -0.41 -0.79 0.69 -0.54 -0.13 0.36 -0.42 0.09 -0.11 -0.04 0.59 0.3 0.4 0.88 0.48 -0.78 0.6 -0.5 0.27 0.04 0.74 -0.01 -0.9 -0.9 0.76 0.07 -0.3 -0.41 0.67 -0.18 0.97 0.66 -0.07 -0.39 0.92 -0.99 0.8 0.74 -0.67 -0.08 -0.58 -0.45 0.72 -0.39 0.19 -0.67 0.39 -0.77 0.11 -0.11 0.44 0.52 -0.19 -0.91 -0.6 -0.61 -0.44 -0.1 -0.8 0.15 -0.49 0.24 0.21 0.52 -0.55 0.5 -0.85 0.38 -0.96 -0.89 -0.25113108254600885 -0.24340859895145786 0.1236963305075175 0.24519368348773 0.7467620479829353 -0.6232114931497053 -0.23021519027090642 0.43996631019384336 0.5999894057213344 -0.77 0.25 0.8199809051845792 0.38998080415380987 -0.03 -0.77 0.96 0.2 0.61 -0.41 -0.95 0.79 -0.45 -0.77 0.0 0.17 0.79 -0.46 -0.08277384529140266 -0.7468862834265582 0.042412982658450185 0.8117609293849467 -0.3097489981866679 0.2003790122315484 0.05002094886273287 0.14221326688007946 0.7030804767601223 -0.6025714570144399 0.05707685528262728 0.06531537729634587 -0.19081291408079412 0.5099740294978434 -0.99 -0.92 -0.49 0.47 -0.86 -0.7 -0.88 0.33 0.708779850592081 -0.4515940661619587 -0.28 -0.36 0.3999975166627319 0.8496369976119746 -0.9516563240715781 0.3218463935912362 0.5009381789849187 -0.7611133167120034 0.5343720642341718 0.2328593240328705 0.5013328954405128 0.3417160838518792 0.05616621881698924 0.35210401591743146 0.08534879227804067 -0.38494408568020105 -0.7709253210655951 -0.8500139864323423 -0.34 0.66 -0.03 0.17 0.77 -0.05 0.99 0.52 -0.07247965847415792 -0.4932078121530773 -0.31 0.719995943882462 -0.3000197011423271 -0.6915112680255668 -0.3521308414293917 0.3135357064873059 -0.9047939031917175 0.5107841295157991 -0.23872378134902272 -0.958894280741011 -0.897583479681364 0.3528511937686079 0.05429717653892326 -0.5412114350808284 -0.636861572039543 0.17366880658058162 -0.8113032984590767 0.71 -0.19 0.31 0.22 -0.57 -0.5 0.11 0.18 0.8 -0.004329562415196371 -0.8832078121530773 0.54 -0.9400014900023608 -0.7200181283620573 -0.7715075167143269 -0.4879469595469478 0.07866828084827628 0.13244713457481752 0.6114631374585641 -0.7773390583261386 -0.09647101923075999 0.650768851911858 -0.9500237386547026 0.5171918788474599 0.24756853576088467 0.41050996993066124 -0.545359544067559 -0.9804987326465097 -0.26 -0.73 0.28 -0.47 0.97 0.93 -0.86 -0.71 0.42 0.43563107792648365 -0.0632078121530773 -0.28 -0.63 0.109993377767285 -0.443719548132542 0.6000977756242316 0.6800136297283697 -0.3025782052728 -0.27614511864875513 -0.6660540931649348 -0.5183072385411609 -0.4270661149460242 -0.49855751298874157 -0.8927685645644208 -0.285429145306158 0.920521404593618 0.42605615155314797 -0.6100586082949564 0.05 -0.29 0.01 -0.92 0.86 0.78 0.35 0.29 -0.6309052721413593 0.5451784418558041 0.0667921878469227 0.29 -0.48 0.7 -0.7169324592150649 0.7603191631797755 -0.9996964682383181 -0.6387399634690647 0.9120254624523125 0.8323478114743842 -0.9575366487107129 0.6728335824106605 -0.7606235838844846 0.6036258256853712 -0.7256625851934688 -0.07948256363047322 0.12763179328085866 -0.9000105942786656 -0.58 -0.76 -0.66 -0.2 0.66 0.1 -0.83 0.69 0.227638420500802 -0.34499867660663586 0.1567921878469227 0.45 0.8 0.789998331669209 0.21898241126939488 0.3650607956120911 -0.6422863583878977 -0.9634114903992261 -0.4345849190155568 -0.8776925999722606 -0.15763637495280977 0.37212942980523284 0.7876383923130634 -1.015260639825565 -0.11632009020333077 0.6905220785642744 -0.5707418319538741 0.5899650388804034 -0.03 0.0 0.98 0.26 0.66 -0.96 0.32 0.1 0.03687090716356262 0.5450013233933643 -0.14236157949919803 -0.86 -0.39999539002897266 -0.5900254809334762 0.9299585493831445 -0.5011224928076379 0.04419790677793893 0.7432226575689281 -0.6076223515094821 -0.4385833808133314 0.7905908112399261 0.9807996350031375 -0.7150271375504076 0.16410491785263637 -0.07677391979490382 0.8816917005850595 -0.3404436259531212 -0.48004131768679587 -0.53 -0.35 -0.73 -0.92 -0.62 0.62 -0.03 -0.49 0.5668709071635626 0.4550013233933642 0.39868145144628114 -0.13999922626412187 -0.5800008583074455 0.14995879117560632 0.05968264591147466 0.0367365752931394 0.8817067832360175 0.8315263846054035 0.7565330755695259 0.8454042377573988 0.8053089506271326 0.5744502625896191 -0.4102075298249333 0.9595274225391587 -0.42328629274641744 -0.9121936964883839 -0.8500533951644746 -0.10004131768679589 -0.28 -0.43 -0.76 0.35 -0.4 -0.46 -0.39 0.4 0.4068709071635626 -0.6049986766066358 0.7883272145214014 -0.5599989361131675 -0.6900301711265124 -0.6204278872742655 -0.2628480404708152 -0.6434815485564789 -0.9494029125282771 -0.6984706755407046 -0.8824452709825799 -0.01438887473045078 0.46569967289791997 -0.7734492135948665 -0.7621851045982776 0.7204278772913127 0.45370144532724693 -0.6308412239875939 -0.600053607050048 -0.2800415295723692 0.37 0.39 -0.77 0.12 0.09 0.39 0.53 0.49 0.08704802562600247 -0.8549789967774758 0.7053358804890839 0.4759109457961898 0.9158760274938028 0.08529151950024179 -0.5589492983311792 -0.16581623552456443 -0.19670729570483747 0.831748261836542 0.18198787477964998 -0.5748632172290646 -0.8866239886223839 0.11101771841257954 0.5012561807378859 0.18983982111163702 -0.8200186460904808 -0.33028319065995154 0.7299466048355253 -0.9700313590648502 0.56 -0.25 0.95 -0.84 0.96 0.38 0.3 0.25 -0.77 -0.942341899670038 0.666516670238683 -0.28351012971198836 -0.953789007541739 -0.9465302407262612 -0.043401792946282346 0.13740296045068887 0.003602024760797893 0.08722505108866571 -0.18113748369452706 0.8879267940008798 -0.40923174264452983 0.2454162651434672 0.7693536720854532 0.3073057656030205 0.8845258858256307 0.6466174306063509 -0.22030725826152353 -0.6400025426268797 -0.41 0.31 0.1 0.68 -0.19 0.98 0.74 0.38 -0.85 0.78 0.12 -0.00022852579484128994 0.4647586458126537 -0.23969966311420013 0.2703574883840518 -0.36691273564212706 0.5392716261392221 -0.6601361612839893 -0.13150699960110399 -0.3387374806900615 0.5292674949409631 0.8731047822136748 -0.04732659950290037 0.6304435623397207 0.14621371649083656 0.6103045163438846 -0.42705560791274666 0.6074745802910612 0.13812506718578788 -0.9618749328142121 0.16 0.93 -0.25 -0.73 0.51 0.39 -0.02 0.95 -0.42011479180495176 0.8547668801530494 -0.9296988366727361 -0.45925233173925534 -0.5640559771082957 -0.2907734702017052 -0.07013191799167355 -0.05216617045352554 -0.08815838350052407 0.9694677731450011 0.6471595910985415 -0.6205468174991218 0.28743450276692467 0.6191560350090218 0.36544988178388066 0.5437628130418031 0.31077839166887494 0.010357488384051825 0.19035748838405184 -0.5385328575014144 0.43 -0.39 -0.06 0.89 0.13 -0.95 0.65 0.97 -0.014017713173311741 -0.650214277042464 -0.67470813034887 -0.6759140023675432 0.6193112491702895 0.07707376361512432 -0.17663830240048153 -0.3694864990200733 -0.6399005938627554 -0.7263163702785571 0.8707072139318395 -0.6396127567197437 0.2774201001287889 0.5319207665832918 0.4282436107546294 -0.23 0.606594509786431 0.23311249170289416 -0.09688750829710584 0.4185842344055949 -0.02 -0.95 -0.23 0.71 0.23 0.51 0.47 -0.12 0.760650301591237 0.30439068179109213 0.14162168579636153 0.04607026261305764 0.2899238653503733 0.34924181161114254 -0.9598032868333426 -0.48121070206979505 -0.43738710851636026 -0.45710273771154086 0.6602520711954856 -0.09943478540975434 -0.889637039544611 0.5826576226197122 -0.3123941238227765 0.89 0.21 0.57 0.92 -0.79 -0.1 -0.01 0.94 0.32 0.54 -0.11 -0.81 0.43 -0.8996621381632334 0.516694538893735 0.11288887884962895 0.18220583143889335 0.052216513421326965 0.9558862556075705 -0.7306266850238113 0.32083703229682325 0.761220497854654 -0.7295630516709404 -0.9598097885209436 0.4617158920514923 0.7044009575175249 -0.8057493128172152 0.24811073640064157 -0.14 -0.33 -0.04 -0.98 0.26 -0.51 0.67 -0.71 -0.8 0.74 0.69 -0.49 0.54 0.38776106522364734 -0.15567586737034883 -0.5814082367260115 -0.7096727011030673 0.7499634185601572 -0.47940938227779917 -0.4891656780287806 0.18095924213335357 -0.9690135898667703 -0.10936360984690469 -0.7291361936733637 0.9281686939428136 -0.7137955705800141 -0.9950543858913035 0.38698898613852256 -0.5 0.2 -0.13 -0.49 0.84 -0.27 0.22 -0.73 0.67 0.79 0.35 -0.78 0.6199954472150084 -0.9704244958650321 0.3786667918628437 -0.4821361385687245 0.2776198869995279 -0.9354670273922789 0.3945193838289025 0.26323188474846626 -0.5487063833441395 0.1914177623191201 0.25188109344813986 0.20750059813938604 -0.640471669437665 -0.4237285896714926 -0.5850740657204635 -0.9730110138614775 0.43 0.65 0.7 -0.66 -0.74 0.78 -0.78 -0.86 -0.1 0.33 -0.56 -0.44 0.5299887422043845 -0.1300209428109612 0.8699204488940824 -0.2708833220081769 -0.5519977267770274 0.08777749141409004 -0.6415839853482437 -0.210979328975106 -0.13020094272556482 0.0 0.7296969056280197 -0.3203706528773899 -0.740047645009253 0.29811276745732174 -0.8649986766066358 0.09698898613852253 0.4 0.79 0.5 0.91 0.99 -0.87 -0.07 0.14 0.04 -0.11 0.9 -0.4 0.0 0.49 0.14 -0.18 -0.88 0.09 -0.19 0.28 -0.23 0.49 0.2700006770188934 0.34000889796259887 0.9200121863400811 0.9500082209437054 -0.21999946805658377 0.2 -0.89 0.04 0.49 -0.15 -0.56 -0.8 -0.99 -0.55 -0.61 0.49 0.39 -0.43 0.8 -0.72 0.47 -0.4 0.93 0.21 -0.41 0.66 -0.5 0.98 -0.44 -0.5499993229811067 -0.38999289130161946 -0.499987813659919 0.7800020310566802 -0.9 0.67 -0.99 0.77 0.67 0.31 -0.19 -0.78 0.22 -0.72 0.34 0.67 -0.21 0.62 -0.42 -0.35 -0.84 0.83 -0.38 -0.27 0.97 0.64 -0.27 -0.99 0.51 0.49 0.0 -0.03 -0.52 -0.33 -0.87 0.7 -0.51 -0.19 0.38 -0.96 0.2 //-0.22 0.43 -0.02 -0.06 0.63 -0.13 0.39 0.18 -0.53 0.35 -0.92 0.73 -0.41 -0.48 0.13 0.63 -0.59 -0.76 0.55 -0.35 0.46 0.62 -0.91 -0.29 -0.36 0.79 -0.73 -0.32 0.75 0.39 -0.55 0.21 -0.07 0.35 0.62 -0.29 -0.18 -0.38 0.09 0.25 0.64 0.53 -0.81 -0.54 0.44 0.3 -0.31 -0.75 0.46 0.07 -0.23 0.99 0.71 -0.28 -0.22 -0.14 0.68 0.28 0.27 0.74 -0.28 -0.36 -0.73 -0.42 0.13 -0.64 -0.91 -0.25 -0.23 0.52 0.08 -0.24 0.66 0.08 0.44 -0.99 -0.59 0.83 -0.16 -0.96 -0.89 -0.71 -0.09 -0.43 -0.96 0.63 0.69 0.34 -0.54 -0.19 -0.47 0.66 -0.02 0.2 0.0 -1.0 -1.0 -0.45 0.23 -0.06 -0.13 -0.71 -0.65 0.98 -0.62 -0.02 -0.23 -0.51 0.89 0.26 0.61 0.91 -0.33 -0.61 -0.44 0.44 -0.49 0.56 -0.63 -0.23 -0.05 -0.9 0.66 -0.34999985144636714 0.9699979899536629 0.6899965057053413 0.7599970548385802 0.3000002041630476 -0.6399986293774195 -0.9799984619593365 0.380000953257612 -0.10999970023345533 0.61 -0.05 -0.7299999855488607 -0.6199999854723997 0.04 -0.12 0.94 0.53 -0.48 0.15 -0.4 -0.1 0.72 -0.27 0.96 -0.57 0.56 -0.05 -0.15999963568990044 -0.1999952819194735 -0.3601315937153711 -0.9807953656405249 0.8992094093186569 -0.8707675168621537 0.8844452045621282 -0.42599778352080714 -0.17772690577927044 0.33887807609562887 -0.03090080535874104 -0.21363526299840335 -0.8230245649875353 0.6443688276351628 0.01 0.73 0.18 -0.07 0.2 0.81 -0.15 0.93 0.6767051038415713 0.8056953775994722 0.71 -0.62 0.8686697990401469 -0.10159126465635382 -0.8841518125307595 0.3631981955757068 -0.37751560493822583 -0.6112158350174064 -0.7712106620170484 0.5588130419602743 0.31881716506551716 -0.391182925758832 -0.9699419676681496 -0.4975935988940278 -0.5375656145695843 0.009722253513178925 0.9092827365482441 -0.6928377554720361 -0.35 -0.09 -0.63 0.8 0.96 -0.37 -0.93 -0.68 -0.5166960792897101 -0.448662388287482 0.6 -0.02217266156776019 0.3894470723851648 0.38880257228183496 -0.8211888635166585 -0.011187861214193528 -0.16119081396706036 0.038785465012465346 0.4887846222548423 -0.2611933207362562 -0.0011879375434816575 -0.9210970850950312 0.5359086612013617 0.48628920251734525 0.6082635278796528 -0.12361323043726824 -0.4638481581919282 -0.02 -0.85 0.13 0.16 -0.15 -0.43 -0.84 -0.86 -0.78 0.7383084329862206 -0.578662388287482 -0.49 -0.7707981205759119 -0.23971046700692822 0.34879480218086684 -0.08118668040881062 0.518813662156961 -0.6711949741288955 -0.7712300581707919 -0.3287915071030773 -0.4280584087247979 -0.7309377273673233 0.3893342919235768 -0.7799710878529829 -0.5114055546634435 -0.24346999149633478 -0.4285790587684101 0.41000683180838415 0.09 0.18 0.04 -0.9 0.98 -0.78 0.91 0.28 0.6 0.7382021460133681 -0.408662388287482 -0.14 0.51 0.9464527974403915 0.35308472242799677 -0.07473816105382457 0.3887854430483411 -0.5012201060944628 -0.5991160200089093 -0.9305124400771965 -0.35000562587062345 -0.8019048442680138 -0.28682721500898667 0.5900256340909695 -0.4596966418953082 0.8465309739353765 -0.45662201641246825 -0.5999991898728304 0.14 0.34 -0.24 0.51 -0.18 -0.92 0.09 0.72 0.6675553996243916 -0.9930201541744361 0.12133761171251799 0.08 0.14 0.43 0.08938034337697011 0.459956024341099 0.46317208338048027 -0.3812207580855281 -0.15401595472620153 0.2399725963832123 -0.1600131885516566 -0.6200017782437154 0.37000740077968397 -0.8099722449862073 0.3295062118834759 -0.5434672732142647 -0.8829579060962283 -0.6199997002334553 0.72 -1.0 -0.36 -0.53 0.37 0.88 0.87 -0.21 0.4736227816288476 -0.2534984455522726 -0.07866238828748202 -0.6 -0.68 0.13999777540993755 0.08999666219838669 0.48999867334665526 0.8738362629921641 -0.5612179231721085 -0.8084508264562035 0.16988357463823422 0.30998303977493824 -0.26999460533615033 0.6400196340375572 0.44880624083509113 -0.9022448098869736 -0.2934668873395278 -0.03153802964633237 -0.8299990107704026 -0.1 -0.87 -0.47 0.5 0.09 -0.53 -0.73 0.25 -0.9484498143417769 -0.19349844555227258 0.7936227816288476 -0.88 -0.3000022989720185 -0.5400036332886541 0.10999692183913366 -0.5600016873070799 -0.9204867072383115 -0.028423589034088276 0.8687616668865008 0.07687890490191378 -0.8499938908387591 -0.14997676124266493 -0.5499723134993314 0.28136813850353515 0.79653435566904 0.00854699492410885 -0.2508477433673601 -0.16999883091047582 -0.54 -0.8 -0.44 0.03 -0.14 0.94 -0.21 -0.83 0.30155018565822306 0.5465015544477274 -0.5435606135905602 -0.8300002972621378 -0.5400039685671365 0.9099968289447156 -0.8099980521808934 0.3900151475037079 0.260023229268415 -0.9615286554267297 0.6793168882500334 -0.3999768615721494 0.9521708607764862 0.38066634031379976 0.43052596963010314 0.7468519103542497 -0.803483846631583 0.5151687431502585 -0.8199984891766149 0.2700011690895242 0.25 -0.94 -0.8 0.07 -0.39 -0.4 0.34 0.09 -0.5784498143417769 -0.1534984455522726 0.42548280365376706 -0.9000004087354394 -0.5500034944973085 0.6400020502406832 0.24752854983349304 -0.8425751118691382 0.163863478894428 0.6023763352037955 -0.0015550849599989577 -0.743448611990712 -0.6341225633816312 0.4763736473183429 -0.5047568626370487 -0.9138917048163413 -0.5533916558901131 -0.5421242106476731 0.290001516818716 -0.3599988249151449 0.04 -0.27 0.93 -0.84 0.94 0.35 -0.75 0.11 0.3020284770360595 0.04655469793415368 -0.982595006283026 0.4889994566927723 0.6089964884734651 0.429001426295797 -0.4534227278633933 0.9565294325234808 0.6467423773493163 -0.40272595555616203 -0.4105149621099299 0.9704047104061865 -0.9530821145716925 -0.6826783776200599 0.378550070204957 0.9209997657489011 0.875527192149612 -0.3799983970059742 0.06000151082338512 0.6000008873089722 0.43 0.22 0.99 0.42 -0.48 0.64 -0.16 -0.07 0.45 -0.18632407488472613 0.1005936029025502 -0.9494058808422121 -0.4294058027456288 -0.779408245044085 -0.7594037229401795 0.32480576613715517 0.06702928669799445 -0.38999471196839947 -0.8600103584585501 -0.9400267504571109 0.9192666769333856 -0.6741084845795704 -0.16656062214962783 -0.03468285578085907 -0.5799700477398102 0.11000276636070791 -0.5699987843305924 -0.4999999280560293 0.85 -0.88 -0.47 0.82 -0.66 -0.65 -0.97 -0.61 -0.41 -0.29 -0.24 -0.6599994040565156 -0.6299965333342518 0.19000496381498352 0.500003619363011 -0.2399973928873001 -0.799999669582449 -0.11999988251353187 -0.6200129401784986 -0.3700303753089462 0.9799711922114384 -0.8200030244527372 -0.879990643306516 0.3053167303436681 0.5316924678164775 -0.7428327937352248 -0.38999693162200644 -0.07999905207159236 -0.69999929623497 0.6400007037650299 -0.46 -0.62 0.09 -0.98 -0.84 0.19 0.94 0.41 -0.7599999569123451 0.5500024713973247 5.132403766703311e-06 0.9500043306979226 -0.6199984775695271 -0.7599996493012665 0.17000011427510386 0.5200008802309256 -0.20000843244544558 0.32793065129738835 0.4342068296036648 -0.05811041395546314 0.6998293674435052 0.36531481419161754 -0.41219692985181583 0.9599136610319257 0.5900034613749431 -0.11999638063698899 -0.749996380636989 -0.2099967971509863 -0.7 0.82 -0.59 0.67 0.84 -0.71 0.45 0.78 -0.43999849193207874 0.48000478082656567 -0.22998570146237732 0.910003972775283 -0.9099997414740707 0.8700011636519315 -0.389997442944203 0.6582743688061288 -0.7565604702514315 -0.5101814562877997 -0.17123807020126872 -0.5812067328479057 0.13982989182125952 0.8254468025283618 0.8089094996520998 0.55 0.3800012782670952 -0.5399974147407065 -0.12999741474070642 0.37000053141441036 -0.32 0.29 0.76 -0.63 0.34 0.74 -0.42 -0.28 -0.749989622570953 -0.499974111928436 0.1500350926224175 0.07000855385472819 -0.1099957271506796 -0.5710600102010822 0.04494915401761486 0.1802052967356208 -0.2512140693176628 0.5987725408214103 -0.5612200518446763 0.48880797674921206 0.5021327929073474 -1.0169822104406956 0.665012034885362 -0.94 -0.76 0.95 -0.62 -0.34 0.37 -0.46 0.19 0.27 -0.44 -0.84 -0.96 0.01 -0.9799729546016319 0.40003349515274195 -0.29996500844822277 0.029003242370254777 -0.8429048015771475 -0.3894240864333043 -0.2911987988836506 -0.13119955672512448 0.8688059764065738 -0.9512078199797326 0.9812199220965979 -0.29356564645082667 0.4609476319237898 0.19651057431444222 -0.8251017746969219 0.5 -0.74 -0.9 0.18 0.0 0.88 0.0 0.7 -0.42 -0.28 0.27 0.76 0.78 0.6100242590633517 -0.08076745241124193 -0.8475492387985526 -0.08967765321473528 -0.5911860096837025 0.848813769727319 0.2788136651321374 -0.7311864420637252 0.47138431759717286 -0.3235359655444544 0.4695950415807377 -0.7899947893235393 0.4210154412393738 0.17650096852086058 0.9318690465767806 -0.11 0.69 -0.9 -0.78 0.48 -0.76 -0.95 -0.51 -0.39 -0.66 0.66 0.0 -0.8124387017597309 -0.8676208146129715 0.5399973227641943 0.8488112863666138 0.8988119577825098 0.048813175409807626 -0.5911868083560542 0.039212410627871376 0.9641296396941484 -0.3604626635111958 -0.34000895052199503 -0.6800265882368987 0.8099908933194088 -0.03898548462024849 -0.4935521749655657 0.28186904657678064 0.44 -0.41 0.77 0.79 0.59 0.28 0.9 0.01 0.94 0.21 0.61 -0.83 -0.1960302443513344 -0.2312180280947618 0.4587827820324077 0.4687938923478756 0.8406271212701466 0.4340433481276685 0.5741671369441884 0.9593025800921613 0.910002777578867 0.11 -0.5000179434494313 0.5899752144653161 0.06999350670900531 -0.8951025550100336 -0.42349844555227256 0.6518690465767807 -0.26 0.96 -0.1 0.78 -0.59 0.97 -0.28 0.94 -0.57 -0.8 0.24 0.09 -0.68 -0.5 0.75 0.59 0.18 0.8 -0.13 0.46 0.97 -0.99 0.5099997398956295 -0.8100034185145841 0.7499953181213305 -0.8300031584102135 -0.07000020436771971 0.48 -0.12 -0.68 0.67 -0.4 0.83 -0.12 0.4 0.04 0.77 -0.17 0.81 0.76 0.02 -0.38 0.76 -0.43 0.42 -0.68 0.26 -0.58 0.83 -0.92 -1.0 -0.9600002601043705 0.8099972689041095 0.4499953181213305 0.33999921968688845 0.03 0.06 0.28 -0.62 0.11 -0.48 0.5 -0.42 -0.01 0.47 0.89 0.02 0.94 0.64 0.43 -0.25 -0.81 0.89 0.68 0.77 0.66 0.93 -0.17 0.63 -0.99 0.89 -0.83 -0.94 -0.62 -0.41 0.29 -0.02 0.41 -0.33 -0.45 -0.03 0.51 //0.33 0.57 0.21 -0.76 0.15 -0.42 -0.48 -0.18 0.09 -0.57 0.93 0.99 -0.47 -0.49 0.81 0.65 -0.25 -0.56 -0.93 -0.76 0.87 -0.35 -0.78 0.69 0.74 0.07 0.46 -0.91 0.26 0.52 -0.98 0.24 0.4 -0.2 0.11 -0.24 -0.6 0.18 0.11 -0.73 -0.09 -0.59 -0.93 0.62 -0.86 -0.29 0.26 -0.38 0.07 -0.69 0.33 0.41 -0.38 -0.1 -0.09 0.96 -0.65 0.72 0.25 0.11 0.76 0.2 -0.75 0.37 0.48 -0.89 -0.75 -0.66 0.9 0.68 -0.85 0.21 -0.6 -0.01 -1.0 0.65 0.07 -0.61 0.69 0.2 -0.97 0.13 -0.18 -0.64 -0.34 -0.5 -0.39 0.15 -0.81 0.78 0.26 -0.7 0.58 0.35 0.6 0.2 0.96 0.51 -0.61 -0.24 0.14 -0.31 -0.31 -0.36 -0.01 -0.88 0.69 -0.35 -0.79 0.71 0.95 0.79 -0.42 -0.88 -0.42 0.7 0.32 0.25 0.64 -0.56 -0.79 -0.2 0.97 -0.24029293777404398 -0.8607893377826954 -0.9714682346545896 -0.6811087945736187 0.24925768668816886 -0.3905938615988787 -0.649677219478858 -0.5097708459479933 0.04007206102264364 -0.34 -0.67 0.7897463541882286 0.6297450121468965 0.19 0.34 -0.67 0.95 -0.73 -0.56 -0.47 0.24 -0.65 -0.47 -0.91 0.0 -0.36 0.45 -0.6307183950172984 -0.22168212520066607 0.4978941941583293 -0.9740071425013545 0.46619555270183605 -0.8735113716481938 0.8226051685223954 0.5641513330007112 -0.12992692721962829 0.30730154997216 -0.8918693749832415 0.02521654219311948 -0.1828712990548293 -0.0968260198017007 -0.71 0.35 0.27 -0.88 -0.18 -0.99 0.62 -0.96 0.2296589351787916 -0.9004455846857723 -0.89 -0.31 0.07607385335168054 -0.24471327477037425 0.7775663911181626 0.05822031156162051 -0.31396812326821194 0.8361886593623414 0.4288412247366071 -0.29020593287919444 -0.3193434069437117 -0.28916337319071145 0.9557985277972875 -0.8489249809725781 -0.7936523841822405 0.38706538172205124 0.9039401137974423 -0.42849119507097755 -0.77 0.42 -0.06 -0.59 -0.94 0.24 -0.33 0.18 -0.5006931317334236 -0.810896670417048 -0.37 -0.0064127061922551265 -0.40114743007666775 0.45688163648183344 0.8968783687926027 -0.45300931686055895 0.25848553716005657 -0.12911676036874906 0.35134195929934575 -0.1290720170049458 0.8602628964134247 0.13019929947376868 0.4624327724536983 0.13471930508418892 -0.04038459175073179 0.10139878009392132 0.9044224004881509 0.46 -0.45 0.32 -0.74 0.57 0.76 0.81 -0.68 -0.95 0.23878976998926044 0.09910332958295207 -0.35 0.7476443120110083 -0.8086608705327322 -0.9028065896680558 -0.059993198107044704 -0.5279011575547077 -0.34886508003093236 0.08092032775219465 0.24865076421994758 0.5694174461713688 -0.9328881473271272 0.26820092275447155 0.22548649838690737 0.975554101183599 0.5000238194526315 0.8790544281914774 -0.7500656812624019 -0.08 0.93 0.96 -0.32 0.73 -0.58 -0.7 -0.73 -0.89 0.7787787678982537 0.619103329582952 0.36 -0.85 0.6095302756044815 -0.9484373998623131 0.7412967157580165 0.7025985328579288 -0.218181925323297 -0.36259178659574637 -0.7581800832830443 0.9191361987743113 0.29318847542140075 0.5695229873814769 0.30536820372940293 -0.4457339108979487 0.2799355239487274 -0.5005618061693032 -0.19000030910573806 -0.71 0.37 -0.26 -0.34 -0.14 0.82 0.77 0.84 -0.06025304809315463 -0.4213477561483236 -0.0008966704170479463 -0.34 -0.15 0.8 -0.36796843342968893 0.27558062363548175 -0.38442254718460733 -0.21831372362970217 0.5917460565708298 0.3494103847495965 0.8886489315247906 0.08872403405530842 -0.7297486530205753 -0.015727714512448008 0.5539238896235678 0.05986676275181355 -8.364240331054968e-05 0.14007206102264366 0.62 -0.11 0.31 -0.85 0.54 0.88 -0.48 -0.79 -0.1306601254604034 0.05860273444214614 -0.44089667041704794 -0.28 0.42 -0.6498499673627408 0.46095552175435395 0.5431809707048258 -0.04673203471952922 0.8966973839982555 0.28432454728384216 0.7282882431512252 0.7586664948770452 0.418632715182274 0.040658762614724106 0.5942854768846006 0.2836235644513074 0.17992676107049546 -0.33980367118361027 -0.519762198625276 -0.14 -0.12 -0.23 -0.37 -0.7 -0.86 0.45 -0.15 0.9391253337649654 0.8386027344421462 0.10933987453959661 -0.35 -0.4198989754813276 0.43043913090570723 -0.35945854906532787 0.5601550070338922 -0.6531347063203043 0.733086626313761 -0.5846515241412625 -0.34041983473146564 0.7887136593492589 0.00864734548896263 0.8315403157943205 0.7637965811473029 0.6634749180661537 0.8404023025242554 0.16027477340440696 0.6402810379883103 -0.69 0.36 0.34 0.14 -0.54 -0.94 0.17 -0.52 -0.2008746662350345 0.31860273444214615 -0.15036857004872523 -0.5399884525745394 -0.9497504127650074 -0.7494549404948714 -0.3095715956805574 -0.1207735813298971 0.11793052999779208 0.43344748511761355 -0.5306904980067935 -1.0180408523695683 -0.13966824520763718 0.6663188390778773 -0.9089338162167773 0.9724632808307705 -0.32754713136495345 0.7999245426009574 -0.20963681244587604 0.6402810379883103 -0.97 -0.08 -0.76 0.74 -0.34 -0.94 -0.93 -0.33 0.19912533376496552 -0.031397265557853854 0.22953241113221426 -0.5099841222899917 -0.07953813456465508 -0.9795843223506184 0.9596875946454066 0.38959879610121056 -0.4605792843189822 0.19111149950160433 0.5724721048066385 -0.2285847456505205 0.7195702083434123 -0.14101588771076085 0.8265861501682673 0.6686825750978739 -0.9106659005818976 -0.5598525306046519 -0.5596353712254232 0.6302824792087631 -0.13 0.64 -0.38 -0.89 -0.93 -0.32 -0.87 0.46 -0.010825156825504246 -0.0013917645123504934 0.7986962522157033 0.0789823637606831 -0.6807409280352571 -0.28083092945451443 0.5597156212246106 -0.08689403417459293 -0.8962801134946703 0.7732342180419831 -0.24672859776800257 -0.6933592028634624 -0.12019017510171084 -1.0199094162605458 0.1299558445689643 -0.507361928990639 0.3074960091668443 0.4804881195548539 0.860363187554124 -0.009786699372974814 -0.26 0.53 0.11 -0.59 0.11 -0.45 0.7 -0.42 -0.9 -0.5206546244149001 0.719026314945905 0.3390320610885044 0.7092158351809638 -0.4791987056039141 0.4041201714493995 0.024711458154132154 -0.15756533374023488 -0.02878302635407582 -0.6499172913323589 0.6807216699263021 -0.40763392313411995 -0.618079024070198 -0.5504736819585976 -0.7011543000832081 -0.7305684883644243 -0.007844754911405499 0.5104121395812242 0.18001729464543448 -0.34 0.44 -0.81 0.03 -0.25 -0.31 -0.47 0.95 -0.9 0.92 -0.67 0.01997042486895487 0.682845138975959 -0.8746235151179201 0.5151866127716374 0.013748310546509764 0.8705299911961892 -0.8198284413257921 0.5505875575803695 -0.8354952561698266 0.45531660997985035 -0.8068570581579952 -0.7129626968676159 0.48752055554375023 -0.27798941962784435 0.7971351078571189 0.45388937724731776 -0.33864160141695215 0.9710085080389295 -0.45899149196107053 -0.66 -0.58 -0.16 -0.48 -0.28 0.59 0.29 0.69 0.6700617453901386 0.14277266150357562 -0.6944891188728702 -0.5148308100265374 -0.5278183295484383 -0.8394376221571694 -0.809772075589843 -0.9487644469266536 -0.195857802141154 0.3893464264528394 0.04685254123701449 -0.004260745612561142 -0.05560800271373611 -0.11469541886887105 -0.7156760186546548 -0.33690691024569397 -0.16503978699220395 -0.19481338722836264 -0.024813387228362634 0.45458974066696484 -0.38 0.19 0.39 0.55 -0.25 -0.02 0.88 0.92 -0.3078389113451511 0.48517781747156113 0.05410758825556403 -0.008492648510559156 0.11037047234083124 0.861732211700953 -0.38629330076864093 -0.2800527299518781 -0.05441577953192585 -0.8173779118514213 0.7664788913434255 0.16568106406787245 0.034575190422065916 0.02587005551014858 0.9558645497172727 0.05 -0.12816822009255666 0.7137047234083124 0.1837047234083124 0.7407615264783753 -0.67 0.17 -0.09 -0.93 -0.23 0.26 -0.26 0.21 -0.3452482985950497 0.36415718334242686 0.41362302388012584 -0.39692271077676494 0.5543610620103072 0.882095341185784 0.7903764044408851 -0.7640776611614648 -0.3811539871242534 -0.7338188383928375 0.8959650907103753 0.9555104834132558 0.09208443883312643 0.29841156154081755 0.059480031455116364 -0.68 0.33 -0.89 -0.1 0.87 0.15 0.88 -0.94 -0.18 -0.89 0.09 0.51 -0.95 -0.17574875293665715 -0.7050995697040694 0.28416465486474696 -0.24919472558232766 -0.9946581766231651 0.1447517928110705 -1.0217468163405596 0.19609708360038577 0.9354651140965343 0.0658440236372197 -0.31691400249583207 0.7881658028262131 0.6887823187785779 0.4686071984718497 -0.6705281003683228 -0.85 0.84 0.03 -0.92 0.24 -0.98 -0.22 -0.98 -0.51 -0.18 -0.18 -0.85 -0.45 0.7802583785010505 -0.0004123545285864031 -0.07013662314874541 -0.8864926416337704 -0.37382871398079665 -0.3244679121841069 0.9153315602523604 -0.7747447463284887 0.20306562441690532 0.43830834484394077 -0.6823268287878889 0.7201528292766166 -0.640871267880306 -0.28138913641725627 -0.8208416599620143 0.26 -0.89 -0.74 0.05 0.59 0.07 -0.24 -0.17 0.98 -0.57 0.45 -0.67 -0.387197935521919 0.027487928809468695 -0.6195839042174648 -0.7630856006960755 0.6870721382324928 0.8866534398149041 -0.533507031876404 -0.5628698466605268 -0.8190939104528839 -0.893166978707957 -0.7712679307178685 0.4101389029687027 0.9201408480632058 0.9291290853833947 -0.7513946374627596 -0.23084165996201433 -0.55 -0.77 -0.69 -0.77 -0.92 0.15 -0.49 -0.31 0.51 -0.91 0.57 0.47 -0.7977985314723816 -0.7631105034008274 0.5668891874934345 0.14688494832902685 -0.5477333532002316 -0.5375035311058389 0.11294710011874604 -0.6718987187658448 -0.7800010597911019 -0.25 -0.7597547259477144 0.2104008112688622 0.34016887821614145 0.6595022116235114 -0.19139726555785386 -0.15084165996201432 0.94 -0.2 -0.41 -0.91 -0.16 -0.42 0.43 0.95 0.16 -0.29 0.43 -0.83 -0.2 -0.27 -0.84 0.31 0.63 0.04 0.02 -0.36 0.62 0.71 0.9200101039972781 -0.049867204607203 -0.4998181280489954 -0.43987730860448104 -0.06999206114499584 -0.68 0.17 0.3 -0.24 0.35 -0.41 -0.23 -0.58 -0.45 -0.88 -0.23 0.96 0.37 -0.54 0.91 -0.89 -0.61 0.06 0.67 -0.94 0.37 0.63 0.16 0.47 0.9100101039972781 -0.5398939080285807 -0.2398181280489954 0.030030311991834098 0.96 0.49 0.5 0.77 0.06 0.15 -0.71 0.06 -0.6 -0.04 -0.79 0.63 0.0 0.57 0.59 0.43 0.39 0.08 -0.37 -0.87 0.79 -0.45 -0.57 -0.75 -0.81 0.27 -0.5 -0.44 -0.4 0.82 0.36 -0.6 -0.74 0.17 0.73 -0.56 0.83 //0.29 0.28 0.97 0.35 -0.47 -0.68 -0.88 0.63 0.79 -0.89 -0.78 -0.96 0.54 -0.16 0.39 0.92 -0.38 -0.12 0.19 0.47 -0.08 -0.82 -0.68 -0.15 0.61 0.58 -0.45 0.25 0.87 0.29 0.69 -0.65 -0.64 -0.74 -0.72 -0.3 -0.84 -0.81 -0.19 0.1 -0.29 0.78 -0.83 0.81 0.99 -0.66 -0.56 -0.71 -0.82 0.27 0.63 -0.33 -0.28 0.6 -0.28 -0.17 -0.66 0.28 -0.95 0.73 0.56 -0.33 0.75 0.59 -0.3 -0.51 -0.28 -0.34 0.01 -0.83 -0.77 -0.83 0.88 0.67 -0.91 0.36 0.34 0.83 -0.9 -0.46 -0.96 -0.98 -0.51 0.08 0.55 0.28 -0.68 0.57 0.29 -0.24 0.35 -0.13 -0.51 -0.62 -0.91 -0.21 -0.54 -0.43 0.06 0.24 -0.76 0.65 -0.73 0.25 -0.76 -0.57 0.02 0.32 -0.97 0.49 -0.16 0.5 0.29 0.88 0.8 -0.14 -0.62 0.25 -0.05 -0.96 0.55 -0.31 0.09 -0.6388120860110595 -0.17688243000549228 0.26580739760800715 0.18437509236592525 -0.19658581931075636 0.4837231932975009 0.8707834587749127 0.7703857206619065 0.670121295805631 0.78 0.58 -0.12986681487907192 -0.6298661101958924 0.32 0.71 0.59 0.04 0.0 -0.43 -0.02 -0.72 0.62 -0.73 -0.79 -0.31 -0.02 0.42 -0.4370867823604557 -0.5032652062372167 0.3164091912886124 -0.8854525783613653 -0.42560611001398035 -0.7548165820520649 0.21291414722208907 0.8564909449484246 -0.11984755146557903 0.8371804258445058 0.28609210280717223 0.25430584571725523 -0.5792267964963259 -0.06449476085147565 0.54 -0.71 -0.26 0.26 -1.0 0.49 -0.94 0.79 0.7543067941734134 -0.5113088656766697 -0.66 -0.67 0.6465505722729273 0.3357912946075629 0.12947658505493562 -0.6315234185278865 0.017002790295840675 -1.0026019323319715 0.7778920507726441 -0.6716901329257818 0.47844616400534506 -0.942038226162904 0.34641454326058196 -1.0094873515065637 0.07842701047635733 -0.06635609624454972 -0.18327390463520343 -0.26729817639765036 0.69 0.72 -0.88 -0.19 0.55 0.63 0.9 -0.69 -0.4509249021637083 -0.8223869766086067 -0.86 0.8643659347124478 -0.47736545996811036 0.04062257506716568 0.6405031560700428 -0.7865076507948717 -0.27258384003566066 0.2779339954205611 0.24715796467479387 0.39833081254431424 0.4484296153031111 -0.33146966975687997 0.9832386309855775 -0.8786272639100294 -0.8737580021221981 -0.017913766711513932 0.8047824970550214 0.18 -0.33 0.71 0.24 0.86 0.24 -0.35 -0.37 0.94 -0.3592339561588557 -0.1923869766086068 0.88 -0.6020696566362436 -0.15518082240763095 -0.209257287536364 -0.7094077997915132 -0.6389857246799131 0.2569018343595812 0.7383305664734632 0.24329203651504008 -0.08333352773411827 0.3791998926001906 0.9698007333893367 -0.8290654794818418 0.706491711475055 -0.8509799523545885 -0.8124663834272489 -0.32006209233421495 -0.7 0.93 -0.36 0.94 0.49 -0.22 -0.22 -0.27 0.14 0.4512275533306092 -0.9323869766086067 0.87 -0.49 -0.2191984739388606 -0.20788724316416174 -1.0020784435557422 0.9615484503625277 0.24382081855880935 0.022755432630411923 -0.1938884036111226 0.41727682289927504 -0.6071941394506349 -0.8299717472045373 -0.3789444056805207 0.6623096603262919 0.43903842002036136 -0.08096859214377938 0.43998870360838027 -0.9 0.2 0.7 0.56 0.87 0.65 -0.36 0.23 -0.2093852817423062 -0.9234650875405439 -0.20238697660860677 0.52 0.82 -0.5 -0.8713873114796012 0.9906098676608363 0.40305174907834207 -0.6283988673286565 -0.5593993038127479 0.6855679357091499 0.6669595943978324 -0.23268708456047352 -0.4628580414295515 -0.3553749532298987 -0.36439920119819064 0.7690322135818145 -0.04665790278995857 0.29012129580563095 -0.15 0.26 -0.89 0.08 0.81 -0.74 0.4 -0.19 -0.12230943063210314 -0.7713882948379516 0.5476130233913933 -0.18 0.97 -0.32990789127535136 0.34041536155816393 -0.5493114039440746 0.6047090966930719 -0.22582552789314775 0.3319454794195711 -0.6734974159622742 -0.413230356529273 0.6968773034637895 -0.6630555334860877 0.3483334060239804 -0.21677716363269287 0.028992763428612064 -0.3227158509097201 -0.9595997238414178 0.13 0.19 0.61 0.69 -0.86 -0.5 -0.89 0.41 0.5566900044124634 0.05861170516204835 0.6276905693678968 0.48 0.36001690878368614 0.3204316672334204 -0.5593888115157172 0.8517339008851937 -0.2748763642024278 -0.09455530985247852 -0.18221972122053814 0.6185483859836138 -0.8335740373491393 -0.8233793032956449 0.5369766121742389 -0.20150687043785967 -0.19148808072921908 0.19016272151352065 -0.7257111171559829 0.41047305364196074 0.95 0.45 0.19 -0.63 0.54 -0.77 0.06 0.61 -0.5033099955875366 -0.8213882948379516 -0.46453943210292425 0.22999999077725689 0.32013814348864383 -0.8793888143978243 -0.2394087004941208 0.8723964140311553 0.8268521881082047 -0.41705096904179034 -0.081196512197342 0.10053705034684512 -0.7487320836998193 0.7941924386793606 0.9180303993205396 0.3212977143025451 -0.021366668594207397 0.7015690104307698 -0.96938866913962 -0.10952694635803924 -0.62 0.3 0.28 0.56 0.36 0.38 -0.25 -0.42 -0.8333099955875367 -0.8213882948379516 0.4996141533022603 0.8399999873187282 0.8504830048648122 0.500608641443109 -0.36887359237577133 -0.5689141479099121 -0.2903186518695956 -0.049974782814991715 -0.5981123857618924 -0.5054935394233856 -0.07649091822371751 -0.6681903390590354 -0.12527591147320333 -0.16246685385132303 -0.9318293007429065 -0.11015120160198312 0.7006137567764926 -0.11952452044192662 0.2 -0.18 -0.25 0.71 -0.79 0.85 0.52 -0.98 -0.22538678829012893 0.9083809504173158 0.6546888745015963 0.587950592561438 0.9384277052224878 0.708485307346124 0.2785018506887563 0.7785145412706848 -0.5324193057506442 0.5773565217834841 0.37768580756214437 0.9797311328221798 0.8017005112921933 -0.21608796164788174 -0.1108502250871364 -0.4289177363685005 -0.875466677214436 -0.3193827283233056 0.65061133086038 -0.8296409644153323 0.98 -0.94 0.86 -0.48 0.08 0.56 -0.8 -0.28 0.07 0.8374598146231644 -0.6291564101823521 0.2711111001238382 0.00163527935310807 0.4616211655124729 -0.23883552736839495 -0.5773912236229911 0.1429448271531664 0.9900958956680382 -0.9503058024560169 0.6596767146707644 -0.28201895201879634 0.3527636208545072 0.06166367350997099 0.39563355447743426 0.42052177406539787 -0.1493352771705821 0.9304553211138493 0.8300291109933514 0.41 0.84 -0.9 -0.22 -0.18 -0.01 -0.65 -0.57 -1.0 -0.66 0.26 0.24034302175718167 -0.5791538489024083 -0.29924233594682054 -0.43985237419152695 -0.08989471029211359 0.4800086488402331 -0.4899712258447856 -0.7602523573788315 0.009857835792451045 0.5100883581976187 0.7370930754843017 0.797351118884168 -0.16429913418260897 0.20441463022466902 -0.6866653222172762 -0.08971996968315069 -0.1399613360977809 0.4100287050183142 0.7600287050183142 -0.84 -0.32 0.78 -0.73 0.16 0.81 -0.92 0.28 -0.7499982425498991 -0.879635906226262 -0.869220607518941 -0.22950706033890036 -0.2699379034297693 -0.8399908079446531 -0.4500008225383252 -0.15992608389607998 0.7200415819183337 -0.8454020562240174 0.16870642201139047 -0.34420265595957583 0.6068962459772534 0.8230251643935763 0.8396944124257301 -0.8401344737263242 -0.37985881817523015 -0.49985237419152695 0.730147625808473 -0.049869362875835356 -0.99 0.24 0.54 -0.86 -0.88 0.44 0.85 -0.81 0.7700615107535305 -0.4391144245953351 0.9956407006040002 0.5231283890391831 0.31001054470060524 -0.6199580644732943 -0.16989066345158318 -0.8042378461980809 -0.2868568639143176 0.8641745775711092 -0.7126048000342938 -0.18213441494819538 0.8070801299016245 0.9508144470727564 -0.15789292675827984 -0.92 0.7900521376863259 0.03010544700605218 -0.6998945529939478 0.6500216752179108 0.91 0.33 0.48 0.27 -0.49 0.78 0.71 -0.69 -0.35996311632634787 -0.11530296998415059 -0.12246776287991028 0.72675833447561 0.9522620700929415 -0.9414780960557647 -0.14280541041483164 0.07656226247733579 -0.8659348817468857 0.2767927335286484 0.6578851816034791 -0.22215727448528944 -0.6805704517233627 0.9497908423358485 -0.5684139490601878 -0.61 -0.16 -0.37 -0.35 -0.36 0.02 0.52 0.9 -0.12 -0.12 0.32 -0.79 -0.31 0.32978559984883066 0.2715593275647257 0.5659241688520013 -0.9449389348443004 -0.06986272544155153 -0.017747381883089684 -0.40347090683607667 -0.6716812184861158 0.46847077301813433 -0.3820002438279748 -0.38597667128949675 0.03623703814388662 -0.011608370656196156 0.9484246822849944 0.10215245549431748 0.22 -0.68 0.95 -0.29 -0.77 0.52 0.98 0.99 0.44 -0.79 0.69 -0.35 -0.97 -0.020328048591025574 -0.2623539201302739 -0.6755421657516044 -0.7019357025833631 -0.9416888105573465 -0.4215427291460951 0.848475397408183 -0.06158871249440585 -0.555078686542559 0.42778657202164805 0.3048308494455056 -0.6606471019346325 -0.461399050496511 1.0285586252141996 -0.6246945240559315 0.25 -0.98 0.67 -0.61 -0.82 -0.54 0.19 0.8 -0.33 0.42 0.47 0.45 -0.7163239508329666 -0.2698557937098885 -0.22623905080360968 -0.5994361960271417 -0.4989885507336062 0.8344228533612889 -0.23548875592878818 0.23699297941640726 -0.48805876160451905 0.8656749695581248 -0.15357346195976898 0.20096718046296144 0.5296090080179043 -0.0013861403346598924 -0.7712106200410677 0.4953054759440685 0.55 -0.57 0.29 -0.98 -0.94 -0.28 -0.16 -0.39 -0.68 -0.78 0.71 -0.05 0.14436259430393694 0.7709098261683534 0.2908985297767336 0.49074360783452003 -0.7547552705914405 0.844070272660154 -0.7154558795713347 -0.6120066340715318 -0.6300387304855534 0.4 0.7899630515360031 -0.9900460420656774 0.8999930833959081 -0.9678475687153832 0.9286117051620484 0.5353054759440685 -0.65 0.4 0.52 -0.3 0.22 0.73 0.1 -0.35 -0.36 -0.67 0.07 0.44 0.39 -0.95 -0.81 -0.03 0.46 0.08 0.68 0.03 -0.26 0.87 0.6499999919300998 -0.8400001060615461 -0.020000145258204375 -0.6500000979916458 0.9699999936593641 -0.31 -0.21 0.35 0.25 -0.71 -0.98 0.54 -0.01 0.39 -0.68 -0.78 0.18 -0.85 -0.48 0.85 -0.66 -0.55 -0.4 0.14 -0.16 0.57 0.59 0.98 0.07 0.5799999919300998 -1.0000000847339525 0.7399998547417956 0.32999997579029927 -0.74 -0.1 -0.76 -0.22 -0.73 -0.6 -0.72 0.29 -0.74 -0.65 0.83 0.82 0.24 0.25 -0.62 0.99 -0.45 0.85 0.06 -0.51 0.82 -0.16 0.58 0.33 0.66 -0.77 0.39 -0.05 -0.03 -0.06 -0.57 0.6 -0.59 0.59 0.12 0.81 -0.95 //-0.53 -0.41 -0.62 -0.22 0.6 -0.08 -0.89 0.76 -0.31 -0.54 0.19 0.9 0.41 0.79 0.47 -0.12 -0.08 0.52 -0.95 -0.93 0.48 -0.45 -0.19 -0.66 0.15 0.78 -0.51 -0.19 -0.31 -0.72 -0.15 0.78 0.1 -0.99 -0.48 -0.36 0.62 0.13 0.37 -0.78 0.16 0.98 -0.97 0.44 0.85 -0.63 -0.69 0.16 0.97 0.17 0.01 0.9 0.14 -0.29 -0.2 0.79 0.76 -0.04 -0.46 -0.06 0.49 0.66 -0.6 -0.14 -0.71 -0.21 0.37 -0.34 -0.67 -0.73 -0.28 0.55 0.72 0.52 -0.08 -0.47 -0.23 0.11 0.39 -0.27 0.29 -0.41 0.58 0.87 -0.27 -0.48 -0.08 -0.85 -0.4 -0.14 -0.67 -0.87 0.2 0.4 0.33 0.04 0.04 0.99 0.67 0.23 -0.53 0.41 -0.37 -0.25 -0.26 -0.82 -0.77 0.15 -0.91 -0.19 -0.32 -0.55 -0.3 0.89 0.79 -0.8 0.32 -0.88 -0.09 -0.8 0.38 -0.36 -0.05 -0.039733958152552144 0.7006945097995321 0.18129411488160738 -0.9690255397054571 -0.6620884105431304 0.571941522713662 0.20602605734712942 -0.27880592819107236 0.43723084019148667 0.99 -0.94 0.0304991877132458 -0.5294981710819222 -0.92 -0.9 -0.27 0.21 0.96 -0.38 -0.19 -0.15 0.7 0.65 0.58 -0.36 0.49 -0.33 0.48065243595921736 0.34166632798037944 0.2516993635712564 -0.11789778828258585 -0.5295442995889558 0.8393334348544503 0.6684427764530626 0.5771655578308891 -0.3733210498615933 -1.0021978549458843 0.21034465253502552 -0.6403235817535697 0.5002862219100475 -0.059747959300325226 -0.98 -0.19 -0.18 0.47 -0.57 0.07 0.11 0.66 0.1798880663689921 -0.6001462358727684 0.63 -0.52 -0.160035920544792 0.9801210916914885 -0.14946775887344402 -0.11786349545793719 -0.9377300555642949 0.08998409867374932 0.6102113672044274 -0.08189734600114687 0.28806173716020905 -0.5313196490121029 -0.2920180198226656 0.18665489410948177 -0.9423549956525834 0.4303086649408809 0.390388737438721 0.5001505131199947 -0.47 -0.06 0.24 -0.47 0.6 -0.45 0.87 -0.39 -0.2902274780243064 0.049705722873317953 0.03 0.8599413297768397 0.17971503034465017 -0.9696232334288502 0.7006593370257469 -0.7592753999128659 -0.4511999005932788 0.5405104568007036 -0.24117088584881344 0.12839436628627432 0.828347276679369 0.13098906347476674 0.8969305020551136 0.7168245316631812 -0.1829006641016123 -0.635575092999627 -0.8293997139907129 0.77 -0.99 0.35 -0.82 -0.81 -0.06 -0.67 -0.94 0.85 -0.27039718385196354 0.659705722873318 -0.81 -0.8200215523268751 -0.7602622199769816 0.6300984104901507 -0.7094914289844017 -0.7585223862527982 0.5880758893243772 -0.9709118477214208 0.8684426915408868 -0.7020073503348306 0.3480438483470903 -0.5116945041642066 -0.674132407083914 -0.9793110630708477 0.7172267223240706 0.9119939413587874 -0.2396505707131502 -0.19 0.44 0.33 0.27 0.34 -0.65 0.06 -0.16 0.87 -0.24040079461425407 -0.10029427712668205 -0.8 0.39 0.9399042118805546 -0.19026265802733025 -0.8430338027685811 -0.8933862810293063 -0.053129062437552346 -0.6716014166944131 -0.32817796803896393 0.19541290752179527 -0.13245365116187616 -0.7610007005851638 -0.9714735716747375 0.8468243397262069 0.5971131650361323 -0.23865932662741943 0.350026729637597 -0.37 -0.77 0.14 0.11 -0.32 -0.47 -0.14 0.26 0.8299169524673167 -0.4804423183805957 0.07970572287331795 -0.93 -0.84 -0.4 -0.982756878156153 -0.4031756042228942 -0.724134163747717 0.7662726713736734 -0.4486158600844591 -0.45845124626481504 0.7077167528346666 0.5149618057893944 -0.0890492287158839 0.012144605986398702 0.4612232581597774 0.6471218591012493 0.25722571604710337 0.34723084019148664 -0.28 -0.61 0.72 -0.73 0.36 -0.33 0.58 -0.02 0.6697833542625654 0.1595414331890967 0.6297057228733179 0.06 0.46 -0.19197007441112413 -0.07890624945780271 -0.5738821614898865 -0.03263349704699872 -0.830538439182144 -0.2627617926573805 -0.9776047161278288 -0.24801493026360835 -0.6078754798876846 -0.11748281211783913 -0.1479219495447807 0.8810413418096322 0.12695255596467092 0.12605774381123347 -0.11913822736809396 -0.53 0.68 0.94 -0.6 0.55 -0.41 0.04 0.99 -0.6502870556021009 0.5595414331890968 -0.12021664573743464 0.34 -0.7502593083772707 0.7503995579147724 -0.22370491164925213 0.647217317105104 -0.1919679021463103 0.22095618250786828 0.4704113493749022 0.48261996835696425 0.9428737004090679 -0.24723777002514244 0.6330773082394884 0.331430416999224 -0.3591493417401013 0.9063175541527679 0.1860489151436787 -0.690799723253202 0.38 0.67 -0.14 0.87 0.87 0.35 -0.97 -0.34 -0.6302870556021009 -0.8304585668109032 0.8898790394632656 -0.06998369854020049 0.07707952898538778 0.14630018255693522 -0.4535362025306581 -0.7719203218376394 0.562967137347589 -0.07731832097344712 0.2824753131650983 0.27312995401136303 -0.3871337764539751 -0.16730974732188023 -0.7071218873003009 -0.6981872780128133 1.0541252508012905e-05 0.9459277045901524 0.906043434565093 0.14920027674679806 0.0 -0.09 0.93 -0.98 0.46 0.38 -0.3 0.57 -0.4002870556021009 -0.43045856681090333 -0.00015345739734953426 0.5600224145072243 -0.6606985600305425 -0.023329811590811877 -0.4890611587627708 -0.4984401937997022 -0.4978134837897063 0.9228119276778918 0.7430105991261035 -0.0073825633161095075 0.6323377682347008 0.45234202643204113 0.892593344571817 0.0014851790630238046 -0.23048967190621275 -0.9041949302692295 -0.2540119486310774 -0.4008551064493722 0.93 0.06 -0.74 -0.14 0.72 0.58 0.06 0.15 0.7497291928282067 -0.360456761429758 0.05957212466856659 -0.5345665353462156 0.10648036301543815 -0.24324107374615475 0.20506163932449237 0.4712073343430044 0.3810946693033887 -0.4183235441802828 -0.03766755102629694 0.18255590866857715 0.25247820994476583 -0.19725560622519353 -0.7473767874747642 0.9012198746610719 0.26968284652541347 0.9759821000790484 0.8060434345650929 -0.7581967130331995 -0.79 0.74 0.59 -0.85 0.13 -0.76 -0.2 0.55 -0.14 0.36978515964371067 0.559680447537284 -0.6047973393168058 -0.4535630905066076 -0.4822432490659366 -0.38096782728306555 -0.949564436746572 0.04024082537892802 0.9906514246609958 -0.6588651194448321 0.39175058048992173 0.6615672736916993 0.5017447436817389 -0.567501706517381 -0.19845009463165744 0.242223602605579 -0.20409824233425458 -0.7103082176591896 -0.3206645983540432 -0.04 -0.43 -0.4 0.72 0.44 0.41 -0.1 -0.87 -0.08 -0.36 0.54 -0.2242107021646234 0.5664932368107908 -0.8623415688471546 0.059750045825279895 0.05982145208011772 0.15998408742642997 -0.11988911762907858 -0.5992606502662127 0.9714636348101965 0.18142955006145192 0.4822073314277775 -0.22789744939052833 -0.305442602269344 -0.18429206566207637 0.5872121961914136 0.25588528684909956 -0.15006546418861716 -0.38004860220064 -0.85004860220064 0.72 0.06 -0.28 -0.68 -0.36 0.17 0.65 -0.07 0.5799970243550628 -0.2945492938419392 0.9658700753305005 -0.03826960692130587 -0.5701051394544457 -0.9100169069532886 -0.7600000482320222 -0.9498888632596617 -0.14929057026986178 0.041357947503912626 -0.22829843469706898 -0.7408399317959781 0.46288327459700007 0.7870020775498766 0.7102791035543033 0.5598359285887624 -0.6402390434766172 -0.2902499541747201 -0.1102499541747201 -0.22022118960699438 -0.28 0.0 -0.81 -0.84 0.9 -0.1 -0.8 0.03 -0.8601041475728001 -0.28487346418275783 -0.27284441865798487 0.3480559516268802 0.4799821461303771 -0.28007245597647823 -0.9901290500393137 -0.5298978657466719 -0.32979875158206146 0.6912014019715316 0.2962454548900785 0.5094693843634922 -0.6521013772689268 0.7014476516995783 -0.020038254242422476 -0.75 -1.0000882774664686 -0.45017853869622865 0.9098214613037714 -0.9600366996208914 0.22 -0.15 0.19 0.29 -0.95 0.56 -0.31 0.36 0.9200038050388997 -0.033219906681026604 -0.6716283897405251 -0.3525211336279781 -0.26790116085851406 -0.8127090971581453 0.43832697223446215 -0.49423355471308233 0.3010308066142071 -1.0103873418587124 -0.14083988226973596 -1.0001269800348147 0.4119548646349143 -0.3926894285673139 -0.5599215020499706 0.14 0.3 -0.7 -0.89 0.35 0.72 0.39 0.37 0.41 0.72 0.53 0.19 0.08 -0.7294110674120657 0.43636579789726493 -0.14199638970501 -0.35206382578399464 -0.032164987242434835 0.1288853888371523 0.24991014440943432 -1.001594032499418 0.44856932740238986 -0.34101913697925657 -0.9375767883910222 0.5649506142270514 0.7103876821048339 -0.9801544085668584 0.9498266834100523 -0.95 0.81 -0.7 -0.29 0.64 0.31 -0.78 -0.06 0.25 0.13 0.16 -0.37 -0.72 0.25078135762720294 0.3592977401407987 -0.5695187691068824 0.9472885561828874 -0.8217111701749444 0.038826090885917125 -0.7710227673224888 0.05873428410804736 -0.5305207336955517 0.49515328583091434 -0.5166402162973576 -0.18921789671090491 -0.03036693435710146 0.6295286543016341 0.09972377668477084 -0.07 0.29 0.39 -0.08 -0.66 0.6 0.33 0.22 -0.83 -0.63 0.67 0.01 -0.01006585433211866 -0.9600188369936282 -0.3096710938513284 -0.7607252428785097 0.10361461592565599 0.6774438399338509 -0.5522893166571355 -0.2415757465024527 0.5346858388972346 0.04033700418830632 -0.1969647428211409 0.4114769799137065 -0.5799039859997686 0.4796025174856448 0.31952684892048877 0.5297237766847709 0.31 -0.91 0.1 -0.23 -0.05 -0.09 -0.94 -0.13 -0.8 -0.7 0.39 0.7 -0.8701628398030571 0.4496970700722542 0.13972379970985122 -0.33990962240310396 -0.9793564910090283 0.6708005874151548 -0.7195013136324704 0.4303741076256737 0.8500916444717612 0.19 0.5606478696575865 0.7209410499433125 0.9302940603263965 -0.17013052525797398 -0.3504585668109033 -0.45027622331522915 0.86 0.13 -0.35 0.27 -0.21 0.27 -0.25 0.85 -0.75 0.69 0.19 0.42 0.97 0.65 -0.73 0.29 -0.88 0.66 0.04 0.77 -0.79 0.68 -0.9499857362226753 -0.09981253321230558 -0.10974325200815764 -0.3798267969896302 -0.22998879274638784 -0.68 0.12 -0.93 0.32 -0.71 -0.83 0.83 0.15 0.34 0.23 0.33 -0.68 0.37 0.74 -0.68 -0.96 -0.01 0.53 0.11 -0.43 0.98 -0.8 -0.43 0.29 -0.6899857362226753 0.23014976966190806 -0.22974325200815765 -0.13995720866802627 0.56 -1.0 0.7 -0.85 0.87 0.28 0.96 -0.13 -0.27 -0.63 0.94 -0.15 -0.45 -0.63 0.59 0.37 -0.76 0.3 -0.36 0.06 -0.46 -0.64 -0.35 -0.76 -0.81 -0.69 -0.01 0.67 -0.4 -0.93 -0.01 -0.9 -0.65 -0.07 0.11 -0.11 0.62 //0.91 -0.01 0.97 0.01 0.39 0.47 -0.88 -0.56 0.38 0.55 -0.4 0.62 -0.22 -0.23 0.48 -0.91 -0.16 0.94 -0.52 -0.94 0.45 0.57 -0.85 -0.74 0.97 -0.41 -0.04 0.53 0.06 0.4 -0.3 -0.21 0.26 -0.03 0.32 0.95 0.85 0.64 -0.4 0.29 -0.8 0.01 0.48 -0.15 0.89 -0.37 0.77 0.47 -0.38 -0.77 -0.06 0.42 0.92 -0.46 -0.69 -1.0 -0.1 -0.97 -0.37 -0.06 0.21 0.77 -0.21 -0.56 0.71 0.12 0.5 -0.43 0.03 0.96 0.79 0.69 0.62 -0.59 -0.26 -0.02 0.27 0.9 0.44 -0.59 -0.85 0.98 -0.72 0.02 0.14 0.85 0.08 0.67 -0.51 0.03 -0.97 -0.41 -0.25 0.08 -0.82 -0.1 -0.07 -0.67 0.57 0.58 0.64 -0.09 -0.3 -0.04 -0.63 -0.05 0.64 -0.99 0.17 -0.67 0.47 -0.83 -0.55 -0.67 0.58 -0.23 -0.21 -0.04 0.61 0.89 -0.29 -0.55 0.79 -0.27141570253711655 0.20601053134078046 0.8825969861962988 0.4343871150152264 -0.4738092284825411 0.566555016111945 0.43064501415516576 -0.8594675339028227 0.9601674421689237 -0.15 -0.27 0.9298375888937715 -1.000163270424251 -0.59 0.9 -1.0 -0.71 0.77 -0.81 0.48 -0.72 0.39 0.23 -0.25 -0.15 0.53 -0.39 -0.503471841936262 -0.8681755903984837 0.23131533200153476 -0.7291695218934446 0.7908065208188796 0.7819612878648884 -0.38060239809270047 -0.8326738278834847 -0.040748834338145565 0.7905823421791498 -0.37980106246986645 0.5180769279846805 -0.5343594390502486 0.01644153756705455 0.04 -0.25 0.38 -0.48 0.36 0.9 0.97 0.3 0.7040028106431271 0.4752294784208596 0.73 0.28 -0.09080952443516277 -0.13098930239826828 -0.5432010153131457 -0.7420696479428016 0.1667243482424404 0.4952534632066597 -0.8212168975978877 0.17048852189406147 0.6216050420722092 0.4622608267759466 0.10890577347740388 0.2701398726578355 0.07131133662093389 -0.41506359608905335 0.7970422140864318 0.3681991131883954 0.5 -1.0 0.46 -0.78 0.61 -0.8 -0.81 0.64 0.8981347442102261 0.40052351830370525 -0.9 -0.8913222232440992 0.1335777728143754 0.023099024374910595 -0.6469317339420522 0.35058898267158917 -0.4712187023937005 -0.41895563181364687 0.2723411656595909 0.9415573148136298 0.9508839453482243 -0.6793260368512216 -0.5204218343011446 -0.6851832586304241 0.8196514976112917 0.062237397134723156 -0.47865513927944225 -0.42 -0.18 0.95 0.85 -0.36 -0.16 0.66 -0.48 -0.83 -0.8357964783630972 -0.6894764816962947 0.68 -0.08048571466109766 -0.6459095283766882 0.5734999959219823 -0.06315918012839568 -0.3604643473732592 0.4630870598099177 -0.30878315469354095 -0.7156737533513611 -0.9873886356808406 0.01642335939035968 0.7769861548467603 0.4657174922739724 0.44877488791240994 0.6784617930449707 0.8307403308375084 0.8799350885299646 -0.62 0.56 0.98 -0.72 0.9 0.63 -0.97 0.22 0.71 0.41433264456087465 -0.4394764816962948 -0.44 -0.29 -0.5421587318271007 0.4081710624120973 0.4935200382828029 -0.9498146921054507 -0.702814869838063 0.12413622050194731 -0.5831476053503523 -0.2474229713464083 0.1315015099259309 0.5693583793179948 0.6953282555018045 0.6181774017125337 -0.4315941291651475 0.5384916913717198 -0.6100029095705235 0.35 -0.8 0.99 0.92 0.66 -0.86 -0.88 -0.78 0.6529698272513524 0.6758175581865509 0.7605235183037052 0.67 0.31 0.48 -0.74573463973373 0.17699848845789828 0.30291679764586676 0.809252623106315 0.6710356947152355 -0.09657143916334181 -0.8881716938794031 0.04224679684626137 -0.6962199090049912 0.5806372738887307 -0.2612982911564104 -0.9515892880694582 0.8442928774859917 0.5501674421689238 -0.77 -0.37 0.27 0.12 0.36 0.72 0.54 0.52 -0.3622526245616894 -0.7536013886555759 0.9805235183037052 -0.46 0.65 0.5801136112133821 0.15117171181463077 -0.296001904433674 -0.9216586516046977 0.5711164867354586 0.5401149060361358 -0.4388195713124798 -0.16829149903167961 -0.20821103859120588 -0.35580206898835204 0.5737999071287129 0.8108387359233712 -0.20153899549100082 0.962706075197808 0.39055255915744813 0.25 -0.26 0.34 -0.34 -0.7 -1.0 0.86 0.15 -0.3197347275442385 -0.8736013886555759 -0.8322526245616894 0.38 -0.1699895827115779 -0.32943005847904827 0.8708183761507314 -0.09058767905573559 -0.9474726913558458 0.03629758756713074 0.08452057024444239 0.19959945268800122 -0.3283877631977008 -0.5282802285062463 0.7552826543479073 0.15529734309922313 0.27235415804463636 0.9261969059446742 0.14187315104676274 -0.8093469755411977 -0.52 -0.57 -0.6 0.44 0.7 -0.33 -0.28 -0.77 -0.9097347275442385 0.2063986113444241 -0.5356743820469433 -0.11000165391939393 -0.579833097758639 -0.23918214069907906 -0.7492262547867866 -0.26275945359498604 0.031377551636123754 -0.41970917829664683 0.9275711138195056 -0.12159047334373695 -0.5888079251632596 0.3771467681558381 -0.27239433164079335 -0.5429721226010404 -0.8589173250119281 -0.6032148295676677 0.9408439085313752 -0.09934697554119766 -0.72 -0.7 -0.02 0.94 0.95 -0.02 0.5 -0.26 -0.6497347275442384 0.1363986113444241 0.46548772426880336 -0.6000022741391666 0.8706335844863938 0.8107200092322147 -0.7166421145541639 0.22308556119343803 -0.5952376858445637 -0.4447160779859046 -0.9348019025537087 -0.7631711485329332 -0.6533707376708249 0.8857240488467945 0.7857355414870155 0.7545702647883763 -0.4028618314250873 -0.09656358645905237 0.04084725737475381 -0.9993436266978192 0.59 0.53 0.17 -0.76 0.28 -0.46 0.82 -0.19 0.9996842192978882 0.9563340498824382 0.6553010664906634 0.15361708080845587 -0.015914897617117903 0.18407092657335483 -0.98228602162388 -0.048315994249968595 0.7021305159806487 -0.8408608320071722 0.6153350571287927 -0.5308952460178892 0.6034261298513685 0.5927909612263901 0.2908850227346635 -0.3091406044636939 -0.8117150911529326 0.6609961739726613 -0.28915609146862464 -0.8695043711799859 0.84 -0.39 0.05 -0.08 -0.23 -0.02 -0.51 0.83 -0.71 0.9576828139763246 -0.2985726212284919 0.7016372697907319 0.02219882972925871 0.9938969850287299 -0.31247194333638983 -0.3275478918771267 0.3868924183337361 0.011697650050271792 -0.499943358034325 0.5503573587151881 -0.17574001529038022 -0.29087440992941355 -0.2628423020123789 -0.47183212628790755 -0.8452416807896874 -0.9669934519555875 0.9007966208992882 -0.9599598138794583 0.08 0.32 -0.88 0.23 -0.79 0.76 0.57 0.07 0.48 -0.16 -0.4 -0.6697545215721578 0.3440046227013495 0.7469170760193218 -0.23374550288788526 -0.6854524998550638 -0.03923454557424238 -0.8996177464791159 -0.11933209048173653 -0.8551708571740577 -0.13444493974179147 0.757285507517711 -0.29146942055836855 0.32684678677301887 0.4382497131153366 0.035281001410590714 0.7748045435490348 0.25163808257698245 -0.7887838477837555 0.9112161522162445 0.4 0.21 -0.13 -0.06 -0.59 -0.52 -0.49 -0.17 -0.22992554170104626 0.13356471027259004 0.34707348542084127 0.656467065639163 0.8626308598963657 -0.1591880588766693 0.5804183448778238 0.9316804971086197 0.47499331293924163 -0.07546244304417643 0.9068558541639189 0.4481446621774619 -0.2240779444817321 -0.8532638080354846 -0.27957012450702245 -0.2560084007191906 -0.8340185166507157 -0.6637455028878853 0.44625449711211473 -0.11446526644443815 0.92 0.33 -0.68 -0.33 0.14 0.87 0.49 0.49 -0.8473939595366189 -0.9841000174840252 -0.6491437887907204 0.44990021069259123 0.13044674979372248 0.5322334969110197 0.04462475871486729 0.3952947256930392 0.6321827384717741 0.42567529379835783 -0.17413493886839526 -0.28485229674061247 0.15625284509251322 0.818944297562202 0.6987381301095806 -0.68 0.5722089295356277 0.8044674979372248 -0.1555325020627752 0.2909183190204295 0.86 0.66 -0.56 0.95 0.05 -0.67 0.77 0.83 -0.9342920658094092 0.8409351029773345 0.5082582954445232 0.5686627431261472 0.4939913821652959 -0.5550208255429107 0.23359312153891001 -0.050938285078072194 0.1936851179269208 0.47681917796798845 0.5650920741971525 0.5552229775642178 0.14123514812286234 -0.08582761784363321 0.046041759986101244 0.09 0.09 0.8 -0.96 0.62 0.18 0.23 -0.21 -0.11 0.89 0.57 0.22 0.45 0.5250511668179673 0.49451309367435203 -0.269646657938498 -0.3120649581593123 -0.5429198647493464 0.21229346354208467 -0.6091291591869066 0.7567489361848238 0.13536171414611167 -0.5948221023753726 0.4464146185651145 0.37094036902062527 0.07038702627890639 -0.7436387889081643 0.24619790035064848 -0.42 0.56 0.64 0.49 0.96 -0.93 -0.05 -0.82 -1.0 -0.2 0.18 -0.04 -0.45 0.8602361968189584 -0.7581884843177804 -0.9852224435272176 -0.9055997997255342 -0.7136602632034362 0.005737157375648361 -0.3744993263961998 -0.9547869459234852 0.13684734586225608 0.5394960767348065 -0.058572479241355044 0.7698384227442638 -0.7591134086617574 -0.1436042897148142 -0.790122096316154 0.26 0.79 -0.68 -0.52 0.41 0.8 -0.34 -0.92 -0.2 0.29 0.62 -0.15 -0.8914841281311318 -0.6546616404219311 -0.8161636749218725 0.5831519871424097 0.11336763719782146 0.44038677668517956 -0.10971137784485023 -0.8612565279750944 0.5481610048605179 0.17117941179263915 0.7616480363555821 0.34802671139039937 0.07993677538173674 0.9908899165616981 0.7864602717471718 0.03987790368384602 -0.68 0.12 -0.5 -0.47 -0.4 -0.84 0.83 -0.76 -0.5 -0.55 -0.05 -0.39 0.2263301558939288 -0.126826989403206 0.3831701010262705 0.8431301983448052 -0.6657783166769645 0.2865740710464274 -0.3332117215158628 0.8798921181679348 0.3299900243296337 -0.64 0.11983657373338827 -0.9602170139614179 0.319952138164911 -0.04380644118776058 -0.08360138865557588 -0.500122096316154 -0.99 0.29 0.84 0.81 0.34 -0.52 -0.66 0.52 -0.77 -0.53 -0.84 0.8 -0.6 0.85 0.32 -0.95 -0.63 -0.14 -0.88 0.22 0.35 0.3 0.4199985528205303 0.5699809799269697 -0.7800260492304545 -1.0000175728935605 0.3399988629304167 -0.58 0.44 -0.65 0.01 0.38 0.79 -0.04 0.55 -0.78 -0.09 -0.47 0.66 -0.48 0.79 -0.39 0.29 0.41 0.2 -0.98 0.02 -0.19 0.0 -0.99 0.92 -0.08000144717946969 0.9699848046155682 -0.3700260492304544 0.20999565846159093 -0.23 -0.84 -0.09 -0.81 -0.58 0.39 -0.73 0.08 -0.96 0.3 -0.41 -0.86 -0.05 -0.53 0.15 0.48 0.38 -0.47 0.59 -0.51 -0.82 -0.06 -0.73 0.37 -0.11 0.93 0.99 -0.62 -0.44 0.72 0.76 0.12 0.63 0.34 -0.87 -0.65 0.28 //-0.13 -0.33 0.01 0.13 -0.94 -0.61 -0.68 -0.47 -0.49 0.57 -0.02 -0.29 0.89 0.79 0.69 0.03 -0.93 -1.0 -0.1 -0.78 0.27 -0.28 0.93 -0.48 0.24 0.17 0.33 -0.91 0.58 0.09 0.84 -0.79 0.1 -0.16 -0.95 0.37 -0.63 -0.77 -0.47 0.79 -0.85 0.65 -0.4 -0.27 0.51 0.97 -0.42 0.26 0.46 0.39 -0.3 0.32 -0.81 0.08 0.14 0.4 0.35 -0.43 0.14 0.32 -0.91 -0.27 -0.91 -0.4 -0.89 -0.34 -0.64 -0.73 0.79 0.69 0.43 0.33 -0.9 0.43 0.2 -0.98 -0.89 -0.67 -0.07 0.13 -0.05 -0.88 0.14 -0.22 -0.19 0.16 0.43 -0.62 0.44 -0.14 0.8 0.79 -0.2 0.73 0.71 0.65 0.47 0.26 0.24 -0.12 -0.55 0.63 -0.96 -0.92 0.04 0.54 0.44 0.74 -0.65 0.33 0.91 0.61 -0.04 -0.54 0.62 0.82 0.26 -0.3 0.65 -0.52 0.76 -0.1 -0.32 -0.35090222279648114 0.4874558048826704 0.475279059004476 -0.2835795758053019 0.5504667345643629 0.7668292113868579 0.7147711049738031 0.22936402781506693 -0.3870553371650733 0.81 -0.24 0.37987245042829154 -0.06012822443716723 0.06 0.65 0.51 -0.32 -0.21 -0.27 0.38 -0.23 0.8 -0.55 0.78 0.48 0.03 -0.06 0.9577874059991056 0.8647325420940047 0.2044504779644264 0.6143201156335824 -0.2731537899285631 -0.25189453343632145 -0.2810960351698123 0.9929400038198148 0.27433249373069957 0.6534759427466863 -0.43396382850355664 -0.9325868698494599 0.13767868803867953 0.5798606955903908 0.25 -0.96 0.45 0.84 -0.98 0.46 -0.81 -0.55 0.2366861680223682 0.17567063886793263 -0.31 -0.11 -0.6000085157467125 0.0699141166077271 -0.6606579394689331 -0.185422291765131 -0.42591906084908937 -0.2828774625247518 -0.18268345413723178 -0.821081763844708 0.7088707534299886 0.43843775634424564 -0.8983158590144159 0.9343205496314807 -0.673693202954325 -0.33978801290003263 -0.8423278119586483 0.7199237946442252 0.91 0.84 0.34 0.72 -0.59 0.01 0.13 0.08 0.06326543823900632 -0.5387121711669998 0.1 0.9599860909470361 0.7099324417427468 0.4196149680478377 -0.2805152452712348 0.0778398019238906 0.03771937013328042 0.6870186191025146 -0.6607385010111022 0.76871221898808 0.03867099835728185 0.38582263481951773 0.40135187560366903 0.2641228329163142 -0.9439463971050632 -0.3946758450146404 -0.6123790451534871 0.33 0.38 -0.36 0.39 -0.78 -0.04 -0.79 -0.68 0.95 0.41824124136969354 -0.7987121711669998 0.31 0.5599948905519725 0.14993783504899813 -0.8702635455337536 0.07948547720068214 0.1590158119583436 -0.9203236600169904 -0.8813280831108196 -0.09025734194661134 0.8589938510519466 -0.4910909857369546 -0.11124209751961575 0.4142533252287799 0.01896141679373479 -0.16941457561303291 0.7105856526034134 -0.2501355374039311 0.68 0.32 -0.51 -0.72 0.1 0.68 -0.64 -0.65 0.99 0.05813434356396352 0.9112878288330003 0.32 -0.92 0.11997729134209976 -0.010054020221466854 0.502878377376834 0.9737023227370871 -0.177381707223467 0.920010847885634 -0.024446695739552004 0.47122307687629067 -0.6006063206575568 -0.12226940433710293 -0.7987370641899084 0.5440756355764631 0.970734998198111 -0.5171443678198071 -0.8800123174761285 -0.53 -0.57 -0.92 -0.03 -0.04 -0.23 -0.7 0.17 0.11754135046820866 0.49690501879806787 0.7512878288330003 0.77 0.6 0.3 -0.8672519832734846 -0.8261813239476521 0.4045997513378931 -0.2455266752864795 -0.7502658389763178 -0.6039149071828075 0.9488967505645398 -0.6784390142967712 0.04540319902277013 0.0956472123960195 0.30863403899947456 -0.38930648171223964 -0.7889955282888862 0.1529446628349267 0.77 -0.65 0.98 0.64 0.75 -0.92 -0.61 0.42 0.6635861316561965 -0.9835760213277174 0.05128782883300023 0.8 -0.03 0.5321337931532706 -0.750482111049794 -0.8852982306239353 0.053479343945464414 -0.3699615737815313 0.7217248846577332 -0.8955381138228254 -0.0055412016017226525 0.4041832349614443 0.5939782030568197 0.8656033574594985 0.28697867342750727 0.41074788016729075 0.43326307322539387 -0.34028261264474186 -0.87 0.7 -0.54 -0.81 -0.48 -0.19 0.68 0.58 -0.18849837555553964 -0.9335760213277174 -0.6364138683438035 -0.82 0.8403128363138557 -0.9297166222934357 -0.05535378717950439 -0.33688331676519384 0.25941758885831606 -0.5344720267421368 -0.8239908282942798 -0.14575259832382367 -0.7059758533822017 -0.6661202183018154 -0.6462164129542071 0.5798433770017517 0.2858292277203627 0.17299634966499297 0.5639700814871678 0.3014841850562141 0.77 -0.69 0.83 0.35 -0.6 -0.81 0.05 0.41 0.7415016244444603 0.4964239786722826 -0.27358107649195695 0.5099873756846941 0.19317386305988077 0.6146422677219625 -0.015384444188280905 -0.3183974764018292 -0.3858156058119835 -0.7659023509808885 0.7440304039174537 0.4737613877424169 0.9830234142144487 -0.8008317722707079 -0.03571607578538512 -0.786987967921421 0.5661759064087573 -0.40001311186118826 -0.17515889931196943 0.15148418505621417 -0.76 -0.81 0.05 -0.81 0.69 0.96 -0.36 -0.14 0.45150162444446035 0.7964239786722827 0.22545684325647253 0.07998264156645438 0.9614593323984066 0.124557190119507 0.5380925688285789 -0.6732518269754978 -0.8992708487315509 0.06627668131135872 0.7356955551935094 -0.5791691813945445 -0.03925732459186403 -0.5888207198461005 -0.665729129997898 0.9730213810658295 0.1465310428366777 0.34287982434352504 0.3248999939447291 -0.6884569216870873 0.93 0.4 0.75 0.92 0.38 -0.69 -0.66 -0.91 -0.6780173354297544 0.3664774275751476 -0.032667389979011925 -0.9066006596992784 -0.08682053291965801 0.1533291187237021 -0.28768835868501225 -0.47438970508015715 -0.24415519170827357 0.4847619580601129 -0.5933818301994149 -0.3904452691814167 0.8021887513684325 -0.587527250399769 -0.826395245332791 0.6433864004146149 0.7265004529058806 -0.9450999775366425 0.7848411006880306 0.18871620199138303 0.48 -0.26 -0.25 0.83 0.34 0.61 -0.44 -0.41 -0.86 -0.8363604194409384 -0.47946045580711016 0.40548675771735176 0.2851678860855322 0.7537332525763475 0.1716030086631353 -0.8356683138815129 -0.27324276549076 0.7697331756433993 0.8696569697743131 0.5794858010877123 -0.42055899232339716 0.3566796475287729 -0.7715912427222036 0.11146454208238943 -0.41467981264137094 -0.11509959253516057 0.5909541790176603 -0.1392932809196176 -0.47 0.25 0.73 0.81 -0.76 -0.88 0.41 0.62 -0.27 -0.81 0.75 -0.015122273852268251 -0.0053074029092219635 0.8130682572112017 0.9200011977823885 0.9599953112232835 -0.330025450995324 -0.5200573366039964 -0.11024930585781736 -0.49047641396086783 -0.8806032979936339 0.554237574180546 0.015236809074247223 0.8689182041483271 -0.4132825771031976 0.5632340136132385 -0.7958177042031362 0.020000313704911277 -0.8499997670978688 -0.4399997670978689 -0.34 0.6 0.57 0.99 0.86 0.78 0.69 0.45 -0.07999998574068586 -0.5450683368243072 0.8848227273721146 0.918540667719524 -0.7499994961709001 -0.19002694783310153 -0.5200289922547279 -0.7600705819986219 0.47972960573612117 -0.5104691793790647 -0.2633412351194538 0.4170959328161119 -0.8053246806271368 -0.18175140092177886 -0.35304668380231 -0.9799997929603788 0.8800011454982366 -0.0999988022176115 0.8500011977823885 0.7600010599423518 -0.88 -0.7 -0.85 -0.16 -0.03 -0.71 0.04 0.33 -0.5099995009240048 -0.8953509287467043 0.23096694659523745 -0.5986977702885253 -0.859999914444115 -0.7900288762920654 -0.3700383072088077 0.2098612169441979 0.24977111549501463 0.0389765849240086 -0.45897092901372505 -0.6020115291751181 -0.28011372968839726 0.01471992172563494 0.2867715370208978 0.61 0.6400004230263198 0.800000855558849 -0.609999144441151 -0.9399998241351254 -0.02 0.65 -0.91 0.74 0.46 -0.65 -0.43 -0.97 0.589893759960927 0.821162145377669 0.6889425362888651 0.48999584430226345 -0.4627722576576777 0.8920184733983011 0.3715658603999167 -0.7763504536828766 -0.4717472486689305 -0.9516801669645358 0.608669760966082 -0.42287348542971287 -0.06270059674231321 0.06904470303473342 0.9248614265666371 0.8 -0.75 -0.11 0.61 -0.31 -0.64 -0.55 -0.16 -0.4 0.51 0.42 0.4 -0.42 -0.44036502111228426 0.6433392502373427 -0.33983298521560606 -0.5308847413721864 0.6091051367786315 -0.4516278876731331 0.018310649112904597 0.08917106144222803 -0.06121582079609287 0.568617200487923 -0.9346725962225044 0.542580723561538 -0.779616905158857 -0.0637243352233241 0.2548689053249572 -0.37 -0.61 0.31 -1.0 0.59 -0.32 0.1 -0.02 0.63 0.85 0.84 -0.72 -0.72 -0.03036594321459924 -0.07879908536235526 0.8482210595584918 -0.2679268677165495 -0.3411593272857193 -0.20124786651579574 0.7686740780139804 0.37876157717419606 -0.37226845833949224 0.5323697488771675 -0.8557627721568827 0.3096753252428023 0.8709366941047346 0.5864217148507708 -0.5881776821383494 -0.72 -0.34 0.31 0.07 0.54 0.61 0.23 -0.04 0.4 -0.45 0.18 0.44 0.7099843877976936 0.9798649540526152 0.9596595846482645 0.6609570861462287 -0.6231346713273233 -0.5082164717709867 0.11175985688575937 0.0005884858067280799 -0.4476272844460641 0.33635538292267514 0.7843716669719232 -0.2814337574658271 0.7699285002629617 -0.76904922877969 0.6963682659479057 -0.10817768213834948 0.88 0.04 0.83 -0.9 0.64 -0.34 0.78 0.54 0.53 -0.44 0.33 -0.93 0.8799613952815696 -0.08007181613060946 -0.07008413360673794 -0.6802530589936429 -0.930476465381246 -0.04050404285008479 -0.7003693505391163 0.4397888038673782 -0.6300422313467262 0.75 -0.8401220093898812 -0.24025638696066073 -0.37015766144145235 -0.7551642335027208 0.5664239786722826 0.7618223178616506 -0.98 0.19 -0.66 -0.68 -0.73 -0.68 0.8 -0.87 -0.11 -0.25 -0.02 -0.55 -0.19 0.63 -0.56 -0.97 0.77 0.69 0.19 -0.61 0.24 -0.31 0.10998895372410733 0.5398548203739821 0.41980116703393194 -0.7901341333501253 0.47999132078322715 0.91 0.38 -0.85 0.41 -0.33 0.99 -0.42 0.14 -0.97 0.81 -0.97 -0.03 0.36 -0.25 0.62 -0.23 -0.31 0.29 -0.43 0.19 0.0 -0.58 -0.93 -0.42 0.6499889537241074 0.3598840141031269 0.749801167033932 -0.210033138827678 0.62 -0.68 0.45 0.82 0.69 -0.75 -0.5 0.13 -0.82 -0.59 -0.71 0.73 0.9 -0.71 0.12 -0.27 -0.98 0.72 -0.81 0.19 0.24 0.56 0.55 -0.03 -0.71 -0.67 0.29 0.28 0.73 0.08 -0.09 -0.14 0.37 0.41 0.0 -0.63 -0.48 //0.25 0.41 0.56 -0.35 0.21 0.16 -0.02 0.9 0.03 -0.93 -0.74 -0.49 0.93 0.21 -0.77 0.56 -0.25 0.05 -0.97 0.62 -0.02 -0.63 -0.44 -0.83 -0.47 -0.79 0.32 0.12 -0.56 -0.19 0.84 0.62 -0.56 0.82 -0.36 -0.77 -0.35 0.08 -0.61 -0.49 0.67 0.92 0.0 -0.67 0.78 0.34 -0.51 -0.99 -0.11 -0.28 -0.39 -0.55 -0.13 -0.65 -0.51 -0.58 -0.02 -0.06 0.74 -0.1 -0.63 0.66 0.97 0.28 0.64 0.54 -0.08 -0.54 0.58 0.67 -0.03 -0.59 0.92 0.13 0.2 0.69 -0.18 -0.2 -0.92 -0.53 0.29 -0.22 0.38 0.79 0.78 0.59 -0.13 -0.62 -0.38 -0.91 0.29 0.34 0.56 -0.83 0.78 0.32 0.54 0.68 0.02 0.67 -0.09 0.43 -0.98 0.77 -0.67 0.13 -0.05 -0.82 0.74 -0.07 0.73 -0.22 -0.05 0.52 -0.43 -0.59 0.69 -0.84 0.1 0.12 0.82 -0.06 -0.29 -0.05618117160056945 0.2807589451827162 -0.16003503248079773 0.3851369100647786 -0.45927788294314176 0.030687452403762857 -0.26952070552578 -0.09004163690892297 -0.3500130933675858 -0.54 0.01 0.7400008452218262 -0.16999915030610063 0.03 -0.33 0.4 0.67 0.39 0.04 -0.83 -0.35 0.67 0.58 0.64 -0.53 0.77 0.85 0.4793652220271749 0.532494277288535 -0.8263041115866384 0.33451890493504693 -0.6535552342724119 -0.35370983405174705 -0.6335999898797041 0.11931486791035262 -0.10663100418339216 -0.9467895506661798 -0.34133140546029 -0.4580244781721503 0.10392465289858108 0.00015196655541763207 0.09 -0.64 -0.6 0.33 0.49 0.88 0.41 0.96 -0.8442303085579856 0.03753782269037364 -0.4 0.09 0.6800357359830453 -0.6194094746284041 0.4035188987146019 0.4641330240676736 -0.5437841209062879 0.07669571389938411 -0.05334723480925395 0.18655004250114177 0.386528717215459 -0.8149152064507399 0.8497892043085266 0.17336152009212072 -0.7153166917910235 -0.320944392200481 0.9440409902766076 0.5500766213621213 -0.02 -0.8 -0.91 0.7 -0.45 -0.38 0.01 0.07 0.17172550196280345 -0.22483129507986538 0.34 0.7900583687723073 0.8202835054654924 0.5325683574143548 -0.7964891885809086 -0.8770373945509127 -0.544291903766049 -0.9633575633790576 -0.05608028532612774 -0.6434461872745886 0.6965305907602674 0.39655137409136787 0.9061273938555048 0.42343708954736764 -0.43250208801700785 0.08279264793713903 0.23452109066193552 0.63 0.08 0.72 -0.7 0.25 0.29 -0.39 0.74 0.08 0.8904730986652123 0.4451687049201346 0.96 -0.7299785584101728 -0.6297391273237696 0.9416889325557514 -0.03649577705648649 -0.2865387111146925 -0.27798049547791426 0.6151075523695924 -0.06894664436571682 0.4549423706220087 0.8150086801283338 -0.31425961159220644 0.5662849802852493 0.9556790923649646 -0.8732183884033556 -0.9717570560792519 -0.4092483737817581 0.24 0.63 -0.37 0.39 -0.89 0.58 0.39 -0.32 -0.7 0.650659217743987 -0.014831295079865393 0.39 -0.85 -0.10990470404521262 -0.13976738013806164 0.9604726688567666 0.040603450765505145 0.638218860678309 0.3290047458368009 -0.7368453518530496 -0.8868940610773096 -0.7268960706236973 0.47341524615918945 -0.9633968493027623 0.5802166394409444 -0.04322137299074384 -0.9262206202859803 -0.8999108489454979 -0.06 0.34 0.6 -0.05 0.4 0.59 -0.54 -0.13 0.5342807388118171 -0.05720041285010442 0.025168704920134607 -0.99 0.77 0.48 0.3799965120604261 0.30992860104078174 -0.03989281158861146 0.08025720070348309 -0.38765789948463103 0.12910452728665675 -0.5168381082987225 -0.496894718849731 -0.9358111413399258 -0.03135245442268151 -0.09837402714826363 -0.303221105980559 -0.5930179369965081 -0.9100130933675858 0.71 -0.82 0.92 0.82 -0.47 0.78 -0.89 0.51 0.7611671447264795 0.27363712300438153 -0.9348312950798654 -0.97 -0.08 0.1799903933249414 -0.6500436752108645 -0.13007114335990477 -0.42989698575419066 0.24852461257787092 -0.8572355750533587 -0.0268866254013705 0.33319653153080125 -0.4657421114725023 -0.8844834593885356 -0.724471037743521 -0.5853033984270591 0.036778588810841076 -0.86718893946103 -0.8000432081130333 0.37 -0.01 0.89 0.8 -0.99 -0.63 0.58 -0.05 0.02479646676258529 0.9936371230043815 0.8811671447264795 -0.68 0.5299984955635579 0.15995404748964884 0.21993465365633513 -0.14642528000051924 0.4294534115466689 0.2929535784401885 0.6034816702451331 0.6444587806304758 -0.4741030557609988 -0.25371703070237794 0.9763085925099004 -0.8485398841808506 0.3568366486560063 -0.3573698762008749 -0.7684624151580756 0.15994893586641523 0.14 0.92 0.88 -0.26 0.69 0.07 0.09 -0.97 0.4547964667625853 -0.7063628769956185 -0.12376501086104896 -0.26999995826856893 -0.7600143213332968 0.9599346666974072 -0.48965778260587445 -0.01105865180126907 0.9549174968617874 0.5455951727859382 -0.5440670396846237 0.6167052557891413 0.37789476410535894 0.6244685016622411 -0.46713598863903405 -0.6106248908127548 -0.545071767124747 -0.9112413601734312 0.23993400942736737 -0.9100510641335848 -0.79 -0.54 0.92 -0.9 0.57 -0.57 -0.93 -0.92 -0.8452035332374147 0.16363712300438155 -0.29208993915207704 -0.4699999426192822 -0.9500511745773073 -0.31949205192912217 0.2871526152495299 0.017770119699087032 -0.3959948175272919 -0.3710226955899236 0.550458171011493 -0.15085508186622326 1.0393098686960212 -0.14160382410723224 -0.9269059798802786 0.4502502879996439 -0.9065505131575855 -0.46634439459919463 -0.7600662524399844 0.0899486739990635 -0.57 -0.48 -0.9 0.07 0.87 0.0 0.33 0.19 0.14395893090809933 -0.5564559365350058 0.5020551108347969 0.9792434644658776 0.9491999192129217 0.2297720155086484 0.7463542783987908 0.926851246167802 0.5264802513279143 -0.8877951276227815 -0.2701586259237802 0.13482027942067942 0.760474173286383 0.387964134891636 1.007073774398856 0.5306218007252345 0.7142344298439239 -0.6900665125113887 -0.22006599057263262 -0.24003875636805408 -0.51 0.62 0.85 -0.16 0.1 -0.02 0.09 -0.21 0.59 -0.12892591481290788 -0.8435284615284427 0.8764496688170258 0.8564065537696763 -0.19359035441513112 0.7768505735287281 -0.5293237200854853 0.7358804956025623 0.46057829025895114 0.48065741588854244 0.550686394728348 0.2607688689712229 0.7035959247739071 -0.1939132879034738 0.2770486558820918 0.6244108474520811 -0.6200700234753481 0.7499509892559422 -0.4300031424082206 -0.42 0.25 -0.18 0.14 -0.47 0.89 0.63 -0.47 -0.9 0.59 0.75 -0.20002162575716687 0.7199291461489357 -0.8300688811552481 0.8499890770010154 -0.40000407022741163 -0.7099835111663876 0.5100197026311301 0.4600892383507696 0.3501118141084898 0.5007308469773413 0.3233349867420001 0.6823302784087552 -0.2534353045092886 -0.02354280841192029 0.1400063936107091 0.57997343189496 0.8799971392145517 0.7399978760835307 0.6499978760835308 0.37 0.9 0.44 0.54 -0.63 -0.18 0.14 -0.77 0.09999986996429781 -0.25002765727660864 0.5499232161185044 0.8899515830325913 -0.8400045945948109 -0.6699825437847183 -0.43998048519594235 0.6900174947751876 0.40005516182900486 0.5301520404338605 0.2527978757299597 -0.24554715071953814 0.022319322625052422 -0.072371360032128 -0.4135549978758729 -0.450004682874283 0.5599895537985903 0.49998907700101547 -0.6300109229989845 0.14999033401280337 0.44 0.5 0.1 0.65 -0.45 -0.32 0.66 -0.4 0.7699954487504231 0.16175780096172604 0.3469720818520661 -0.5817649080373087 0.44999921978578683 -0.5099834939015825 -0.8499877868046362 -0.6999439427882685 -0.469804131078082 0.5426390837406995 -0.17655363939215146 -0.803500479566654 1.0122960904710288 0.9401933708280152 -0.9335363539530442 0.27 -0.10000385772583184 -0.2500078021421318 -0.8100078021421319 -0.3700016037736604 -0.27 0.21 0.16 -0.58 -0.57 0.15 -0.55 0.48 0.7607668750115921 0.7172090972130228 -0.5237723528249176 -0.5801559862349672 0.31569300936274763 -0.7967017965632536 0.5601374910047437 0.874888019384896 0.7185745394825175 -0.4897794959631035 0.6964773824042426 -0.7733989305536981 0.6218232080203456 0.35763784918063046 -0.27042457207721426 0.22 -0.59 0.72 0.91 0.37 0.66 0.6 0.36 0.36 -0.18 0.98 -0.27 -0.71 -0.027359912558245682 0.13835895192313738 -0.2289553519264975 0.1749212074426337 -0.9351791425455428 -0.21790230693478266 0.21833324939517598 0.6638652366519295 0.12591688480594723 0.5866194341935047 0.9465010178601323 -0.73730883822945 0.2591760498503038 -0.29529859361720423 -0.4610662842188164 -0.73 0.37 0.91 -0.28 0.09 -0.07 0.02 0.7 0.61 -0.42 -0.99 -0.43 -0.46 0.842648496417163 0.5232195161592875 -0.9039157489079268 0.3729511221772222 0.37655815807811766 -0.5234402365118606 -0.9234421282139873 0.036540355746148334 0.5864756434965555 0.8264203796540425 -0.2854957433283464 0.6320178208949981 -0.5741189575784712 -0.4963556704063008 -0.6357618904737387 0.28 -0.06 0.16 -0.98 -0.01 -0.63 0.31 0.23 -0.94 -0.05 -0.2 -0.11 0.48006551596891633 -0.11917105631569228 -0.4077312581338923 0.9335042647352986 -0.4058812603157297 -0.22589749952249838 -0.09589706030047859 0.09845487176373444 -0.09401962500420884 0.7557345575100315 0.5836458400467859 0.6652155258212676 0.10006046830567647 0.025779155502097695 0.033737389133086534 0.5542381095262614 -0.52 0.31 0.76 -0.53 -0.77 -0.82 -0.32 0.13 0.09 0.35 -0.08 -0.08 0.7301620031231385 -0.9896986265429849 0.16039052451151725 0.5516131675446893 -0.18675267150416783 -0.23661474470711583 0.46236747739366996 -0.08865204211223426 -0.13969433924170702 0.48 -0.7699643234405756 0.030044729113522645 -0.1599929700754702 0.12893382532619024 0.07363712300438154 0.07423810952626131 0.57 -0.66 0.38 0.25 0.53 0.22 -0.61 -0.31 0.91 0.39 0.15 -0.37 0.66 0.1 -0.82 -0.28 0.14 0.51 -0.42 -0.17 0.99 -0.24 0.7100000365150022 -0.5299995200885422 0.22000065727003998 0.08000044339645555 -0.6699999713096412 -0.54 -0.9 -0.02 0.1 -0.21 0.35 -0.3 0.52 -0.25 -0.1 -0.74 0.01 -0.1 -0.14 -0.09 0.7 0.25 -0.58 0.43 0.27 -0.31 -0.16 0.11 -0.1 0.07000003651500222 -0.6699996165924768 -0.99999934272996 0.5200001095450066 -0.43 0.48 -0.18 0.95 -0.72 -0.35 0.59 -0.23 0.43 0.33 0.78 -0.95 0.35 -0.66 -0.45 -0.86 -0.99 0.56 0.6 -0.23 -0.65 -0.78 -0.91 -0.36 -0.11 -0.46 0.61 0.0 -0.27 -0.95 -0.78 -0.42 -0.4 0.71 0.37 0.83 -0.62 //-0.99 -0.46 0.73 0.55 0.18 -0.28 -0.3 -0.82 0.89 0.28 -0.8 -0.9 -0.44 0.66 0.19 -0.69 0.83 0.8 0.63 -0.74 0.38 -0.34 0.46 -0.5 -0.96 0.67 -0.57 0.2 -0.98 0.27 -0.01 -0.39 0.34 -0.15 0.86 0.99 -0.35 -0.17 0.88 -0.59 0.93 -0.91 0.44 0.21 -0.75 0.42 0.06 -0.25 -0.43 -0.32 0.53 0.09 0.4 -0.35 0.4 -0.17 -0.47 -0.71 -0.86 0.86 0.03 0.84 -0.65 -0.26 0.2 0.46 -0.95 -0.27 0.04 -0.45 0.16 0.52 -0.11 0.64 0.26 -0.55 0.3 0.25 0.04 0.47 0.96 -0.34 0.18 0.46 0.22 0.27 0.07 -0.56 0.34 -0.53 0.69 -0.94 -0.31 0.93 -0.4 -0.94 -0.29 -0.05 0.41 0.97 -0.52 -0.02 0.86 -0.24 -0.97 -0.89 0.44 -0.69 -0.7 0.08 0.67 0.36 -0.28 0.15 0.98 -0.15 0.15 0.27 -0.98 -0.24 0.88 -0.78 0.03 -0.9199128336582423 -0.08974859853249467 0.46046595101412297 -0.9496460187070515 -0.610339733157611 0.06841789265453559 0.4071053339428415 -0.341827003258022 -0.610574529326422 -0.11 0.66 -0.2391301391144141 -0.659125536675866 0.37 0.21 -0.4 -0.03 -0.86 0.95 0.92 0.18 -0.55 0.73 0.85 0.61 -0.41 0.58 -0.9097862349237845 -0.14949631629939755 0.3204889563086459 -0.21971326787073317 -0.1900975403322024 0.45745154546051386 -0.7947076998859753 0.5346399862015102 0.3537693757124937 0.8868030569499011 -0.13293107312053754 -0.13365585487494072 -0.6933362585262075 0.08837275730788972 -0.65 0.74 0.61 0.99 0.02 -0.91 0.17 -0.11 -0.5799026003848832 0.5901272478842655 0.76 0.2 0.6694492718606381 -0.5706608694307155 0.8383117561849921 0.5676549352684612 -0.5025607986774614 0.7155561223800411 -0.9465853674945973 0.4127908463569589 0.4327230950123633 0.4128434140936979 -0.46691590048116777 -0.9761952052464274 0.42552596590324315 0.2969107861995728 0.40759532613450256 -0.4007790769821712 -0.63 0.45 -0.51 -0.27 -0.98 0.06 -0.74 -0.26 0.37019794115330196 -0.9697439332699348 0.7 0.2991004773723755 -0.1943691099056047 -0.024644456024114966 -0.08464444856126872 0.8354145848562238 0.8850579708577088 0.5834173552525838 0.38303987135726164 0.5828346342595032 0.9628133874213076 -0.09658999680243155 -0.15261198114137853 -0.23459430512749566 0.12669389096246944 0.4590625431449142 -0.6797924461612079 0.4 0.68 0.76 -0.97 0.1 -0.71 -0.72 0.62 0.65 0.7803456115375114 0.0802560667300652 0.62 -0.2803304368836172 0.7459796845826578 -0.7546601759261629 0.5551963269451247 -0.9067460928033021 0.09300034257137105 -0.3060362630711419 0.08411492556469745 0.33416134956980864 0.03311827103505731 0.10323951578166257 0.3787750799726689 0.3780864379427584 0.14855707474869842 0.5793346680373884 0.040216320561866595 -0.1 -0.83 0.55 0.24 0.63 0.9 -0.02 0.7 -0.36 -0.17965124653942038 -0.8297439332699348 0.82 -0.22 -0.5514686083716319 -0.262963384939887 -0.9928005237079265 -0.3275837305034058 -0.6665515010374976 -0.8749681940035318 0.3085349355960115 -0.640732628710885 -0.40315521351704026 0.9150961650485271 0.9093526438141075 -0.6298434825856853 -0.8313923291006051 -0.6313612334765412 0.3700000007059449 0.41 -0.38 0.69 0.29 -0.94 -0.45 0.3 0.4 -0.07992773576942945 -0.39961511442413516 0.8202560667300651 0.87 0.35 -0.33 -0.010975025802174956 0.6270436259779677 -0.30592595574417636 0.5532522179938653 -0.8623424573626355 -0.6090941533894595 0.7898182010057061 -0.13082526790672924 0.30027684680375644 -0.6496192579839041 -0.31878489667859755 0.8285985564830566 -0.20229460712742503 0.759425470673578 0.33 0.61 -0.94 -0.06 0.33 0.74 -0.57 -0.74 -0.639811484615903 0.14039902422967218 0.8402560667300651 0.14 -0.1 -0.8604048362457286 0.4181377790353389 0.007019518450523388 0.6353483284387754 0.264309860995054 -0.722883354832681 -0.46908568906494064 -0.42927207173314263 -0.589405347023536 -0.07945608443710227 0.24083680305253682 0.31127779002702965 0.7883357598721722 0.5471729436839534 0.29810405322280736 0.46 0.2 0.09 0.63 0.02 0.68 0.2 -0.43 -0.36975021711607137 -0.7796009757703278 0.570188515384097 -0.13 -0.9500500737925449 0.4280156371791124 0.61716388804681 0.7975011535711168 0.6404963023074779 -0.6920506164329241 0.4860859569652092 0.41958139260951727 -0.5292532110076288 -0.35939810234251246 -0.618866709387161 -0.908746424384935 -0.15882477669437295 0.02736937809913915 0.6271295084870229 0.5277593356269542 -0.99 0.85 -0.21 0.76 -0.31 0.31 -0.9 -0.92 0.9802497828839286 0.05039902422967216 0.9701052544227875 0.9000038552778609 0.6694009380968613 -0.5628349071788585 0.26735389321314257 -0.9995478537868572 0.2116724550831236 0.35054280084242095 -0.7737654823680038 -0.34334232399587533 0.3577456524186866 0.5691603032941369 0.7817642234655798 0.021591116837374337 0.6406698649514886 -0.8127673006569984 0.2371043721948331 -0.9522406643730458 -0.89 -0.84 0.86 0.7 0.13 0.33 0.8 0.12 0.6802497828839287 -0.8096009757703279 0.4901335317304021 -0.6399946989929414 0.39780399424786966 0.0875954408734455 0.9290622917388915 0.4112454500703753 0.8415481212667222 0.8015206940189872 0.7798743569610944 -0.6833326135152864 0.29639501502036725 -0.1330233106611958 0.40952795958678545 0.8407629195484 0.27035921877189184 -0.9028672611033866 -0.7229071183916953 -0.30225215495957425 -0.76 0.12 0.67 -0.77 -0.16 0.91 -0.38 -0.51 0.42023564423012133 -0.129602546731862 -0.7996276821164083 -0.9805442402607331 -0.77202241032789 0.37864486326322483 -0.9997252604347828 -0.6386136018873372 0.8911896208003476 0.7615054760131548 0.011715742584688875 -0.5792802366608042 0.37809127907929385 -0.6831460250008978 -0.4133102589693448 -0.002274668939288246 -0.2902254684379384 0.10708659643092547 -0.1928956278051669 -0.15170060680620912 -0.72 0.37 -0.52 -0.17 -0.56 0.25 0.65 0.54 0.76 0.750186944422563 -0.04972193980845681 0.6397017724903081 -0.2714553881977898 -0.02125305530097224 0.44085094609051273 -0.6797585651035075 0.21021773067451435 -0.7791709743569318 0.8413289730544127 0.751526553474339 -0.6489717028334007 -0.8105036721947019 0.9869525305742245 0.20690942787378447 0.38532296271135824 -0.28299825346369384 0.21785541819876772 -0.7601378870383413 0.93 0.77 0.29 0.88 0.13 0.35 -0.52 -0.32 -0.14 0.87 -0.17 -0.5401074741785995 -0.8320199053770748 0.9676246607319423 0.44973602255007333 -0.610186481480428 0.10999278783635452 0.22020414687897746 -0.8489791559489896 -0.7586555218381008 0.8512920817408904 -0.4484954996726341 0.407167756647711 -0.8147421854713215 -0.5174573087242688 -0.9140242461161312 -0.031008577083148237 -0.9500691369511712 -0.7800513289485969 -0.02005132894859685 0.54 0.7 -0.79 0.43 -0.43 -0.78 0.09 0.51 -0.6900031425886896 0.6393917068033234 0.2969738654628006 -0.7819185896713553 -0.010111038133699311 -0.02000769802795187 -0.9099891555400417 0.6502406765830893 0.19102137318931864 0.3404413046867208 0.5084486280571415 0.5868051917772803 0.9844520090976049 -0.31685053827659665 0.9142262345107245 0.019792537471907432 0.5497475453752686 0.4797360225500733 -0.6002639774499267 0.9797664009074062 0.89 -0.52 0.49 -0.91 -0.65 0.93 -0.32 0.48 -0.690109990604136 0.14878726500557377 0.11720673088654186 0.9475092213552351 -0.9600188555321376 0.4499344612118842 0.7899018010124353 0.36972046157048166 0.06819224964466009 -0.9029412068015813 -0.6250975179110411 -0.6166484118785619 0.44324753506408315 -0.37598126330622567 0.62674846822483 -0.79 -0.09009323013112489 -0.6501885553213762 0.2398114446786238 -0.9900387585938384 0.5 0.21 -0.49 -0.24 -0.93 -0.3 -0.65 0.21 -0.9602419731772937 -0.16090029503875383 0.18737490169459137 0.3373703119728274 -0.27176627290802613 0.448829623172477 -0.042122145454512004 0.8059788822961985 -0.9955533701432101 -0.7464260575661378 0.8733485523278902 -0.516653301020552 -0.7750433686837221 0.07834342710872856 -0.6698523230605878 -0.94 0.83 -0.51 0.77 0.45 -0.54 0.05 -0.21 -0.67 0.71 0.29 0.74 -0.08 0.9097831823570662 0.8288776452872726 0.877249271809549 0.31694740733257926 -0.6238341940746577 -0.286113618010079 0.3441649306006793 -0.0559163697820306 -0.5563975211688895 -0.1567643234135708 0.7750098165235749 -0.7925197955808916 0.09026297660136332 -0.7595993970934714 -0.6398491876927224 -0.39 -0.81 -0.37 0.69 -1.0 -0.43 -0.34 0.05 0.84 0.52 0.6 0.28 -0.79 -0.13001359690767272 0.7092504318582258 0.8747150060454824 -0.5868219879099807 0.8529738237422946 -0.9060164408281398 0.49415639208075046 -0.9262765373700184 0.7942809776447471 0.5576369405369473 -0.05928600444537641 0.11011876262299303 -0.9197231556221993 -0.9895994054639611 -0.10975964288527622 -0.85 -0.85 -0.45 -0.89 -0.81 0.21 0.81 0.73 -0.61 -0.12 -0.48 -0.01 -0.21100966825549688 0.6168424969426061 0.565851197183476 -0.3249317132244797 0.4139020492079815 -0.19728641138300915 0.3532636819433669 0.20413690089359618 -0.003157163444387995 -0.11009991564812645 -0.13916288224273096 0.5804823526761483 -0.49992525840212404 0.1902768435710065 -0.15959783450242698 0.48024035711472374 -0.3 0.7 -0.85 -0.16 -0.48 0.42 -0.81 0.05 0.64 0.79 0.07 -0.45 0.7575033657682259 0.19535552602471434 -0.29464447326934073 -0.04464446358781048 0.686109248435229 0.3375300873557009 0.5075877444028805 0.7197157938174947 -0.6599999975796175 -0.63 -0.2797671122708396 0.09032166715581454 -0.08991575454263856 0.20016093241166244 0.43039902422967213 0.05024035711472378 0.09 -0.08 0.64 0.51 -0.55 -0.97 -0.86 0.61 0.2 0.69 0.99 -0.28 -0.34 -0.72 -0.19 -0.4 -0.4 0.76 -0.14 0.43 -0.3 -0.24 -0.5399966266318718 -0.9299556643046002 0.5600607206263085 -0.13995903767272844 0.3100026505035293 0.74 -0.26 -0.14 -0.89 0.74 0.35 -0.71 -0.17 0.72 0.06 0.95 0.2 0.72 0.42 0.89 0.22 0.73 0.45 0.49 0.15 -0.56 0.89 0.77 0.94 0.7600033733681283 -0.2899645796346534 0.31006072062630846 0.8900101201043847 0.45 -0.16 -0.78 -0.82 0.13 0.08 0.13 -0.73 0.86 -0.41 -0.11 -0.18 -0.54 0.75 -0.26 0.69 -0.66 -0.26 -0.05 0.74 -0.84 -0.98 0.85 0.48 -0.54 0.59 0.08 -0.42 -0.75 -0.67 0.97 -0.23 0.83 -0.02 0.83 0.41 0.92 //0.39 -0.65 -0.94 -0.2 0.37 0.14 -0.27 0.68 -0.71 0.66 0.41 -0.38 0.89 -0.58 0.72 -0.22 0.86 -0.77 -0.31 -0.04 0.7 -0.85 -0.58 -0.68 -0.89 -0.9 0.24 -0.26 -0.79 -0.79 -0.12 0.61 -0.07 0.19 0.8 0.18 0.89 0.76 -0.57 0.48 0.96 -0.2 0.17 -0.42 0.69 0.96 -0.04 -0.11 0.62 -0.02 0.43 0.52 -0.41 0.05 0.41 0.03 -0.67 -0.28 -0.75 -0.44 -0.07 0.83 0.41 0.87 0.5 -0.92 0.74 -0.39 -0.32 -0.46 -0.28 -0.64 -0.77 -0.86 -0.72 0.01 0.36 -0.43 0.33 -0.91 -0.16 -0.03 0.97 -0.69 -0.35 -0.99 -0.33 -0.09 -0.35 0.28 -0.95 0.87 -0.67 0.47 0.79 0.22 -0.89 0.75 -0.85 -0.8 -0.14 0.12 -0.97 -0.43 -0.8 -0.37 -0.62 0.27 0.54 0.37 0.78 0.97 -0.66 -0.11 -0.95 0.23 0.37 0.17 -0.36 -0.88 -0.02 0.5 0.4 0.07026974337325206 0.3807321999880309 0.4513614096204065 -0.5089711972445194 0.08125092185997627 0.03231216995004359 -0.01748823983195885 0.5015543195204307 -0.8495112202765941 0.41 0.92 -0.8702186633732714 0.019780179677663757 0.13 0.93 0.11 0.03 0.84 -0.63 -0.34 0.07 0.05 0.6 0.77 -0.47 -0.55 0.01 -0.7293384864894057 -0.448429696890409 0.621683684081132 0.2920661530172767 0.8826264588696594 -0.13547650365534009 -0.43280908499676973 0.7063095274940879 -0.8130265015321942 -0.7866081282432876 0.8943652955288875 0.966163560593818 -0.5645049454292704 0.8227662294956551 0.55 -0.76 -0.62 0.61 0.57 0.84 0.65 -0.61 -0.7099100816220529 0.05011747400989852 0.17 0.45 -0.6993047458182859 0.9008588922707994 0.24237354712950773 -0.604814880982391 -0.714329886734279 -0.37182695465672627 0.030012392778969985 0.6903617731145926 -0.9495810484097227 0.23031016733636547 -0.18128973276742513 -0.2329062784727426 0.16690034027213835 -0.13418914870781906 0.21430373721980558 0.8913837113014061 -0.02 0.04 0.48 -0.18 0.52 -0.45 -0.5 0.0 -0.9198172626512691 -0.7897636016837845 0.85 -0.7088644181698671 -0.16448431682506914 0.8159650900562105 -0.4139925969972094 -0.5431766203791624 0.198327618042251 -0.24989924718300197 0.12019285454466426 -0.4695797040606892 -0.5496152141381451 0.5499928908530854 -0.0753402374426562 0.17511957629689792 0.034886987975326245 0.4527257173491746 0.06077922881577576 -0.79 -0.59 0.83 -0.1 -0.53 -0.34 -0.44 0.9 -0.1 0.00031906521207005634 -0.7297636016837844 -0.88 -0.04958284749097162 0.015075355526512027 0.2959444928555711 0.31619848486850444 -0.3921011989861583 -0.14999928869545442 -0.7898976998999646 -0.8712609192964476 0.038659470650069486 -0.5299799305995108 0.9901331764990425 0.0819352524345669 0.002511771886050028 0.8528278584177724 0.6417705952404246 0.4199793593918974 -0.75 -0.87 -0.97 -0.09 0.57 0.93 -0.22 -0.77 0.54 -0.8396780341950929 -0.2697636016837845 0.74 0.84 -0.8481459888487627 0.8637383085557342 0.8633119038107976 -0.1414803332950408 -0.16108066137082935 0.38853698789441 0.9639123848438668 -0.3871618920642334 -0.004616860904162404 -0.35219910997204484 0.6414863388235439 0.9313728587407337 -0.767213876456206 -0.7981717769403329 0.6800040025760279 0.91 0.72 0.91 0.75 -0.3 0.52 -0.19 -0.11 -0.659933286364749 -0.9296446773774675 -0.17976360168378444 -0.09 0.23 0.53 0.7510216109421078 -0.30733241028032204 -0.16364975563102718 -0.8916556046195591 -0.8961268521186141 -0.7186162103736642 -0.8674805105791024 0.9631144606644333 0.07230206076986048 -0.7682621903626368 0.26046898254987855 0.3627684981563478 0.6924360562952686 -0.7195112202765941 0.59 -0.97 -0.45 0.3 0.94 -0.95 -0.89 0.85 0.08017403557022003 0.7103683752902991 -0.8197636016837844 -0.24 0.68 -0.1296279881601436 -0.658353308294153 -0.6073648340773522 0.28542100681927796 0.5682190101028528 -0.4941765737481952 0.1216373045335569 0.6919112398976908 0.6619799122768103 -0.9778502709541885 0.6411046050946075 0.38050467639778274 -0.9671667984857998 -0.5074922711911669 0.03161297308723938 -0.5 -1.0 -0.93 0.73 -0.73 -0.97 -0.18 -0.72 -0.21976940286945845 0.8403683752902991 -0.2898259644297799 -0.22 0.09006894389997805 0.7417410893779551 -0.6375355411427709 0.0025702086002721476 0.6720550250358504 0.10590886167702215 -0.5523024967816105 -0.43647088975197357 0.7520326025198475 -0.8979290495108663 0.261955674142128 -0.32937537581417714 